digraph Tree {
node [shape=box] ;
0 [label="X[7] <= 0.432\nmse = 3747654.435\nsamples = 731\nvalue = 4504.349"] ;
1 [label="X[1] <= 0.5\nmse = 2241571.905\nsamples = 296\nvalue = 3037.807"] ;
0 -> 1 [labeldistance=2.5, labelangle=45, headlabel="True"] ;
2 [label="X[0] <= 3.0\nmse = 1039088.724\nsamples = 157\nvalue = 2227.229"] ;
1 -> 2 ;
3 [label="X[2] <= 1.5\nmse = 344731.62\nsamples = 108\nvalue = 1711.139"] ;
2 -> 3 ;
4 [label="X[7] <= 0.219\nmse = 152891.098\nsamples = 57\nvalue = 1421.088"] ;
3 -> 4 ;
5 [label="X[8] <= 0.687\nmse = 114038.893\nsamples = 30\nvalue = 1258.2"] ;
4 -> 5 ;
6 [label="X[5] <= 0.5\nmse = 65568.79\nsamples = 24\nvalue = 1354.292"] ;
5 -> 6 ;
7 [label="X[9] <= 0.314\nmse = 6595.556\nsamples = 6\nvalue = 974.333"] ;
6 -> 7 ;
8 [label="X[7] <= 0.186\nmse = 2345.36\nsamples = 5\nvalue = 1004.8"] ;
7 -> 8 ;
9 [label="X[9] <= 0.257\nmse = 217.25\nsamples = 4\nvalue = 981.5"] ;
8 -> 9 ;
10 [label="X[3] <= 0.5\nmse = 64.667\nsamples = 3\nvalue = 989.0"] ;
9 -> 10 ;
11 [label="X[8] <= 0.418\nmse = 6.25\nsamples = 2\nvalue = 983.5"] ;
10 -> 11 ;
12 [label="mse = 0.0\nsamples = 1\nvalue = 981.0"] ;
11 -> 12 ;
13 [label="mse = 0.0\nsamples = 1\nvalue = 986.0"] ;
11 -> 13 ;
14 [label="mse = 0.0\nsamples = 1\nvalue = 1000.0"] ;
10 -> 14 ;
15 [label="mse = 0.0\nsamples = 1\nvalue = 959.0"] ;
9 -> 15 ;
16 [label="mse = 0.0\nsamples = 1\nvalue = 1098.0"] ;
8 -> 16 ;
17 [label="mse = 0.0\nsamples = 1\nvalue = 822.0"] ;
7 -> 17 ;
18 [label="X[7] <= 0.175\nmse = 21062.83\nsamples = 18\nvalue = 1480.944"] ;
6 -> 18 ;
19 [label="X[8] <= 0.569\nmse = 17859.75\nsamples = 8\nvalue = 1391.5"] ;
18 -> 19 ;
20 [label="X[6] <= 1.5\nmse = 8722.472\nsamples = 6\nvalue = 1451.167"] ;
19 -> 20 ;
21 [label="X[8] <= 0.454\nmse = 4787.44\nsamples = 5\nvalue = 1420.4"] ;
20 -> 21 ;
22 [label="mse = 0.0\nsamples = 1\nvalue = 1538.0"] ;
21 -> 22 ;
23 [label="X[8] <= 0.487\nmse = 1662.5\nsamples = 4\nvalue = 1391.0"] ;
21 -> 23 ;
24 [label="X[4] <= 2.5\nmse = 1806.25\nsamples = 2\nvalue = 1363.5"] ;
23 -> 24 ;
25 [label="mse = 0.0\nsamples = 1\nvalue = 1321.0"] ;
24 -> 25 ;
26 [label="mse = 0.0\nsamples = 1\nvalue = 1406.0"] ;
24 -> 26 ;
27 [label="X[8] <= 0.515\nmse = 6.25\nsamples = 2\nvalue = 1418.5"] ;
23 -> 27 ;
28 [label="mse = 0.0\nsamples = 1\nvalue = 1416.0"] ;
27 -> 28 ;
29 [label="mse = 0.0\nsamples = 1\nvalue = 1421.0"] ;
27 -> 29 ;
30 [label="mse = 0.0\nsamples = 1\nvalue = 1605.0"] ;
20 -> 30 ;
31 [label="X[6] <= 1.5\nmse = 2550.25\nsamples = 2\nvalue = 1212.5"] ;
19 -> 31 ;
32 [label="mse = 0.0\nsamples = 1\nvalue = 1162.0"] ;
31 -> 32 ;
33 [label="mse = 0.0\nsamples = 1\nvalue = 1263.0"] ;
31 -> 33 ;
34 [label="X[9] <= 0.144\nmse = 12104.85\nsamples = 10\nvalue = 1552.5"] ;
18 -> 34 ;
35 [label="X[9] <= 0.099\nmse = 3494.222\nsamples = 3\nvalue = 1686.667"] ;
34 -> 35 ;
36 [label="mse = 0.0\nsamples = 1\nvalue = 1606.0"] ;
35 -> 36 ;
37 [label="X[6] <= 1.5\nmse = 361.0\nsamples = 2\nvalue = 1727.0"] ;
35 -> 37 ;
38 [label="mse = 0.0\nsamples = 1\nvalue = 1746.0"] ;
37 -> 38 ;
39 [label="mse = 0.0\nsamples = 1\nvalue = 1708.0"] ;
37 -> 39 ;
40 [label="X[8] <= 0.438\nmse = 4774.286\nsamples = 7\nvalue = 1495.0"] ;
34 -> 40 ;
41 [label="mse = 0.0\nsamples = 1\nvalue = 1349.0"] ;
40 -> 41 ;
42 [label="X[7] <= 0.185\nmse = 1425.222\nsamples = 6\nvalue = 1519.333"] ;
40 -> 42 ;
43 [label="X[7] <= 0.182\nmse = 1446.0\nsamples = 3\nvalue = 1498.0"] ;
42 -> 43 ;
44 [label="X[4] <= 3.0\nmse = 441.0\nsamples = 2\nvalue = 1522.0"] ;
43 -> 44 ;
45 [label="mse = 0.0\nsamples = 1\nvalue = 1501.0"] ;
44 -> 45 ;
46 [label="mse = 0.0\nsamples = 1\nvalue = 1543.0"] ;
44 -> 46 ;
47 [label="mse = 0.0\nsamples = 1\nvalue = 1450.0"] ;
43 -> 47 ;
48 [label="X[6] <= 1.5\nmse = 494.222\nsamples = 3\nvalue = 1540.667"] ;
42 -> 48 ;
49 [label="X[8] <= 0.514\nmse = 36.0\nsamples = 2\nvalue = 1556.0"] ;
48 -> 49 ;
50 [label="mse = 0.0\nsamples = 1\nvalue = 1550.0"] ;
49 -> 50 ;
51 [label="mse = 0.0\nsamples = 1\nvalue = 1562.0"] ;
49 -> 51 ;
52 [label="mse = 0.0\nsamples = 1\nvalue = 1510.0"] ;
48 -> 52 ;
53 [label="X[9] <= 0.094\nmse = 123247.139\nsamples = 6\nvalue = 873.833"] ;
5 -> 53 ;
54 [label="X[9] <= 0.064\nmse = 17424.0\nsamples = 2\nvalue = 1228.0"] ;
53 -> 54 ;
55 [label="mse = 0.0\nsamples = 1\nvalue = 1360.0"] ;
54 -> 55 ;
56 [label="mse = 0.0\nsamples = 1\nvalue = 1096.0"] ;
54 -> 56 ;
57 [label="X[4] <= 4.5\nmse = 82083.188\nsamples = 4\nvalue = 696.75"] ;
53 -> 57 ;
58 [label="X[4] <= 2.5\nmse = 11162.0\nsamples = 3\nvalue = 540.0"] ;
57 -> 58 ;
59 [label="mse = 0.0\nsamples = 1\nvalue = 683.0"] ;
58 -> 59 ;
60 [label="X[6] <= 2.0\nmse = 1406.25\nsamples = 2\nvalue = 468.5"] ;
58 -> 60 ;
61 [label="mse = 0.0\nsamples = 1\nvalue = 431.0"] ;
60 -> 61 ;
62 [label="mse = 0.0\nsamples = 1\nvalue = 506.0"] ;
60 -> 62 ;
63 [label="mse = 0.0\nsamples = 1\nvalue = 1167.0"] ;
57 -> 63 ;
64 [label="X[6] <= 1.5\nmse = 133823.698\nsamples = 27\nvalue = 1602.074"] ;
4 -> 64 ;
65 [label="X[7] <= 0.317\nmse = 78107.449\nsamples = 15\nvalue = 1753.867"] ;
64 -> 65 ;
66 [label="X[8] <= 0.43\nmse = 43775.157\nsamples = 11\nvalue = 1658.455"] ;
65 -> 66 ;
67 [label="X[9] <= 0.159\nmse = 2382.0\nsamples = 3\nvalue = 1848.0"] ;
66 -> 67 ;
68 [label="mse = 0.0\nsamples = 1\nvalue = 1917.0"] ;
67 -> 68 ;
69 [label="X[9] <= 0.257\nmse = 2.25\nsamples = 2\nvalue = 1813.5"] ;
67 -> 69 ;
70 [label="mse = 0.0\nsamples = 1\nvalue = 1812.0"] ;
69 -> 70 ;
71 [label="mse = 0.0\nsamples = 1\nvalue = 1815.0"] ;
69 -> 71 ;
72 [label="X[9] <= 0.187\nmse = 40772.484\nsamples = 8\nvalue = 1587.375"] ;
66 -> 72 ;
73 [label="X[9] <= 0.164\nmse = 21520.667\nsamples = 3\nvalue = 1768.0"] ;
72 -> 73 ;
74 [label="X[8] <= 0.653\nmse = 1980.25\nsamples = 2\nvalue = 1667.5"] ;
73 -> 74 ;
75 [label="mse = 0.0\nsamples = 1\nvalue = 1623.0"] ;
74 -> 75 ;
76 [label="mse = 0.0\nsamples = 1\nvalue = 1712.0"] ;
74 -> 76 ;
77 [label="mse = 0.0\nsamples = 1\nvalue = 1969.0"] ;
73 -> 77 ;
78 [label="X[8] <= 0.471\nmse = 21003.2\nsamples = 5\nvalue = 1479.0"] ;
72 -> 78 ;
79 [label="X[4] <= 1.5\nmse = 30.25\nsamples = 2\nvalue = 1594.5"] ;
78 -> 79 ;
80 [label="mse = 0.0\nsamples = 1\nvalue = 1589.0"] ;
79 -> 80 ;
81 [label="mse = 0.0\nsamples = 1\nvalue = 1600.0"] ;
79 -> 81 ;
82 [label="X[8] <= 0.511\nmse = 20162.667\nsamples = 3\nvalue = 1402.0"] ;
78 -> 82 ;
83 [label="mse = 0.0\nsamples = 1\nvalue = 1204.0"] ;
82 -> 83 ;
84 [label="X[7] <= 0.222\nmse = 841.0\nsamples = 2\nvalue = 1501.0"] ;
82 -> 84 ;
85 [label="mse = 0.0\nsamples = 1\nvalue = 1530.0"] ;
84 -> 85 ;
86 [label="mse = 0.0\nsamples = 1\nvalue = 1472.0"] ;
84 -> 86 ;
87 [label="X[7] <= 0.371\nmse = 78641.688\nsamples = 4\nvalue = 2016.25"] ;
65 -> 87 ;
88 [label="X[5] <= 0.5\nmse = 20592.25\nsamples = 2\nvalue = 2258.5"] ;
87 -> 88 ;
89 [label="mse = 0.0\nsamples = 1\nvalue = 2402.0"] ;
88 -> 89 ;
90 [label="mse = 0.0\nsamples = 1\nvalue = 2115.0"] ;
88 -> 90 ;
91 [label="X[5] <= 0.5\nmse = 19321.0\nsamples = 2\nvalue = 1774.0"] ;
87 -> 91 ;
92 [label="mse = 0.0\nsamples = 1\nvalue = 1635.0"] ;
91 -> 92 ;
93 [label="mse = 0.0\nsamples = 1\nvalue = 1913.0"] ;
91 -> 93 ;
94 [label="X[5] <= 0.5\nmse = 138666.222\nsamples = 12\nvalue = 1412.333"] ;
64 -> 94 ;
95 [label="X[8] <= 0.651\nmse = 21708.16\nsamples = 5\nvalue = 1029.2"] ;
94 -> 95 ;
96 [label="X[9] <= 0.233\nmse = 4970.25\nsamples = 2\nvalue = 1177.5"] ;
95 -> 96 ;
97 [label="mse = 0.0\nsamples = 1\nvalue = 1248.0"] ;
96 -> 97 ;
98 [label="mse = 0.0\nsamples = 1\nvalue = 1107.0"] ;
96 -> 98 ;
99 [label="X[9] <= 0.205\nmse = 8430.222\nsamples = 3\nvalue = 930.333"] ;
95 -> 99 ;
100 [label="X[8] <= 0.867\nmse = 100.0\nsamples = 2\nvalue = 995.0"] ;
99 -> 100 ;
101 [label="mse = 0.0\nsamples = 1\nvalue = 985.0"] ;
100 -> 101 ;
102 [label="mse = 0.0\nsamples = 1\nvalue = 1005.0"] ;
100 -> 102 ;
103 [label="mse = 0.0\nsamples = 1\nvalue = 801.0"] ;
99 -> 103 ;
104 [label="X[8] <= 0.705\nmse = 42463.429\nsamples = 7\nvalue = 1686.0"] ;
94 -> 104 ;
105 [label="X[9] <= 0.223\nmse = 5494.222\nsamples = 3\nvalue = 1906.333"] ;
104 -> 105 ;
106 [label="X[8] <= 0.578\nmse = 841.0\nsamples = 2\nvalue = 1956.0"] ;
105 -> 106 ;
107 [label="mse = 0.0\nsamples = 1\nvalue = 1927.0"] ;
106 -> 107 ;
108 [label="mse = 0.0\nsamples = 1\nvalue = 1985.0"] ;
106 -> 108 ;
109 [label="mse = 0.0\nsamples = 1\nvalue = 1807.0"] ;
105 -> 109 ;
110 [label="X[9] <= 0.236\nmse = 6472.688\nsamples = 4\nvalue = 1520.75"] ;
104 -> 110 ;
111 [label="mse = 0.0\nsamples = 1\nvalue = 1650.0"] ;
110 -> 111 ;
112 [label="X[9] <= 0.277\nmse = 1205.556\nsamples = 3\nvalue = 1477.667"] ;
110 -> 112 ;
113 [label="mse = 0.0\nsamples = 1\nvalue = 1526.0"] ;
112 -> 113 ;
114 [label="X[8] <= 0.794\nmse = 56.25\nsamples = 2\nvalue = 1453.5"] ;
112 -> 114 ;
115 [label="mse = 0.0\nsamples = 1\nvalue = 1461.0"] ;
114 -> 115 ;
116 [label="mse = 0.0\nsamples = 1\nvalue = 1446.0"] ;
114 -> 116 ;
117 [label="X[8] <= 0.883\nmse = 360025.0\nsamples = 51\nvalue = 2035.314"] ;
3 -> 117 ;
118 [label="X[7] <= 0.39\nmse = 301338.604\nsamples = 48\nvalue = 2098.25"] ;
117 -> 118 ;
119 [label="X[6] <= 2.5\nmse = 279579.336\nsamples = 38\nvalue = 1983.921"] ;
118 -> 119 ;
120 [label="X[7] <= 0.34\nmse = 235725.722\nsamples = 37\nvalue = 2020.703"] ;
119 -> 120 ;
121 [label="X[8] <= 0.668\nmse = 218946.982\nsamples = 30\nvalue = 1934.867"] ;
120 -> 121 ;
122 [label="X[9] <= 0.136\nmse = 171134.057\nsamples = 23\nvalue = 2043.174"] ;
121 -> 122 ;
123 [label="X[7] <= 0.302\nmse = 129536.889\nsamples = 3\nvalue = 2518.333"] ;
122 -> 123 ;
124 [label="X[8] <= 0.498\nmse = 21025.0\nsamples = 2\nvalue = 2278.0"] ;
123 -> 124 ;
125 [label="mse = 0.0\nsamples = 1\nvalue = 2133.0"] ;
124 -> 125 ;
126 [label="mse = 0.0\nsamples = 1\nvalue = 2423.0"] ;
124 -> 126 ;
127 [label="mse = 0.0\nsamples = 1\nvalue = 2999.0"] ;
123 -> 127 ;
128 [label="X[8] <= 0.505\nmse = 138427.19\nsamples = 20\nvalue = 1971.9"] ;
122 -> 128 ;
129 [label="X[7] <= 0.259\nmse = 77610.6\nsamples = 10\nvalue = 2149.0"] ;
128 -> 129 ;
130 [label="X[0] <= 1.5\nmse = 16.0\nsamples = 2\nvalue = 1689.0"] ;
129 -> 130 ;
131 [label="mse = 0.0\nsamples = 1\nvalue = 1685.0"] ;
130 -> 131 ;
132 [label="mse = 0.0\nsamples = 1\nvalue = 1693.0"] ;
130 -> 132 ;
133 [label="X[5] <= 0.5\nmse = 30884.25\nsamples = 8\nvalue = 2264.0"] ;
129 -> 133 ;
134 [label="X[0] <= 1.5\nmse = 156.25\nsamples = 2\nvalue = 2483.5"] ;
133 -> 134 ;
135 [label="mse = 0.0\nsamples = 1\nvalue = 2471.0"] ;
134 -> 135 ;
136 [label="mse = 0.0\nsamples = 1\nvalue = 2496.0"] ;
134 -> 136 ;
137 [label="X[4] <= 1.5\nmse = 19713.472\nsamples = 6\nvalue = 2190.833"] ;
133 -> 137 ;
138 [label="X[7] <= 0.295\nmse = 81.0\nsamples = 2\nvalue = 2037.0"] ;
137 -> 138 ;
139 [label="mse = 0.0\nsamples = 1\nvalue = 2028.0"] ;
138 -> 139 ;
140 [label="mse = 0.0\nsamples = 1\nvalue = 2046.0"] ;
138 -> 140 ;
141 [label="X[9] <= 0.229\nmse = 11781.188\nsamples = 4\nvalue = 2267.75"] ;
137 -> 141 ;
142 [label="mse = 0.0\nsamples = 1\nvalue = 2425.0"] ;
141 -> 142 ;
143 [label="mse = 4718.222\nsamples = 3\nvalue = 2215.333"] ;
141 -> 143 ;
144 [label="X[8] <= 0.547\nmse = 136514.96\nsamples = 10\nvalue = 1794.8"] ;
128 -> 144 ;
145 [label="X[7] <= 0.285\nmse = 120488.0\nsamples = 3\nvalue = 1393.0"] ;
144 -> 145 ;
146 [label="mse = 0.0\nsamples = 1\nvalue = 1851.0"] ;
145 -> 146 ;
147 [label="X[9] <= 0.215\nmse = 23409.0\nsamples = 2\nvalue = 1164.0"] ;
145 -> 147 ;
148 [label="mse = 0.0\nsamples = 1\nvalue = 1011.0"] ;
147 -> 148 ;
149 [label="mse = 0.0\nsamples = 1\nvalue = 1317.0"] ;
147 -> 149 ;
150 [label="X[9] <= 0.179\nmse = 44540.857\nsamples = 7\nvalue = 1967.0"] ;
144 -> 150 ;
151 [label="mse = 0.0\nsamples = 1\nvalue = 1536.0"] ;
150 -> 151 ;
152 [label="X[4] <= 5.5\nmse = 15844.139\nsamples = 6\nvalue = 2038.833"] ;
150 -> 152 ;
153 [label="X[8] <= 0.63\nmse = 4371.188\nsamples = 4\nvalue = 1962.25"] ;
152 -> 153 ;
154 [label="mse = 1296.0\nsamples = 2\nvalue = 1908.0"] ;
153 -> 154 ;
155 [label="mse = 1560.25\nsamples = 2\nvalue = 2016.5"] ;
153 -> 155 ;
156 [label="X[7] <= 0.322\nmse = 3600.0\nsamples = 2\nvalue = 2192.0"] ;
152 -> 156 ;
157 [label="mse = 0.0\nsamples = 1\nvalue = 2252.0"] ;
156 -> 157 ;
158 [label="mse = 0.0\nsamples = 1\nvalue = 2132.0"] ;
156 -> 158 ;
159 [label="X[9] <= 0.204\nmse = 210862.571\nsamples = 7\nvalue = 1579.0"] ;
121 -> 159 ;
160 [label="X[7] <= 0.3\nmse = 41616.0\nsamples = 2\nvalue = 958.0"] ;
159 -> 160 ;
161 [label="mse = 0.0\nsamples = 1\nvalue = 754.0"] ;
160 -> 161 ;
162 [label="mse = 0.0\nsamples = 1\nvalue = 1162.0"] ;
160 -> 162 ;
163 [label="X[7] <= 0.318\nmse = 62602.24\nsamples = 5\nvalue = 1827.4"] ;
159 -> 163 ;
164 [label="X[9] <= 0.251\nmse = 27179.556\nsamples = 3\nvalue = 1994.333"] ;
163 -> 164 ;
165 [label="X[9] <= 0.232\nmse = 169.0\nsamples = 2\nvalue = 1878.0"] ;
164 -> 165 ;
166 [label="mse = 0.0\nsamples = 1\nvalue = 1891.0"] ;
165 -> 166 ;
167 [label="mse = 0.0\nsamples = 1\nvalue = 1865.0"] ;
165 -> 167 ;
168 [label="mse = 0.0\nsamples = 1\nvalue = 2227.0"] ;
164 -> 168 ;
169 [label="X[8] <= 0.783\nmse = 11236.0\nsamples = 2\nvalue = 1577.0"] ;
163 -> 169 ;
170 [label="mse = 0.0\nsamples = 1\nvalue = 1683.0"] ;
169 -> 170 ;
171 [label="mse = 0.0\nsamples = 1\nvalue = 1471.0"] ;
169 -> 171 ;
172 [label="X[8] <= 0.504\nmse = 140730.816\nsamples = 7\nvalue = 2388.571"] ;
120 -> 172 ;
173 [label="mse = 0.0\nsamples = 1\nvalue = 3249.0"] ;
172 -> 173 ;
174 [label="X[8] <= 0.859\nmse = 20231.472\nsamples = 6\nvalue = 2245.167"] ;
172 -> 174 ;
175 [label="X[8] <= 0.607\nmse = 13710.56\nsamples = 5\nvalue = 2203.2"] ;
174 -> 175 ;
176 [label="mse = 0.0\nsamples = 1\nvalue = 2417.0"] ;
175 -> 176 ;
177 [label="X[8] <= 0.783\nmse = 2853.688\nsamples = 4\nvalue = 2149.75"] ;
175 -> 177 ;
178 [label="X[6] <= 1.5\nmse = 72.25\nsamples = 2\nvalue = 2200.5"] ;
177 -> 178 ;
179 [label="mse = 0.0\nsamples = 1\nvalue = 2209.0"] ;
178 -> 179 ;
180 [label="mse = 0.0\nsamples = 1\nvalue = 2192.0"] ;
178 -> 180 ;
181 [label="X[7] <= 0.366\nmse = 484.0\nsamples = 2\nvalue = 2099.0"] ;
177 -> 181 ;
182 [label="mse = 0.0\nsamples = 1\nvalue = 2121.0"] ;
181 -> 182 ;
183 [label="mse = 0.0\nsamples = 1\nvalue = 2077.0"] ;
181 -> 183 ;
184 [label="mse = 0.0\nsamples = 1\nvalue = 2455.0"] ;
174 -> 184 ;
185 [label="mse = 0.0\nsamples = 1\nvalue = 623.0"] ;
119 -> 185 ;
186 [label="X[9] <= 0.359\nmse = 145606.81\nsamples = 10\nvalue = 2532.7"] ;
118 -> 186 ;
187 [label="X[9] <= 0.215\nmse = 94600.0\nsamples = 9\nvalue = 2614.667"] ;
186 -> 187 ;
188 [label="X[9] <= 0.097\nmse = 17522.889\nsamples = 3\nvalue = 2902.333"] ;
187 -> 188 ;
189 [label="mse = 0.0\nsamples = 1\nvalue = 3068.0"] ;
188 -> 189 ;
190 [label="X[6] <= 1.5\nmse = 5700.25\nsamples = 2\nvalue = 2819.5"] ;
188 -> 190 ;
191 [label="mse = 0.0\nsamples = 1\nvalue = 2744.0"] ;
190 -> 191 ;
192 [label="mse = 0.0\nsamples = 1\nvalue = 2895.0"] ;
190 -> 192 ;
193 [label="X[4] <= 2.0\nmse = 71074.472\nsamples = 6\nvalue = 2470.833"] ;
187 -> 193 ;
194 [label="mse = 0.0\nsamples = 1\nvalue = 2077.0"] ;
193 -> 194 ;
195 [label="X[9] <= 0.257\nmse = 48064.24\nsamples = 5\nvalue = 2549.6"] ;
193 -> 195 ;
196 [label="X[9] <= 0.236\nmse = 42550.889\nsamples = 3\nvalue = 2435.667"] ;
195 -> 196 ;
197 [label="X[6] <= 1.5\nmse = 7656.25\nsamples = 2\nvalue = 2572.5"] ;
196 -> 197 ;
198 [label="mse = 0.0\nsamples = 1\nvalue = 2485.0"] ;
197 -> 198 ;
199 [label="mse = 0.0\nsamples = 1\nvalue = 2660.0"] ;
197 -> 199 ;
200 [label="mse = 0.0\nsamples = 1\nvalue = 2162.0"] ;
196 -> 200 ;
201 [label="X[8] <= 0.604\nmse = 7656.25\nsamples = 2\nvalue = 2720.5"] ;
195 -> 201 ;
202 [label="mse = 0.0\nsamples = 1\nvalue = 2808.0"] ;
201 -> 202 ;
203 [label="mse = 0.0\nsamples = 1\nvalue = 2633.0"] ;
201 -> 203 ;
204 [label="mse = 0.0\nsamples = 1\nvalue = 1795.0"] ;
186 -> 204 ;
205 [label="X[5] <= 0.5\nmse = 221622.222\nsamples = 3\nvalue = 1028.333"] ;
117 -> 205 ;
206 [label="X[8] <= 0.918\nmse = 9025.0\nsamples = 2\nvalue = 700.0"] ;
205 -> 206 ;
207 [label="mse = 0.0\nsamples = 1\nvalue = 795.0"] ;
206 -> 207 ;
208 [label="mse = 0.0\nsamples = 1\nvalue = 605.0"] ;
206 -> 208 ;
209 [label="mse = 0.0\nsamples = 1\nvalue = 1685.0"] ;
205 -> 209 ;
210 [label="X[6] <= 2.5\nmse = 688534.317\nsamples = 49\nvalue = 3364.735"] ;
2 -> 210 ;
211 [label="X[7] <= 0.385\nmse = 325352.029\nsamples = 46\nvalue = 3520.283"] ;
210 -> 211 ;
212 [label="X[3] <= 0.5\nmse = 269452.454\nsamples = 33\nvalue = 3357.697"] ;
211 -> 212 ;
213 [label="X[7] <= 0.262\nmse = 171338.57\nsamples = 31\nvalue = 3417.452"] ;
212 -> 213 ;
214 [label="X[9] <= 0.065\nmse = 100774.688\nsamples = 4\nvalue = 2805.75"] ;
213 -> 214 ;
215 [label="mse = 0.0\nsamples = 1\nvalue = 3310.0"] ;
214 -> 215 ;
216 [label="X[8] <= 0.574\nmse = 21358.222\nsamples = 3\nvalue = 2637.667"] ;
214 -> 216 ;
217 [label="X[7] <= 0.24\nmse = 4.0\nsamples = 2\nvalue = 2741.0"] ;
216 -> 217 ;
218 [label="mse = 0.0\nsamples = 1\nvalue = 2743.0"] ;
217 -> 218 ;
219 [label="mse = 0.0\nsamples = 1\nvalue = 2739.0"] ;
217 -> 219 ;
220 [label="mse = 0.0\nsamples = 1\nvalue = 2431.0"] ;
216 -> 220 ;
221 [label="X[8] <= 0.784\nmse = 118146.143\nsamples = 27\nvalue = 3508.074"] ;
213 -> 221 ;
222 [label="X[9] <= 0.288\nmse = 98269.818\nsamples = 25\nvalue = 3554.68"] ;
221 -> 222 ;
223 [label="X[7] <= 0.28\nmse = 91440.66\nsamples = 24\nvalue = 3575.583"] ;
222 -> 223 ;
224 [label="X[5] <= 0.5\nmse = 7198.688\nsamples = 4\nvalue = 3326.75"] ;
223 -> 224 ;
225 [label="mse = 0.0\nsamples = 1\nvalue = 3190.0"] ;
224 -> 225 ;
226 [label="X[9] <= 0.206\nmse = 1286.889\nsamples = 3\nvalue = 3372.333"] ;
224 -> 226 ;
227 [label="X[7] <= 0.275\nmse = 30.25\nsamples = 2\nvalue = 3397.5"] ;
226 -> 227 ;
228 [label="mse = 0.0\nsamples = 1\nvalue = 3392.0"] ;
227 -> 228 ;
229 [label="mse = 0.0\nsamples = 1\nvalue = 3403.0"] ;
227 -> 229 ;
230 [label="mse = 0.0\nsamples = 1\nvalue = 3322.0"] ;
226 -> 230 ;
231 [label="X[7] <= 0.366\nmse = 93428.728\nsamples = 20\nvalue = 3625.35"] ;
223 -> 231 ;
232 [label="X[4] <= 2.5\nmse = 32373.84\nsamples = 15\nvalue = 3687.6"] ;
231 -> 232 ;
233 [label="X[7] <= 0.335\nmse = 15029.44\nsamples = 5\nvalue = 3531.4"] ;
232 -> 233 ;
234 [label="X[2] <= 2.5\nmse = 6891.556\nsamples = 3\nvalue = 3446.333"] ;
233 -> 234 ;
235 [label="mse = 0.0\nsamples = 1\nvalue = 3331.0"] ;
234 -> 235 ;
236 [label="X[5] <= 0.5\nmse = 361.0\nsamples = 2\nvalue = 3504.0"] ;
234 -> 236 ;
237 [label="mse = 0.0\nsamples = 1\nvalue = 3485.0"] ;
236 -> 237 ;
238 [label="mse = 0.0\nsamples = 1\nvalue = 3523.0"] ;
236 -> 238 ;
239 [label="X[5] <= 0.5\nmse = 100.0\nsamples = 2\nvalue = 3659.0"] ;
233 -> 239 ;
240 [label="mse = 0.0\nsamples = 1\nvalue = 3649.0"] ;
239 -> 240 ;
241 [label="mse = 0.0\nsamples = 1\nvalue = 3669.0"] ;
239 -> 241 ;
242 [label="X[7] <= 0.344\nmse = 22747.21\nsamples = 10\nvalue = 3765.7"] ;
232 -> 242 ;
243 [label="X[7] <= 0.306\nmse = 14067.062\nsamples = 9\nvalue = 3732.222"] ;
242 -> 243 ;
244 [label="X[7] <= 0.295\nmse = 9.0\nsamples = 2\nvalue = 3617.0"] ;
243 -> 244 ;
245 [label="mse = 0.0\nsamples = 1\nvalue = 3620.0"] ;
244 -> 245 ;
246 [label="mse = 0.0\nsamples = 1\nvalue = 3614.0"] ;
244 -> 246 ;
247 [label="X[9] <= 0.205\nmse = 13206.694\nsamples = 7\nvalue = 3765.143"] ;
243 -> 247 ;
248 [label="mse = 8310.222\nsamples = 3\nvalue = 3868.667"] ;
247 -> 248 ;
249 [label="mse = 2812.75\nsamples = 4\nvalue = 3687.5"] ;
247 -> 249 ;
250 [label="mse = 0.0\nsamples = 1\nvalue = 4067.0"] ;
242 -> 250 ;
251 [label="X[4] <= 4.0\nmse = 230092.64\nsamples = 5\nvalue = 3438.6"] ;
231 -> 251 ;
252 [label="X[8] <= 0.74\nmse = 94864.0\nsamples = 2\nvalue = 3878.0"] ;
251 -> 252 ;
253 [label="mse = 0.0\nsamples = 1\nvalue = 4186.0"] ;
252 -> 253 ;
254 [label="mse = 0.0\nsamples = 1\nvalue = 3570.0"] ;
252 -> 254 ;
255 [label="X[9] <= 0.18\nmse = 105720.222\nsamples = 3\nvalue = 3145.667"] ;
251 -> 255 ;
256 [label="X[7] <= 0.375\nmse = 19044.0\nsamples = 2\nvalue = 2930.0"] ;
255 -> 256 ;
257 [label="mse = 0.0\nsamples = 1\nvalue = 2792.0"] ;
256 -> 257 ;
258 [label="mse = 0.0\nsamples = 1\nvalue = 3068.0"] ;
256 -> 258 ;
259 [label="mse = 0.0\nsamples = 1\nvalue = 3577.0"] ;
255 -> 259 ;
260 [label="mse = 0.0\nsamples = 1\nvalue = 3053.0"] ;
222 -> 260 ;
261 [label="X[2] <= 2.5\nmse = 56.25\nsamples = 2\nvalue = 2925.5"] ;
221 -> 261 ;
262 [label="mse = 0.0\nsamples = 1\nvalue = 2918.0"] ;
261 -> 262 ;
263 [label="mse = 0.0\nsamples = 1\nvalue = 2933.0"] ;
261 -> 263 ;
264 [label="X[4] <= 4.5\nmse = 877032.25\nsamples = 2\nvalue = 2431.5"] ;
212 -> 264 ;
265 [label="mse = 0.0\nsamples = 1\nvalue = 1495.0"] ;
264 -> 265 ;
266 [label="mse = 0.0\nsamples = 1\nvalue = 3368.0"] ;
264 -> 266 ;
267 [label="X[9] <= 0.282\nmse = 229813.385\nsamples = 13\nvalue = 3933.0"] ;
211 -> 267 ;
268 [label="X[6] <= 1.5\nmse = 44754.722\nsamples = 12\nvalue = 4058.333"] ;
267 -> 268 ;
269 [label="X[7] <= 0.415\nmse = 19180.0\nsamples = 8\nvalue = 4173.0"] ;
268 -> 269 ;
270 [label="X[9] <= 0.136\nmse = 5970.96\nsamples = 5\nvalue = 4078.2"] ;
269 -> 270 ;
271 [label="X[7] <= 0.405\nmse = 4070.688\nsamples = 4\nvalue = 4104.25"] ;
270 -> 271 ;
272 [label="X[4] <= 2.5\nmse = 916.222\nsamples = 3\nvalue = 4070.667"] ;
271 -> 272 ;
273 [label="X[7] <= 0.398\nmse = 272.25\nsamples = 2\nvalue = 4051.5"] ;
272 -> 273 ;
274 [label="mse = 0.0\nsamples = 1\nvalue = 4035.0"] ;
273 -> 274 ;
275 [label="mse = 0.0\nsamples = 1\nvalue = 4068.0"] ;
273 -> 275 ;
276 [label="mse = 0.0\nsamples = 1\nvalue = 4109.0"] ;
272 -> 276 ;
277 [label="mse = 0.0\nsamples = 1\nvalue = 4205.0"] ;
271 -> 277 ;
278 [label="mse = 0.0\nsamples = 1\nvalue = 3974.0"] ;
270 -> 278 ;
279 [label="X[8] <= 0.685\nmse = 1252.667\nsamples = 3\nvalue = 4331.0"] ;
269 -> 279 ;
280 [label="X[7] <= 0.425\nmse = 4.0\nsamples = 2\nvalue = 4306.0"] ;
279 -> 280 ;
281 [label="mse = 0.0\nsamples = 1\nvalue = 4308.0"] ;
280 -> 281 ;
282 [label="mse = 0.0\nsamples = 1\nvalue = 4304.0"] ;
280 -> 282 ;
283 [label="mse = 0.0\nsamples = 1\nvalue = 4381.0"] ;
279 -> 283 ;
284 [label="X[9] <= 0.27\nmse = 17013.5\nsamples = 4\nvalue = 3829.0"] ;
268 -> 284 ;
285 [label="X[8] <= 0.731\nmse = 1756.222\nsamples = 3\nvalue = 3756.667"] ;
284 -> 285 ;
286 [label="X[9] <= 0.165\nmse = 420.25\nsamples = 2\nvalue = 3729.5"] ;
285 -> 286 ;
287 [label="mse = 0.0\nsamples = 1\nvalue = 3750.0"] ;
286 -> 287 ;
288 [label="mse = 0.0\nsamples = 1\nvalue = 3709.0"] ;
286 -> 288 ;
289 [label="mse = 0.0\nsamples = 1\nvalue = 3811.0"] ;
285 -> 289 ;
290 [label="mse = 0.0\nsamples = 1\nvalue = 4046.0"] ;
284 -> 290 ;
291 [label="mse = 0.0\nsamples = 1\nvalue = 2429.0"] ;
267 -> 291 ;
292 [label="X[7] <= 0.413\nmse = 197787.556\nsamples = 3\nvalue = 979.667"] ;
210 -> 292 ;
293 [label="X[2] <= 2.5\nmse = 1521.0\nsamples = 2\nvalue = 666.0"] ;
292 -> 293 ;
294 [label="mse = 0.0\nsamples = 1\nvalue = 627.0"] ;
293 -> 294 ;
295 [label="mse = 0.0\nsamples = 1\nvalue = 705.0"] ;
293 -> 295 ;
296 [label="mse = 0.0\nsamples = 1\nvalue = 1607.0"] ;
292 -> 296 ;
297 [label="X[0] <= 1.5\nmse = 2019428.703\nsamples = 139\nvalue = 3953.353"] ;
1 -> 297 ;
298 [label="X[7] <= 0.28\nmse = 1041295.254\nsamples = 78\nvalue = 3170.949"] ;
297 -> 298 ;
299 [label="X[8] <= 0.727\nmse = 649926.408\nsamples = 37\nvalue = 2499.568"] ;
298 -> 299 ;
300 [label="X[9] <= 0.23\nmse = 436816.168\nsamples = 28\nvalue = 2746.214"] ;
299 -> 300 ;
301 [label="X[9] <= 0.191\nmse = 290018.052\nsamples = 18\nvalue = 3055.944"] ;
300 -> 301 ;
302 [label="X[7] <= 0.25\nmse = 215989.69\nsamples = 10\nvalue = 2729.1"] ;
301 -> 302 ;
303 [label="X[8] <= 0.413\nmse = 239773.139\nsamples = 6\nvalue = 2529.167"] ;
302 -> 303 ;
304 [label="mse = 0.0\nsamples = 1\nvalue = 3422.0"] ;
303 -> 304 ;
305 [label="X[4] <= 0.5\nmse = 96411.44\nsamples = 5\nvalue = 2350.6"] ;
303 -> 305 ;
306 [label="mse = 0.0\nsamples = 1\nvalue = 1787.0"] ;
305 -> 306 ;
307 [label="X[2] <= 2.0\nmse = 21250.25\nsamples = 4\nvalue = 2491.5"] ;
305 -> 307 ;
308 [label="X[4] <= 4.5\nmse = 3264.222\nsamples = 3\nvalue = 2412.333"] ;
307 -> 308 ;
309 [label="X[4] <= 2.0\nmse = 16.0\nsamples = 2\nvalue = 2372.0"] ;
308 -> 309 ;
310 [label="mse = 0.0\nsamples = 1\nvalue = 2376.0"] ;
309 -> 310 ;
311 [label="mse = 0.0\nsamples = 1\nvalue = 2368.0"] ;
309 -> 311 ;
312 [label="mse = 0.0\nsamples = 1\nvalue = 2493.0"] ;
308 -> 312 ;
313 [label="mse = 0.0\nsamples = 1\nvalue = 2729.0"] ;
307 -> 313 ;
314 [label="X[4] <= 3.5\nmse = 30414.5\nsamples = 4\nvalue = 3029.0"] ;
302 -> 314 ;
315 [label="X[8] <= 0.705\nmse = 5256.25\nsamples = 2\nvalue = 2874.5"] ;
314 -> 315 ;
316 [label="mse = 0.0\nsamples = 1\nvalue = 2947.0"] ;
315 -> 316 ;
317 [label="mse = 0.0\nsamples = 1\nvalue = 2802.0"] ;
315 -> 317 ;
318 [label="X[4] <= 4.5\nmse = 7832.25\nsamples = 2\nvalue = 3183.5"] ;
314 -> 318 ;
319 [label="mse = 0.0\nsamples = 1\nvalue = 3272.0"] ;
318 -> 319 ;
320 [label="mse = 0.0\nsamples = 1\nvalue = 3095.0"] ;
318 -> 320 ;
321 [label="X[9] <= 0.202\nmse = 82101.75\nsamples = 8\nvalue = 3464.5"] ;
301 -> 321 ;
322 [label="X[8] <= 0.509\nmse = 3969.0\nsamples = 2\nvalue = 3893.0"] ;
321 -> 322 ;
323 [label="mse = 0.0\nsamples = 1\nvalue = 3956.0"] ;
322 -> 323 ;
324 [label="mse = 0.0\nsamples = 1\nvalue = 3830.0"] ;
322 -> 324 ;
325 [label="X[8] <= 0.405\nmse = 26540.556\nsamples = 6\nvalue = 3321.667"] ;
321 -> 325 ;
326 [label="mse = 0.0\nsamples = 1\nvalue = 3624.0"] ;
325 -> 326 ;
327 [label="X[9] <= 0.229\nmse = 9911.36\nsamples = 5\nvalue = 3261.2"] ;
325 -> 327 ;
328 [label="X[9] <= 0.204\nmse = 6927.688\nsamples = 4\nvalue = 3294.25"] ;
327 -> 328 ;
329 [label="mse = 0.0\nsamples = 1\nvalue = 3163.0"] ;
328 -> 329 ;
330 [label="X[8] <= 0.454\nmse = 1580.667\nsamples = 3\nvalue = 3338.0"] ;
328 -> 330 ;
331 [label="mse = 0.0\nsamples = 1\nvalue = 3389.0"] ;
330 -> 331 ;
332 [label="X[4] <= 2.5\nmse = 420.25\nsamples = 2\nvalue = 3312.5"] ;
330 -> 332 ;
333 [label="mse = 0.0\nsamples = 1\nvalue = 3333.0"] ;
332 -> 333 ;
334 [label="mse = 0.0\nsamples = 1\nvalue = 3292.0"] ;
332 -> 334 ;
335 [label="mse = 0.0\nsamples = 1\nvalue = 3129.0"] ;
327 -> 335 ;
336 [label="X[7] <= 0.274\nmse = 217551.61\nsamples = 10\nvalue = 2188.7"] ;
300 -> 336 ;
337 [label="X[9] <= 0.387\nmse = 72880.5\nsamples = 8\nvalue = 1998.0"] ;
336 -> 337 ;
338 [label="X[7] <= 0.255\nmse = 35860.222\nsamples = 6\nvalue = 2117.667"] ;
337 -> 338 ;
339 [label="X[4] <= 3.0\nmse = 6074.188\nsamples = 4\nvalue = 2239.75"] ;
338 -> 339 ;
340 [label="X[4] <= 1.5\nmse = 1070.889\nsamples = 3\nvalue = 2281.667"] ;
339 -> 340 ;
341 [label="X[4] <= 0.5\nmse = 42.25\nsamples = 2\nvalue = 2304.5"] ;
340 -> 341 ;
342 [label="mse = 0.0\nsamples = 1\nvalue = 2311.0"] ;
341 -> 342 ;
343 [label="mse = 0.0\nsamples = 1\nvalue = 2298.0"] ;
341 -> 343 ;
344 [label="mse = 0.0\nsamples = 1\nvalue = 2236.0"] ;
340 -> 344 ;
345 [label="mse = 0.0\nsamples = 1\nvalue = 2114.0"] ;
339 -> 345 ;
346 [label="X[3] <= 0.5\nmse = 6006.25\nsamples = 2\nvalue = 1873.5"] ;
338 -> 346 ;
347 [label="mse = 0.0\nsamples = 1\nvalue = 1796.0"] ;
346 -> 347 ;
348 [label="mse = 0.0\nsamples = 1\nvalue = 1951.0"] ;
346 -> 348 ;
349 [label="X[2] <= 2.0\nmse = 12100.0\nsamples = 2\nvalue = 1639.0"] ;
337 -> 349 ;
350 [label="mse = 0.0\nsamples = 1\nvalue = 1529.0"] ;
349 -> 350 ;
351 [label="mse = 0.0\nsamples = 1\nvalue = 1749.0"] ;
349 -> 351 ;
352 [label="X[4] <= 2.5\nmse = 68906.25\nsamples = 2\nvalue = 2951.5"] ;
336 -> 352 ;
353 [label="mse = 0.0\nsamples = 1\nvalue = 2689.0"] ;
352 -> 353 ;
354 [label="mse = 0.0\nsamples = 1\nvalue = 3214.0"] ;
352 -> 354 ;
355 [label="X[2] <= 2.0\nmse = 534853.951\nsamples = 9\nvalue = 1732.222"] ;
299 -> 355 ;
356 [label="X[7] <= 0.196\nmse = 216074.0\nsamples = 6\nvalue = 2148.0"] ;
355 -> 356 ;
357 [label="X[4] <= 3.0\nmse = 114244.0\nsamples = 2\nvalue = 1639.0"] ;
356 -> 357 ;
358 [label="mse = 0.0\nsamples = 1\nvalue = 1977.0"] ;
357 -> 358 ;
359 [label="mse = 0.0\nsamples = 1\nvalue = 1301.0"] ;
357 -> 359 ;
360 [label="X[9] <= 0.127\nmse = 72678.25\nsamples = 4\nvalue = 2402.5"] ;
356 -> 360 ;
361 [label="X[8] <= 0.845\nmse = 40000.0\nsamples = 2\nvalue = 2632.0"] ;
360 -> 361 ;
362 [label="mse = 0.0\nsamples = 1\nvalue = 2832.0"] ;
361 -> 362 ;
363 [label="mse = 0.0\nsamples = 1\nvalue = 2432.0"] ;
361 -> 363 ;
364 [label="X[7] <= 0.249\nmse = 16.0\nsamples = 2\nvalue = 2173.0"] ;
360 -> 364 ;
365 [label="mse = 0.0\nsamples = 1\nvalue = 2169.0"] ;
364 -> 365 ;
366 [label="mse = 0.0\nsamples = 1\nvalue = 2177.0"] ;
364 -> 366 ;
367 [label="X[9] <= 0.22\nmse = 135186.889\nsamples = 3\nvalue = 900.667"] ;
355 -> 367 ;
368 [label="X[5] <= 0.5\nmse = 44310.25\nsamples = 2\nvalue = 1130.5"] ;
367 -> 368 ;
369 [label="mse = 0.0\nsamples = 1\nvalue = 1341.0"] ;
368 -> 369 ;
370 [label="mse = 0.0\nsamples = 1\nvalue = 920.0"] ;
368 -> 370 ;
371 [label="mse = 0.0\nsamples = 1\nvalue = 441.0"] ;
367 -> 371 ;
372 [label="X[3] <= 0.5\nmse = 620613.751\nsamples = 41\nvalue = 3776.829"] ;
298 -> 372 ;
373 [label="X[8] <= 0.645\nmse = 440386.069\nsamples = 40\nvalue = 3845.925"] ;
372 -> 373 ;
374 [label="X[7] <= 0.34\nmse = 256087.995\nsamples = 28\nvalue = 4062.929"] ;
373 -> 374 ;
375 [label="X[9] <= 0.233\nmse = 163231.929\nsamples = 15\nvalue = 3719.733"] ;
374 -> 375 ;
376 [label="X[4] <= 2.5\nmse = 54529.29\nsamples = 10\nvalue = 3939.9"] ;
375 -> 376 ;
377 [label="X[8] <= 0.487\nmse = 33744.5\nsamples = 4\nvalue = 3727.0"] ;
376 -> 377 ;
378 [label="mse = 0.0\nsamples = 1\nvalue = 3425.0"] ;
377 -> 378 ;
379 [label="X[9] <= 0.147\nmse = 4457.556\nsamples = 3\nvalue = 3827.667"] ;
377 -> 379 ;
380 [label="mse = 0.0\nsamples = 1\nvalue = 3922.0"] ;
379 -> 380 ;
381 [label="X[9] <= 0.18\nmse = 12.25\nsamples = 2\nvalue = 3780.5"] ;
379 -> 381 ;
382 [label="mse = 0.0\nsamples = 1\nvalue = 3784.0"] ;
381 -> 382 ;
383 [label="mse = 0.0\nsamples = 1\nvalue = 3777.0"] ;
381 -> 383 ;
384 [label="X[9] <= 0.139\nmse = 18023.139\nsamples = 6\nvalue = 4081.833"] ;
376 -> 384 ;
385 [label="mse = 0.0\nsamples = 1\nvalue = 3831.0"] ;
384 -> 385 ;
386 [label="X[9] <= 0.164\nmse = 6527.6\nsamples = 5\nvalue = 4132.0"] ;
384 -> 386 ;
387 [label="mse = 0.0\nsamples = 1\nvalue = 4270.0"] ;
386 -> 387 ;
388 [label="X[8] <= 0.543\nmse = 2208.25\nsamples = 4\nvalue = 4097.5"] ;
386 -> 388 ;
389 [label="X[7] <= 0.324\nmse = 477.556\nsamples = 3\nvalue = 4122.333"] ;
388 -> 389 ;
390 [label="X[5] <= 0.5\nmse = 272.25\nsamples = 2\nvalue = 4134.5"] ;
389 -> 390 ;
391 [label="mse = 0.0\nsamples = 1\nvalue = 4118.0"] ;
390 -> 391 ;
392 [label="mse = 0.0\nsamples = 1\nvalue = 4151.0"] ;
390 -> 392 ;
393 [label="mse = 0.0\nsamples = 1\nvalue = 4098.0"] ;
389 -> 393 ;
394 [label="mse = 0.0\nsamples = 1\nvalue = 4023.0"] ;
388 -> 394 ;
395 [label="X[9] <= 0.419\nmse = 89797.04\nsamples = 5\nvalue = 3279.4"] ;
375 -> 395 ;
396 [label="X[8] <= 0.5\nmse = 18606.688\nsamples = 4\nvalue = 3416.25"] ;
395 -> 396 ;
397 [label="X[7] <= 0.293\nmse = 5810.889\nsamples = 3\nvalue = 3347.333"] ;
396 -> 397 ;
398 [label="mse = 0.0\nsamples = 1\nvalue = 3243.0"] ;
397 -> 398 ;
399 [label="X[5] <= 0.5\nmse = 552.25\nsamples = 2\nvalue = 3399.5"] ;
397 -> 399 ;
400 [label="mse = 0.0\nsamples = 1\nvalue = 3423.0"] ;
399 -> 400 ;
401 [label="mse = 0.0\nsamples = 1\nvalue = 3376.0"] ;
399 -> 401 ;
402 [label="mse = 0.0\nsamples = 1\nvalue = 3623.0"] ;
396 -> 402 ;
403 [label="mse = 0.0\nsamples = 1\nvalue = 2732.0"] ;
395 -> 403 ;
404 [label="X[9] <= 0.214\nmse = 70514.533\nsamples = 13\nvalue = 4458.923"] ;
374 -> 404 ;
405 [label="X[8] <= 0.578\nmse = 21346.694\nsamples = 7\nvalue = 4280.857"] ;
404 -> 405 ;
406 [label="X[7] <= 0.351\nmse = 12763.36\nsamples = 5\nvalue = 4349.2"] ;
405 -> 406 ;
407 [label="X[9] <= 0.186\nmse = 5550.25\nsamples = 2\nvalue = 4243.5"] ;
406 -> 407 ;
408 [label="mse = 0.0\nsamples = 1\nvalue = 4169.0"] ;
407 -> 408 ;
409 [label="mse = 0.0\nsamples = 1\nvalue = 4318.0"] ;
407 -> 409 ;
410 [label="X[8] <= 0.514\nmse = 5158.222\nsamples = 3\nvalue = 4419.667"] ;
406 -> 410 ;
411 [label="X[8] <= 0.446\nmse = 36.0\nsamples = 2\nvalue = 4369.0"] ;
410 -> 411 ;
412 [label="mse = 0.0\nsamples = 1\nvalue = 4363.0"] ;
411 -> 412 ;
413 [label="mse = 0.0\nsamples = 1\nvalue = 4375.0"] ;
411 -> 413 ;
414 [label="mse = 0.0\nsamples = 1\nvalue = 4521.0"] ;
410 -> 414 ;
415 [label="X[8] <= 0.628\nmse = 1936.0\nsamples = 2\nvalue = 4110.0"] ;
405 -> 415 ;
416 [label="mse = 0.0\nsamples = 1\nvalue = 4066.0"] ;
415 -> 416 ;
417 [label="mse = 0.0\nsamples = 1\nvalue = 4154.0"] ;
415 -> 417 ;
418 [label="X[2] <= 2.0\nmse = 47727.556\nsamples = 6\nvalue = 4666.667"] ;
404 -> 418 ;
419 [label="X[7] <= 0.393\nmse = 34229.556\nsamples = 3\nvalue = 4534.667"] ;
418 -> 419 ;
420 [label="X[4] <= 1.5\nmse = 8742.25\nsamples = 2\nvalue = 4415.5"] ;
419 -> 420 ;
421 [label="mse = 0.0\nsamples = 1\nvalue = 4322.0"] ;
420 -> 421 ;
422 [label="mse = 0.0\nsamples = 1\nvalue = 4509.0"] ;
420 -> 422 ;
423 [label="mse = 0.0\nsamples = 1\nvalue = 4773.0"] ;
419 -> 423 ;
424 [label="X[8] <= 0.442\nmse = 26377.556\nsamples = 3\nvalue = 4798.667"] ;
418 -> 424 ;
425 [label="mse = 0.0\nsamples = 1\nvalue = 4569.0"] ;
424 -> 425 ;
426 [label="X[5] <= 0.5\nmse = 6.25\nsamples = 2\nvalue = 4913.5"] ;
424 -> 426 ;
427 [label="mse = 0.0\nsamples = 1\nvalue = 4911.0"] ;
426 -> 427 ;
428 [label="mse = 0.0\nsamples = 1\nvalue = 4916.0"] ;
426 -> 428 ;
429 [label="X[5] <= 0.5\nmse = 504155.076\nsamples = 12\nvalue = 3339.583"] ;
373 -> 429 ;
430 [label="mse = 0.0\nsamples = 1\nvalue = 2294.0"] ;
429 -> 430 ;
431 [label="X[8] <= 0.82\nmse = 441566.413\nsamples = 11\nvalue = 3434.636"] ;
429 -> 431 ;
432 [label="X[8] <= 0.804\nmse = 395756.96\nsamples = 10\nvalue = 3344.2"] ;
431 -> 432 ;
433 [label="X[8] <= 0.761\nmse = 158161.556\nsamples = 9\nvalue = 3512.0"] ;
432 -> 433 ;
434 [label="X[7] <= 0.386\nmse = 82284.0\nsamples = 7\nvalue = 3348.0"] ;
433 -> 434 ;
435 [label="X[8] <= 0.652\nmse = 66383.5\nsamples = 4\nvalue = 3183.0"] ;
434 -> 435 ;
436 [label="mse = 0.0\nsamples = 1\nvalue = 3598.0"] ;
435 -> 436 ;
437 [label="X[2] <= 2.0\nmse = 11966.889\nsamples = 3\nvalue = 3044.667"] ;
435 -> 437 ;
438 [label="X[4] <= 3.0\nmse = 1225.0\nsamples = 2\nvalue = 2970.0"] ;
437 -> 438 ;
439 [label="mse = 0.0\nsamples = 1\nvalue = 2935.0"] ;
438 -> 439 ;
440 [label="mse = 0.0\nsamples = 1\nvalue = 3005.0"] ;
438 -> 440 ;
441 [label="mse = 0.0\nsamples = 1\nvalue = 3194.0"] ;
437 -> 441 ;
442 [label="X[9] <= 0.212\nmse = 18784.667\nsamples = 3\nvalue = 3568.0"] ;
434 -> 442 ;
443 [label="mse = 0.0\nsamples = 1\nvalue = 3761.0"] ;
442 -> 443 ;
444 [label="X[9] <= 0.29\nmse = 240.25\nsamples = 2\nvalue = 3471.5"] ;
442 -> 444 ;
445 [label="mse = 0.0\nsamples = 1\nvalue = 3487.0"] ;
444 -> 445 ;
446 [label="mse = 0.0\nsamples = 1\nvalue = 3456.0"] ;
444 -> 446 ;
447 [label="X[9] <= 0.127\nmse = 121.0\nsamples = 2\nvalue = 4086.0"] ;
433 -> 447 ;
448 [label="mse = 0.0\nsamples = 1\nvalue = 4075.0"] ;
447 -> 448 ;
449 [label="mse = 0.0\nsamples = 1\nvalue = 4097.0"] ;
447 -> 449 ;
450 [label="mse = 0.0\nsamples = 1\nvalue = 1834.0"] ;
432 -> 450 ;
451 [label="mse = 0.0\nsamples = 1\nvalue = 4339.0"] ;
431 -> 451 ;
452 [label="mse = 0.0\nsamples = 1\nvalue = 1013.0"] ;
372 -> 452 ;
453 [label="X[8] <= 0.765\nmse = 1486498.519\nsamples = 61\nvalue = 4953.803"] ;
297 -> 453 ;
454 [label="X[7] <= 0.28\nmse = 939374.273\nsamples = 51\nvalue = 5213.039"] ;
453 -> 454 ;
455 [label="X[8] <= 0.489\nmse = 2036401.556\nsamples = 3\nvalue = 3358.667"] ;
454 -> 455 ;
456 [label="X[9] <= 0.264\nmse = 5402.25\nsamples = 2\nvalue = 2350.5"] ;
455 -> 456 ;
457 [label="mse = 0.0\nsamples = 1\nvalue = 2424.0"] ;
456 -> 457 ;
458 [label="mse = 0.0\nsamples = 1\nvalue = 2277.0"] ;
456 -> 458 ;
459 [label="mse = 0.0\nsamples = 1\nvalue = 5375.0"] ;
455 -> 459 ;
460 [label="X[9] <= 0.055\nmse = 642459.059\nsamples = 48\nvalue = 5328.938"] ;
454 -> 460 ;
461 [label="X[8] <= 0.558\nmse = 1771561.0\nsamples = 2\nvalue = 3756.0"] ;
460 -> 461 ;
462 [label="mse = 0.0\nsamples = 1\nvalue = 5087.0"] ;
461 -> 462 ;
463 [label="mse = 0.0\nsamples = 1\nvalue = 2425.0"] ;
461 -> 463 ;
464 [label="X[7] <= 0.386\nmse = 481119.698\nsamples = 46\nvalue = 5397.326"] ;
460 -> 464 ;
465 [label="X[8] <= 0.65\nmse = 252775.323\nsamples = 36\nvalue = 5248.194"] ;
464 -> 465 ;
466 [label="X[7] <= 0.367\nmse = 199194.249\nsamples = 28\nvalue = 5332.536"] ;
465 -> 466 ;
467 [label="X[7] <= 0.354\nmse = 85955.207\nsamples = 24\nvalue = 5425.958"] ;
466 -> 467 ;
468 [label="X[9] <= 0.182\nmse = 54172.299\nsamples = 21\nvalue = 5352.286"] ;
467 -> 468 ;
469 [label="X[4] <= 4.5\nmse = 42602.43\nsamples = 11\nvalue = 5469.455"] ;
468 -> 469 ;
470 [label="X[7] <= 0.324\nmse = 36533.388\nsamples = 7\nvalue = 5365.429"] ;
469 -> 470 ;
471 [label="X[9] <= 0.168\nmse = 19026.0\nsamples = 5\nvalue = 5461.0"] ;
470 -> 471 ;
472 [label="X[8] <= 0.588\nmse = 3419.556\nsamples = 3\nvalue = 5362.333"] ;
471 -> 472 ;
473 [label="mse = 4.0\nsamples = 2\nvalue = 5321.0"] ;
472 -> 473 ;
474 [label="mse = 0.0\nsamples = 1\nvalue = 5445.0"] ;
472 -> 474 ;
475 [label="X[4] <= 3.0\nmse = 5929.0\nsamples = 2\nvalue = 5609.0"] ;
471 -> 475 ;
476 [label="mse = 0.0\nsamples = 1\nvalue = 5686.0"] ;
475 -> 476 ;
477 [label="mse = 0.0\nsamples = 1\nvalue = 5532.0"] ;
475 -> 477 ;
478 [label="X[9] <= 0.141\nmse = 380.25\nsamples = 2\nvalue = 5126.5"] ;
470 -> 478 ;
479 [label="mse = 0.0\nsamples = 1\nvalue = 5146.0"] ;
478 -> 479 ;
480 [label="mse = 0.0\nsamples = 1\nvalue = 5107.0"] ;
478 -> 480 ;
481 [label="X[7] <= 0.335\nmse = 1145.25\nsamples = 4\nvalue = 5651.5"] ;
469 -> 481 ;
482 [label="X[9] <= 0.095\nmse = 566.0\nsamples = 3\nvalue = 5636.0"] ;
481 -> 482 ;
483 [label="mse = 0.0\nsamples = 1\nvalue = 5668.0"] ;
482 -> 483 ;
484 [label="X[7] <= 0.303\nmse = 81.0\nsamples = 2\nvalue = 5620.0"] ;
482 -> 484 ;
485 [label="mse = 0.0\nsamples = 1\nvalue = 5611.0"] ;
484 -> 485 ;
486 [label="mse = 0.0\nsamples = 1\nvalue = 5629.0"] ;
484 -> 486 ;
487 [label="mse = 0.0\nsamples = 1\nvalue = 5698.0"] ;
481 -> 487 ;
488 [label="X[8] <= 0.55\nmse = 35186.24\nsamples = 10\nvalue = 5223.4"] ;
468 -> 488 ;
489 [label="X[0] <= 3.0\nmse = 21275.918\nsamples = 7\nvalue = 5138.714"] ;
488 -> 489 ;
490 [label="X[9] <= 0.241\nmse = 14400.0\nsamples = 2\nvalue = 4982.0"] ;
489 -> 490 ;
491 [label="mse = 0.0\nsamples = 1\nvalue = 5102.0"] ;
490 -> 491 ;
492 [label="mse = 0.0\nsamples = 1\nvalue = 4862.0"] ;
490 -> 492 ;
493 [label="X[6] <= 1.5\nmse = 10273.04\nsamples = 5\nvalue = 5201.4"] ;
489 -> 493 ;
494 [label="X[9] <= 0.292\nmse = 684.667\nsamples = 3\nvalue = 5278.0"] ;
493 -> 494 ;
495 [label="mse = 0.25\nsamples = 2\nvalue = 5259.5"] ;
494 -> 495 ;
496 [label="mse = 0.0\nsamples = 1\nvalue = 5315.0"] ;
494 -> 496 ;
497 [label="X[8] <= 0.519\nmse = 2652.25\nsamples = 2\nvalue = 5086.5"] ;
493 -> 497 ;
498 [label="mse = 0.0\nsamples = 1\nvalue = 5138.0"] ;
497 -> 498 ;
499 [label="mse = 0.0\nsamples = 1\nvalue = 5035.0"] ;
497 -> 499 ;
500 [label="X[8] <= 0.611\nmse = 11864.0\nsamples = 3\nvalue = 5421.0"] ;
488 -> 500 ;
501 [label="X[9] <= 0.248\nmse = 9.0\nsamples = 2\nvalue = 5498.0"] ;
500 -> 501 ;
502 [label="mse = 0.0\nsamples = 1\nvalue = 5495.0"] ;
501 -> 502 ;
503 [label="mse = 0.0\nsamples = 1\nvalue = 5501.0"] ;
501 -> 503 ;
504 [label="mse = 0.0\nsamples = 1\nvalue = 5267.0"] ;
500 -> 504 ;
505 [label="X[7] <= 0.358\nmse = 4486.889\nsamples = 3\nvalue = 5941.667"] ;
467 -> 505 ;
506 [label="mse = 0.0\nsamples = 1\nvalue = 5847.0"] ;
505 -> 506 ;
507 [label="X[4] <= 4.5\nmse = 9.0\nsamples = 2\nvalue = 5989.0"] ;
505 -> 507 ;
508 [label="mse = 0.0\nsamples = 1\nvalue = 5986.0"] ;
507 -> 508 ;
509 [label="mse = 0.0\nsamples = 1\nvalue = 5992.0"] ;
507 -> 509 ;
510 [label="X[8] <= 0.575\nmse = 512061.5\nsamples = 4\nvalue = 4772.0"] ;
466 -> 510 ;
511 [label="X[5] <= 0.5\nmse = 24025.0\nsamples = 2\nvalue = 4065.0"] ;
510 -> 511 ;
512 [label="mse = 0.0\nsamples = 1\nvalue = 4220.0"] ;
511 -> 512 ;
513 [label="mse = 0.0\nsamples = 1\nvalue = 3910.0"] ;
511 -> 513 ;
514 [label="X[0] <= 3.0\nmse = 400.0\nsamples = 2\nvalue = 5479.0"] ;
510 -> 514 ;
515 [label="mse = 0.0\nsamples = 1\nvalue = 5459.0"] ;
514 -> 515 ;
516 [label="mse = 0.0\nsamples = 1\nvalue = 5499.0"] ;
514 -> 516 ;
517 [label="X[7] <= 0.35\nmse = 328272.25\nsamples = 8\nvalue = 4953.0"] ;
465 -> 517 ;
518 [label="X[9] <= 0.132\nmse = 169854.16\nsamples = 5\nvalue = 4589.2"] ;
517 -> 518 ;
519 [label="X[6] <= 1.5\nmse = 380.25\nsamples = 2\nvalue = 5027.5"] ;
518 -> 519 ;
520 [label="mse = 0.0\nsamples = 1\nvalue = 5047.0"] ;
519 -> 520 ;
521 [label="mse = 0.0\nsamples = 1\nvalue = 5008.0"] ;
519 -> 521 ;
522 [label="X[8] <= 0.68\nmse = 69384.667\nsamples = 3\nvalue = 4297.0"] ;
518 -> 522 ;
523 [label="X[4] <= 3.0\nmse = 289.0\nsamples = 2\nvalue = 4111.0"] ;
522 -> 523 ;
524 [label="mse = 0.0\nsamples = 1\nvalue = 4094.0"] ;
523 -> 524 ;
525 [label="mse = 0.0\nsamples = 1\nvalue = 4128.0"] ;
523 -> 525 ;
526 [label="mse = 0.0\nsamples = 1\nvalue = 4669.0"] ;
522 -> 526 ;
527 [label="X[7] <= 0.379\nmse = 4078.222\nsamples = 3\nvalue = 5559.333"] ;
517 -> 527 ;
528 [label="X[7] <= 0.366\nmse = 1156.0\nsamples = 2\nvalue = 5600.0"] ;
527 -> 528 ;
529 [label="mse = 0.0\nsamples = 1\nvalue = 5566.0"] ;
528 -> 529 ;
530 [label="mse = 0.0\nsamples = 1\nvalue = 5634.0"] ;
528 -> 530 ;
531 [label="mse = 0.0\nsamples = 1\nvalue = 5478.0"] ;
527 -> 531 ;
532 [label="X[4] <= 4.5\nmse = 934860.96\nsamples = 10\nvalue = 5934.2"] ;
464 -> 532 ;
533 [label="X[2] <= 2.5\nmse = 1018317.222\nsamples = 6\nvalue = 5500.333"] ;
532 -> 533 ;
534 [label="mse = 0.0\nsamples = 1\nvalue = 3510.0"] ;
533 -> 534 ;
535 [label="X[9] <= 0.15\nmse = 271238.24\nsamples = 5\nvalue = 5898.4"] ;
533 -> 535 ;
536 [label="mse = 0.0\nsamples = 1\nvalue = 6852.0"] ;
535 -> 536 ;
537 [label="X[4] <= 1.0\nmse = 54875.0\nsamples = 4\nvalue = 5660.0"] ;
535 -> 537 ;
538 [label="mse = 0.0\nsamples = 1\nvalue = 6041.0"] ;
537 -> 538 ;
539 [label="X[4] <= 3.0\nmse = 8650.667\nsamples = 3\nvalue = 5533.0"] ;
537 -> 539 ;
540 [label="X[8] <= 0.56\nmse = 1444.0\nsamples = 2\nvalue = 5595.0"] ;
539 -> 540 ;
541 [label="mse = 0.0\nsamples = 1\nvalue = 5633.0"] ;
540 -> 541 ;
542 [label="mse = 0.0\nsamples = 1\nvalue = 5557.0"] ;
540 -> 542 ;
543 [label="mse = 0.0\nsamples = 1\nvalue = 5409.0"] ;
539 -> 543 ;
544 [label="X[2] <= 2.5\nmse = 103775.5\nsamples = 4\nvalue = 6585.0"] ;
532 -> 544 ;
545 [label="mse = 0.0\nsamples = 1\nvalue = 7109.0"] ;
544 -> 545 ;
546 [label="X[8] <= 0.692\nmse = 16333.556\nsamples = 3\nvalue = 6410.333"] ;
544 -> 546 ;
547 [label="X[5] <= 0.5\nmse = 1444.0\nsamples = 2\nvalue = 6498.0"] ;
546 -> 547 ;
548 [label="mse = 0.0\nsamples = 1\nvalue = 6536.0"] ;
547 -> 548 ;
549 [label="mse = 0.0\nsamples = 1\nvalue = 6460.0"] ;
547 -> 549 ;
550 [label="mse = 0.0\nsamples = 1\nvalue = 6235.0"] ;
546 -> 550 ;
551 [label="X[9] <= 0.141\nmse = 2186138.41\nsamples = 10\nvalue = 3631.7"] ;
453 -> 551 ;
552 [label="X[4] <= 3.5\nmse = 370611.44\nsamples = 5\nvalue = 4758.6"] ;
551 -> 552 ;
553 [label="X[7] <= 0.355\nmse = 154140.667\nsamples = 3\nvalue = 4340.0"] ;
552 -> 553 ;
554 [label="mse = 0.0\nsamples = 1\nvalue = 4649.0"] ;
553 -> 554 ;
555 [label="X[4] <= 0.5\nmse = 159600.25\nsamples = 2\nvalue = 4185.5"] ;
553 -> 555 ;
556 [label="mse = 0.0\nsamples = 1\nvalue = 3786.0"] ;
555 -> 556 ;
557 [label="mse = 0.0\nsamples = 1\nvalue = 4585.0"] ;
555 -> 557 ;
558 [label="X[9] <= 0.081\nmse = 38220.25\nsamples = 2\nvalue = 5386.5"] ;
552 -> 558 ;
559 [label="mse = 0.0\nsamples = 1\nvalue = 5191.0"] ;
558 -> 559 ;
560 [label="mse = 0.0\nsamples = 1\nvalue = 5582.0"] ;
558 -> 560 ;
561 [label="X[8] <= 0.806\nmse = 1461858.16\nsamples = 5\nvalue = 2504.8"] ;
551 -> 561 ;
562 [label="X[9] <= 0.271\nmse = 138756.25\nsamples = 2\nvalue = 3586.5"] ;
561 -> 562 ;
563 [label="mse = 0.0\nsamples = 1\nvalue = 3959.0"] ;
562 -> 563 ;
564 [label="mse = 0.0\nsamples = 1\nvalue = 3214.0"] ;
562 -> 564 ;
565 [label="X[8] <= 0.87\nmse = 1043842.889\nsamples = 3\nvalue = 1783.667"] ;
561 -> 565 ;
566 [label="X[0] <= 3.0\nmse = 1190.25\nsamples = 2\nvalue = 1061.5"] ;
565 -> 566 ;
567 [label="mse = 0.0\nsamples = 1\nvalue = 1027.0"] ;
566 -> 567 ;
568 [label="mse = 0.0\nsamples = 1\nvalue = 1096.0"] ;
566 -> 568 ;
569 [label="mse = 0.0\nsamples = 1\nvalue = 3228.0"] ;
565 -> 569 ;
570 [label="X[1] <= 0.5\nmse = 2313139.278\nsamples = 435\nvalue = 5502.271"] ;
0 -> 570 [labeldistance=2.5, labelangle=-45, headlabel="False"] ;
571 [label="X[6] <= 2.5\nmse = 702662.922\nsamples = 208\nvalue = 4295.327"] ;
570 -> 571 ;
572 [label="X[2] <= 2.5\nmse = 563373.378\nsamples = 200\nvalue = 4374.32"] ;
571 -> 572 ;
573 [label="X[8] <= 0.754\nmse = 462225.714\nsamples = 170\nvalue = 4508.182"] ;
572 -> 573 ;
574 [label="X[2] <= 1.5\nmse = 317103.347\nsamples = 135\nvalue = 4646.77"] ;
573 -> 574 ;
575 [label="X[9] <= 0.248\nmse = 51076.0\nsamples = 2\nvalue = 2701.0"] ;
574 -> 575 ;
576 [label="mse = 0.0\nsamples = 1\nvalue = 2475.0"] ;
575 -> 576 ;
577 [label="mse = 0.0\nsamples = 1\nvalue = 2927.0"] ;
575 -> 577 ;
578 [label="X[7] <= 0.807\nmse = 263314.962\nsamples = 133\nvalue = 4676.03"] ;
574 -> 578 ;
579 [label="X[8] <= 0.631\nmse = 219760.649\nsamples = 127\nvalue = 4725.11"] ;
578 -> 579 ;
580 [label="X[7] <= 0.751\nmse = 160506.857\nsamples = 59\nvalue = 4894.559"] ;
579 -> 580 ;
581 [label="X[7] <= 0.568\nmse = 139084.376\nsamples = 46\nvalue = 5006.565"] ;
580 -> 581 ;
582 [label="X[5] <= 0.5\nmse = 55192.777\nsamples = 11\nvalue = 4723.636"] ;
581 -> 582 ;
583 [label="X[8] <= 0.514\nmse = 43434.889\nsamples = 3\nvalue = 4990.667"] ;
582 -> 583 ;
584 [label="X[4] <= 3.0\nmse = 7744.0\nsamples = 2\nvalue = 5129.0"] ;
583 -> 584 ;
585 [label="mse = 0.0\nsamples = 1\nvalue = 5041.0"] ;
584 -> 585 ;
586 [label="mse = 0.0\nsamples = 1\nvalue = 5217.0"] ;
584 -> 586 ;
587 [label="mse = 0.0\nsamples = 1\nvalue = 4714.0"] ;
583 -> 587 ;
588 [label="X[9] <= 0.171\nmse = 22835.25\nsamples = 8\nvalue = 4623.5"] ;
582 -> 588 ;
589 [label="X[9] <= 0.165\nmse = 1761.688\nsamples = 4\nvalue = 4753.75"] ;
588 -> 589 ;
590 [label="X[4] <= 3.0\nmse = 368.667\nsamples = 3\nvalue = 4776.0"] ;
589 -> 590 ;
591 [label="mse = 0.0\nsamples = 1\nvalue = 4803.0"] ;
590 -> 591 ;
592 [label="X[6] <= 1.5\nmse = 6.25\nsamples = 2\nvalue = 4762.5"] ;
590 -> 592 ;
593 [label="mse = 0.0\nsamples = 1\nvalue = 4765.0"] ;
592 -> 593 ;
594 [label="mse = 0.0\nsamples = 1\nvalue = 4760.0"] ;
592 -> 594 ;
595 [label="mse = 0.0\nsamples = 1\nvalue = 4687.0"] ;
589 -> 595 ;
596 [label="X[8] <= 0.589\nmse = 9978.688\nsamples = 4\nvalue = 4493.25"] ;
588 -> 596 ;
597 [label="X[7] <= 0.533\nmse = 7452.667\nsamples = 3\nvalue = 4455.0"] ;
596 -> 597 ;
598 [label="X[4] <= 2.5\nmse = 1260.25\nsamples = 2\nvalue = 4397.5"] ;
597 -> 598 ;
599 [label="mse = 0.0\nsamples = 1\nvalue = 4362.0"] ;
598 -> 599 ;
600 [label="mse = 0.0\nsamples = 1\nvalue = 4433.0"] ;
598 -> 600 ;
601 [label="mse = 0.0\nsamples = 1\nvalue = 4570.0"] ;
597 -> 601 ;
602 [label="mse = 0.0\nsamples = 1\nvalue = 4608.0"] ;
596 -> 602 ;
603 [label="X[4] <= 5.5\nmse = 132385.278\nsamples = 35\nvalue = 5095.486"] ;
581 -> 603 ;
604 [label="X[8] <= 0.551\nmse = 108785.405\nsamples = 29\nvalue = 5021.207"] ;
603 -> 604 ;
605 [label="X[9] <= 0.266\nmse = 83625.396\nsamples = 15\nvalue = 5161.067"] ;
604 -> 605 ;
606 [label="X[7] <= 0.702\nmse = 79052.05\nsamples = 11\nvalue = 5252.636"] ;
605 -> 606 ;
607 [label="X[8] <= 0.464\nmse = 64057.388\nsamples = 7\nvalue = 5356.429"] ;
606 -> 607 ;
608 [label="mse = 58388.667\nsamples = 3\nvalue = 5574.0"] ;
607 -> 608 ;
609 [label="mse = 6178.688\nsamples = 4\nvalue = 5193.25"] ;
607 -> 609 ;
610 [label="X[7] <= 0.72\nmse = 53448.5\nsamples = 4\nvalue = 5071.0"] ;
606 -> 610 ;
611 [label="mse = 3192.25\nsamples = 2\nvalue = 4848.5"] ;
610 -> 611 ;
612 [label="mse = 4692.25\nsamples = 2\nvalue = 5293.5"] ;
610 -> 612 ;
613 [label="X[0] <= 2.5\nmse = 9731.688\nsamples = 4\nvalue = 4909.25"] ;
605 -> 613 ;
614 [label="X[8] <= 0.501\nmse = 2808.222\nsamples = 3\nvalue = 4959.667"] ;
613 -> 614 ;
615 [label="mse = 676.0\nsamples = 2\nvalue = 4994.0"] ;
614 -> 615 ;
616 [label="mse = 0.0\nsamples = 1\nvalue = 4891.0"] ;
614 -> 616 ;
617 [label="mse = 0.0\nsamples = 1\nvalue = 4758.0"] ;
613 -> 617 ;
618 [label="X[8] <= 0.591\nmse = 92329.658\nsamples = 14\nvalue = 4871.357"] ;
604 -> 618 ;
619 [label="X[9] <= 0.27\nmse = 36793.959\nsamples = 7\nvalue = 4703.429"] ;
618 -> 619 ;
620 [label="X[4] <= 4.0\nmse = 16389.0\nsamples = 6\nvalue = 4765.0"] ;
619 -> 620 ;
621 [label="mse = 7408.56\nsamples = 5\nvalue = 4719.8"] ;
620 -> 621 ;
622 [label="mse = 0.0\nsamples = 1\nvalue = 4991.0"] ;
620 -> 622 ;
623 [label="mse = 0.0\nsamples = 1\nvalue = 4334.0"] ;
619 -> 623 ;
624 [label="X[0] <= 2.5\nmse = 91465.347\nsamples = 7\nvalue = 5039.286"] ;
618 -> 624 ;
625 [label="X[9] <= 0.155\nmse = 20306.25\nsamples = 2\nvalue = 4690.5"] ;
624 -> 625 ;
626 [label="mse = 0.0\nsamples = 1\nvalue = 4548.0"] ;
625 -> 626 ;
627 [label="mse = 0.0\nsamples = 1\nvalue = 4833.0"] ;
625 -> 627 ;
628 [label="X[8] <= 0.595\nmse = 51804.16\nsamples = 5\nvalue = 5178.8"] ;
624 -> 628 ;
629 [label="mse = 0.0\nsamples = 1\nvalue = 5538.0"] ;
628 -> 629 ;
630 [label="mse = 24435.0\nsamples = 4\nvalue = 5089.0"] ;
628 -> 630 ;
631 [label="X[7] <= 0.691\nmse = 90892.917\nsamples = 6\nvalue = 5454.5"] ;
603 -> 631 ;
632 [label="X[8] <= 0.521\nmse = 62872.667\nsamples = 3\nvalue = 5690.0"] ;
631 -> 632 ;
633 [label="mse = 0.0\nsamples = 1\nvalue = 5342.0"] ;
632 -> 633 ;
634 [label="X[9] <= 0.164\nmse = 3481.0\nsamples = 2\nvalue = 5864.0"] ;
632 -> 634 ;
635 [label="mse = 0.0\nsamples = 1\nvalue = 5805.0"] ;
634 -> 635 ;
636 [label="mse = 0.0\nsamples = 1\nvalue = 5923.0"] ;
634 -> 636 ;
637 [label="X[8] <= 0.546\nmse = 7992.667\nsamples = 3\nvalue = 5219.0"] ;
631 -> 637 ;
638 [label="X[7] <= 0.717\nmse = 1722.25\nsamples = 2\nvalue = 5160.5"] ;
637 -> 638 ;
639 [label="mse = 0.0\nsamples = 1\nvalue = 5202.0"] ;
638 -> 639 ;
640 [label="mse = 0.0\nsamples = 1\nvalue = 5119.0"] ;
638 -> 640 ;
641 [label="mse = 0.0\nsamples = 1\nvalue = 5336.0"] ;
637 -> 641 ;
642 [label="X[9] <= 0.2\nmse = 34842.024\nsamples = 13\nvalue = 4498.231"] ;
580 -> 642 ;
643 [label="X[4] <= 1.5\nmse = 19299.76\nsamples = 10\nvalue = 4426.2"] ;
642 -> 643 ;
644 [label="X[9] <= 0.161\nmse = 608.0\nsamples = 3\nvalue = 4298.0"] ;
643 -> 644 ;
645 [label="mse = 0.0\nsamples = 1\nvalue = 4266.0"] ;
644 -> 645 ;
646 [label="X[5] <= 0.5\nmse = 144.0\nsamples = 2\nvalue = 4314.0"] ;
644 -> 646 ;
647 [label="mse = 0.0\nsamples = 1\nvalue = 4302.0"] ;
646 -> 647 ;
648 [label="mse = 0.0\nsamples = 1\nvalue = 4326.0"] ;
646 -> 648 ;
649 [label="X[7] <= 0.775\nmse = 17248.122\nsamples = 7\nvalue = 4481.143"] ;
643 -> 649 ;
650 [label="X[8] <= 0.487\nmse = 896.889\nsamples = 3\nvalue = 4614.667"] ;
649 -> 650 ;
651 [label="mse = 0.0\nsamples = 1\nvalue = 4656.0"] ;
650 -> 651 ;
652 [label="X[9] <= 0.146\nmse = 64.0\nsamples = 2\nvalue = 4594.0"] ;
650 -> 652 ;
653 [label="mse = 0.0\nsamples = 1\nvalue = 4586.0"] ;
652 -> 653 ;
654 [label="mse = 0.0\nsamples = 1\nvalue = 4602.0"] ;
652 -> 654 ;
655 [label="X[9] <= 0.189\nmse = 6111.5\nsamples = 4\nvalue = 4381.0"] ;
649 -> 655 ;
656 [label="X[7] <= 0.792\nmse = 1424.667\nsamples = 3\nvalue = 4422.0"] ;
655 -> 656 ;
657 [label="X[7] <= 0.778\nmse = 30.25\nsamples = 2\nvalue = 4395.5"] ;
656 -> 657 ;
658 [label="mse = 0.0\nsamples = 1\nvalue = 4401.0"] ;
657 -> 658 ;
659 [label="mse = 0.0\nsamples = 1\nvalue = 4390.0"] ;
657 -> 659 ;
660 [label="mse = 0.0\nsamples = 1\nvalue = 4475.0"] ;
656 -> 660 ;
661 [label="mse = 0.0\nsamples = 1\nvalue = 4258.0"] ;
655 -> 661 ;
662 [label="X[8] <= 0.516\nmse = 11705.556\nsamples = 3\nvalue = 4738.333"] ;
642 -> 662 ;
663 [label="X[8] <= 0.458\nmse = 1056.25\nsamples = 2\nvalue = 4812.5"] ;
662 -> 663 ;
664 [label="mse = 0.0\nsamples = 1\nvalue = 4780.0"] ;
663 -> 664 ;
665 [label="mse = 0.0\nsamples = 1\nvalue = 4845.0"] ;
663 -> 665 ;
666 [label="mse = 0.0\nsamples = 1\nvalue = 4590.0"] ;
662 -> 666 ;
667 [label="X[9] <= 0.106\nmse = 224643.816\nsamples = 68\nvalue = 4578.088"] ;
579 -> 667 ;
668 [label="X[7] <= 0.713\nmse = 226430.173\nsamples = 9\nvalue = 5116.222"] ;
667 -> 668 ;
669 [label="X[8] <= 0.697\nmse = 133948.734\nsamples = 8\nvalue = 5000.375"] ;
668 -> 669 ;
670 [label="X[4] <= 3.0\nmse = 83133.76\nsamples = 5\nvalue = 4793.2"] ;
669 -> 670 ;
671 [label="X[9] <= 0.082\nmse = 34920.222\nsamples = 3\nvalue = 4596.667"] ;
670 -> 671 ;
672 [label="mse = 0.0\nsamples = 1\nvalue = 4333.0"] ;
671 -> 672 ;
673 [label="X[8] <= 0.679\nmse = 240.25\nsamples = 2\nvalue = 4728.5"] ;
671 -> 673 ;
674 [label="mse = 0.0\nsamples = 1\nvalue = 4744.0"] ;
673 -> 674 ;
675 [label="mse = 0.0\nsamples = 1\nvalue = 4713.0"] ;
673 -> 675 ;
676 [label="X[7] <= 0.604\nmse = 10609.0\nsamples = 2\nvalue = 5088.0"] ;
670 -> 676 ;
677 [label="mse = 0.0\nsamples = 1\nvalue = 4985.0"] ;
676 -> 677 ;
678 [label="mse = 0.0\nsamples = 1\nvalue = 5191.0"] ;
676 -> 678 ;
679 [label="X[9] <= 0.044\nmse = 27878.222\nsamples = 3\nvalue = 5345.667"] ;
669 -> 679 ;
680 [label="mse = 0.0\nsamples = 1\nvalue = 5117.0"] ;
679 -> 680 ;
681 [label="X[4] <= 3.0\nmse = 2601.0\nsamples = 2\nvalue = 5460.0"] ;
679 -> 681 ;
682 [label="mse = 0.0\nsamples = 1\nvalue = 5511.0"] ;
681 -> 682 ;
683 [label="mse = 0.0\nsamples = 1\nvalue = 5409.0"] ;
681 -> 683 ;
684 [label="mse = 0.0\nsamples = 1\nvalue = 6043.0"] ;
668 -> 684 ;
685 [label="X[6] <= 1.5\nmse = 173458.373\nsamples = 59\nvalue = 4496.0"] ;
667 -> 685 ;
686 [label="X[7] <= 0.71\nmse = 138928.0\nsamples = 39\nvalue = 4603.0"] ;
685 -> 686 ;
687 [label="X[8] <= 0.638\nmse = 94200.854\nsamples = 25\nvalue = 4749.84"] ;
686 -> 687 ;
688 [label="X[7] <= 0.509\nmse = 42.25\nsamples = 2\nvalue = 4188.5"] ;
687 -> 688 ;
689 [label="mse = 0.0\nsamples = 1\nvalue = 4195.0"] ;
688 -> 689 ;
690 [label="mse = 0.0\nsamples = 1\nvalue = 4182.0"] ;
688 -> 690 ;
691 [label="X[9] <= 0.159\nmse = 72605.705\nsamples = 23\nvalue = 4798.652"] ;
687 -> 691 ;
692 [label="X[7] <= 0.652\nmse = 38551.556\nsamples = 9\nvalue = 4976.333"] ;
691 -> 692 ;
693 [label="X[4] <= 3.5\nmse = 9132.5\nsamples = 4\nvalue = 4796.0"] ;
692 -> 693 ;
694 [label="mse = 2652.25\nsamples = 2\nvalue = 4711.5"] ;
693 -> 694 ;
695 [label="mse = 1332.25\nsamples = 2\nvalue = 4880.5"] ;
693 -> 695 ;
696 [label="X[8] <= 0.734\nmse = 15257.84\nsamples = 5\nvalue = 5120.6"] ;
692 -> 696 ;
697 [label="mse = 3336.25\nsamples = 4\nvalue = 5064.5"] ;
696 -> 697 ;
698 [label="mse = 0.0\nsamples = 1\nvalue = 5345.0"] ;
696 -> 698 ;
699 [label="X[8] <= 0.648\nmse = 61155.245\nsamples = 14\nvalue = 4684.429"] ;
691 -> 699 ;
700 [label="mse = 0.0\nsamples = 1\nvalue = 5202.0"] ;
699 -> 700 ;
701 [label="X[4] <= 2.5\nmse = 43668.237\nsamples = 13\nvalue = 4644.615"] ;
699 -> 701 ;
702 [label="mse = 54850.24\nsamples = 5\nvalue = 4493.6"] ;
701 -> 702 ;
703 [label="mse = 13517.5\nsamples = 8\nvalue = 4739.0"] ;
701 -> 703 ;
704 [label="X[9] <= 0.187\nmse = 111538.026\nsamples = 14\nvalue = 4340.786"] ;
686 -> 704 ;
705 [label="X[9] <= 0.138\nmse = 73583.41\nsamples = 10\nvalue = 4463.7"] ;
704 -> 705 ;
706 [label="X[0] <= 2.5\nmse = 46445.188\nsamples = 4\nvalue = 4238.25"] ;
705 -> 706 ;
707 [label="X[3] <= 0.5\nmse = 3364.0\nsamples = 2\nvalue = 4040.0"] ;
706 -> 707 ;
708 [label="mse = 0.0\nsamples = 1\nvalue = 3982.0"] ;
707 -> 708 ;
709 [label="mse = 0.0\nsamples = 1\nvalue = 4098.0"] ;
707 -> 709 ;
710 [label="X[8] <= 0.679\nmse = 10920.25\nsamples = 2\nvalue = 4436.5"] ;
706 -> 710 ;
711 [label="mse = 0.0\nsamples = 1\nvalue = 4541.0"] ;
710 -> 711 ;
712 [label="mse = 0.0\nsamples = 1\nvalue = 4332.0"] ;
710 -> 712 ;
713 [label="X[0] <= 2.5\nmse = 35200.333\nsamples = 6\nvalue = 4614.0"] ;
705 -> 713 ;
714 [label="mse = 0.0\nsamples = 1\nvalue = 4966.0"] ;
713 -> 714 ;
715 [label="X[8] <= 0.633\nmse = 12503.44\nsamples = 5\nvalue = 4543.6"] ;
713 -> 715 ;
716 [label="mse = 0.0\nsamples = 1\nvalue = 4342.0"] ;
715 -> 716 ;
717 [label="mse = 2928.5\nsamples = 4\nvalue = 4594.0"] ;
715 -> 717 ;
718 [label="X[7] <= 0.745\nmse = 74230.25\nsamples = 4\nvalue = 4033.5"] ;
704 -> 718 ;
719 [label="X[9] <= 0.217\nmse = 100.0\nsamples = 2\nvalue = 3795.0"] ;
718 -> 719 ;
720 [label="mse = 0.0\nsamples = 1\nvalue = 3785.0"] ;
719 -> 720 ;
721 [label="mse = 0.0\nsamples = 1\nvalue = 3805.0"] ;
719 -> 721 ;
722 [label="X[7] <= 0.755\nmse = 34596.0\nsamples = 2\nvalue = 4272.0"] ;
718 -> 722 ;
723 [label="mse = 0.0\nsamples = 1\nvalue = 4458.0"] ;
722 -> 723 ;
724 [label="mse = 0.0\nsamples = 1\nvalue = 4086.0"] ;
722 -> 724 ;
725 [label="X[4] <= 2.5\nmse = 174932.227\nsamples = 20\nvalue = 4287.35"] ;
685 -> 725 ;
726 [label="X[8] <= 0.744\nmse = 58617.432\nsamples = 9\nvalue = 4544.889"] ;
725 -> 726 ;
727 [label="X[9] <= 0.145\nmse = 25710.938\nsamples = 8\nvalue = 4611.75"] ;
726 -> 727 ;
728 [label="X[4] <= 0.5\nmse = 7307.556\nsamples = 3\nvalue = 4787.333"] ;
727 -> 728 ;
729 [label="mse = 0.0\nsamples = 1\nvalue = 4906.0"] ;
728 -> 729 ;
730 [label="X[8] <= 0.68\nmse = 400.0\nsamples = 2\nvalue = 4728.0"] ;
728 -> 730 ;
731 [label="mse = 0.0\nsamples = 1\nvalue = 4708.0"] ;
730 -> 731 ;
732 [label="mse = 0.0\nsamples = 1\nvalue = 4748.0"] ;
730 -> 732 ;
733 [label="X[8] <= 0.694\nmse = 7156.64\nsamples = 5\nvalue = 4506.4"] ;
727 -> 733 ;
734 [label="X[8] <= 0.686\nmse = 3025.0\nsamples = 2\nvalue = 4594.0"] ;
733 -> 734 ;
735 [label="mse = 0.0\nsamples = 1\nvalue = 4649.0"] ;
734 -> 735 ;
736 [label="mse = 0.0\nsamples = 1\nvalue = 4539.0"] ;
734 -> 736 ;
737 [label="X[4] <= 1.5\nmse = 1384.667\nsamples = 3\nvalue = 4448.0"] ;
733 -> 737 ;
738 [label="mse = 0.0\nsamples = 1\nvalue = 4401.0"] ;
737 -> 738 ;
739 [label="mse = 420.25\nsamples = 2\nvalue = 4471.5"] ;
737 -> 739 ;
740 [label="mse = 0.0\nsamples = 1\nvalue = 4010.0"] ;
726 -> 740 ;
741 [label="X[8] <= 0.717\nmse = 171431.686\nsamples = 11\nvalue = 4076.636"] ;
725 -> 741 ;
742 [label="X[9] <= 0.231\nmse = 174191.222\nsamples = 6\nvalue = 3901.333"] ;
741 -> 742 ;
743 [label="X[7] <= 0.748\nmse = 23064.188\nsamples = 4\nvalue = 3739.75"] ;
742 -> 743 ;
744 [label="X[0] <= 2.5\nmse = 6364.222\nsamples = 3\nvalue = 3661.667"] ;
743 -> 744 ;
745 [label="mse = 0.0\nsamples = 1\nvalue = 3767.0"] ;
744 -> 745 ;
746 [label="mse = 1225.0\nsamples = 2\nvalue = 3609.0"] ;
744 -> 746 ;
747 [label="mse = 0.0\nsamples = 1\nvalue = 3974.0"] ;
743 -> 747 ;
748 [label="X[7] <= 0.653\nmse = 319790.25\nsamples = 2\nvalue = 4224.5"] ;
742 -> 748 ;
749 [label="mse = 0.0\nsamples = 1\nvalue = 3659.0"] ;
748 -> 749 ;
750 [label="mse = 0.0\nsamples = 1\nvalue = 4790.0"] ;
748 -> 750 ;
751 [label="X[0] <= 3.5\nmse = 86990.0\nsamples = 5\nvalue = 4287.0"] ;
741 -> 751 ;
752 [label="X[7] <= 0.664\nmse = 60472.188\nsamples = 4\nvalue = 4385.25"] ;
751 -> 752 ;
753 [label="X[7] <= 0.567\nmse = 11664.0\nsamples = 2\nvalue = 4619.0"] ;
752 -> 753 ;
754 [label="mse = 0.0\nsamples = 1\nvalue = 4511.0"] ;
753 -> 754 ;
755 [label="mse = 0.0\nsamples = 1\nvalue = 4727.0"] ;
753 -> 755 ;
756 [label="X[8] <= 0.726\nmse = 2.25\nsamples = 2\nvalue = 4151.5"] ;
752 -> 756 ;
757 [label="mse = 0.0\nsamples = 1\nvalue = 4153.0"] ;
756 -> 757 ;
758 [label="mse = 0.0\nsamples = 1\nvalue = 4150.0"] ;
756 -> 758 ;
759 [label="mse = 0.0\nsamples = 1\nvalue = 3894.0"] ;
751 -> 759 ;
760 [label="X[9] <= 0.141\nmse = 54989.806\nsamples = 6\nvalue = 3637.167"] ;
578 -> 760 ;
761 [label="X[9] <= 0.132\nmse = 2601.0\nsamples = 2\nvalue = 3336.0"] ;
760 -> 761 ;
762 [label="mse = 0.0\nsamples = 1\nvalue = 3285.0"] ;
761 -> 762 ;
763 [label="mse = 0.0\nsamples = 1\nvalue = 3387.0"] ;
761 -> 763 ;
764 [label="X[5] <= 0.5\nmse = 13158.188\nsamples = 4\nvalue = 3787.75"] ;
760 -> 764 ;
765 [label="mse = 0.0\nsamples = 1\nvalue = 3606.0"] ;
764 -> 765 ;
766 [label="X[0] <= 2.5\nmse = 2862.889\nsamples = 3\nvalue = 3848.333"] ;
764 -> 766 ;
767 [label="mse = 0.0\nsamples = 1\nvalue = 3915.0"] ;
766 -> 767 ;
768 [label="X[8] <= 0.617\nmse = 961.0\nsamples = 2\nvalue = 3815.0"] ;
766 -> 768 ;
769 [label="mse = 0.0\nsamples = 1\nvalue = 3846.0"] ;
768 -> 769 ;
770 [label="mse = 0.0\nsamples = 1\nvalue = 3784.0"] ;
768 -> 770 ;
771 [label="X[9] <= 0.326\nmse = 662152.919\nsamples = 35\nvalue = 3973.629"] ;
573 -> 771 ;
772 [label="X[8] <= 0.947\nmse = 434213.208\nsamples = 34\nvalue = 4057.706"] ;
771 -> 772 ;
773 [label="X[9] <= 0.087\nmse = 361057.052\nsamples = 33\nvalue = 4108.091"] ;
772 -> 773 ;
774 [label="X[8] <= 0.854\nmse = 97001.556\nsamples = 3\nvalue = 5031.333"] ;
773 -> 774 ;
775 [label="X[6] <= 1.5\nmse = 30450.25\nsamples = 2\nvalue = 4835.5"] ;
774 -> 775 ;
776 [label="mse = 0.0\nsamples = 1\nvalue = 4661.0"] ;
775 -> 776 ;
777 [label="mse = 0.0\nsamples = 1\nvalue = 5010.0"] ;
775 -> 777 ;
778 [label="mse = 0.0\nsamples = 1\nvalue = 5423.0"] ;
774 -> 778 ;
779 [label="X[7] <= 0.526\nmse = 293701.179\nsamples = 30\nvalue = 4015.767"] ;
773 -> 779 ;
780 [label="X[9] <= 0.189\nmse = 313370.56\nsamples = 5\nvalue = 3542.2"] ;
779 -> 780 ;
781 [label="X[5] <= 0.5\nmse = 147950.0\nsamples = 4\nvalue = 3763.0"] ;
780 -> 781 ;
782 [label="X[7] <= 0.486\nmse = 841.0\nsamples = 2\nvalue = 3380.0"] ;
781 -> 782 ;
783 [label="mse = 0.0\nsamples = 1\nvalue = 3351.0"] ;
782 -> 783 ;
784 [label="mse = 0.0\nsamples = 1\nvalue = 3409.0"] ;
782 -> 784 ;
785 [label="X[8] <= 0.818\nmse = 1681.0\nsamples = 2\nvalue = 4146.0"] ;
781 -> 785 ;
786 [label="mse = 0.0\nsamples = 1\nvalue = 4187.0"] ;
785 -> 786 ;
787 [label="mse = 0.0\nsamples = 1\nvalue = 4105.0"] ;
785 -> 787 ;
788 [label="mse = 0.0\nsamples = 1\nvalue = 2659.0"] ;
780 -> 788 ;
789 [label="X[3] <= 0.5\nmse = 235943.61\nsamples = 25\nvalue = 4110.48"] ;
779 -> 789 ;
790 [label="X[8] <= 0.869\nmse = 220739.443\nsamples = 24\nvalue = 4142.125"] ;
789 -> 790 ;
791 [label="X[7] <= 0.683\nmse = 143505.308\nsamples = 17\nvalue = 4246.529"] ;
790 -> 791 ;
792 [label="X[9] <= 0.218\nmse = 120724.909\nsamples = 11\nvalue = 4366.0"] ;
791 -> 792 ;
793 [label="X[7] <= 0.642\nmse = 108165.609\nsamples = 8\nvalue = 4476.125"] ;
792 -> 793 ;
794 [label="X[7] <= 0.572\nmse = 95917.76\nsamples = 5\nvalue = 4311.2"] ;
793 -> 794 ;
795 [label="mse = 80.889\nsamples = 3\nvalue = 4563.667"] ;
794 -> 795 ;
796 [label="mse = 650.25\nsamples = 2\nvalue = 3932.5"] ;
794 -> 796 ;
797 [label="X[8] <= 0.834\nmse = 7688.667\nsamples = 3\nvalue = 4751.0"] ;
793 -> 797 ;
798 [label="mse = 552.25\nsamples = 2\nvalue = 4811.5"] ;
797 -> 798 ;
799 [label="mse = 0.0\nsamples = 1\nvalue = 4630.0"] ;
797 -> 799 ;
800 [label="X[4] <= 0.5\nmse = 35636.222\nsamples = 3\nvalue = 4072.333"] ;
792 -> 800 ;
801 [label="mse = 0.0\nsamples = 1\nvalue = 3820.0"] ;
800 -> 801 ;
802 [label="X[7] <= 0.597\nmse = 5700.25\nsamples = 2\nvalue = 4198.5"] ;
800 -> 802 ;
803 [label="mse = 0.0\nsamples = 1\nvalue = 4123.0"] ;
802 -> 803 ;
804 [label="mse = 0.0\nsamples = 1\nvalue = 4274.0"] ;
802 -> 804 ;
805 [label="X[8] <= 0.764\nmse = 111127.917\nsamples = 6\nvalue = 4027.5"] ;
791 -> 805 ;
806 [label="X[4] <= 2.5\nmse = 76196.75\nsamples = 4\nvalue = 4187.5"] ;
805 -> 806 ;
807 [label="mse = 0.0\nsamples = 1\nvalue = 3840.0"] ;
806 -> 807 ;
808 [label="X[9] <= 0.211\nmse = 47926.222\nsamples = 3\nvalue = 4303.333"] ;
806 -> 808 ;
809 [label="mse = 0.0\nsamples = 1\nvalue = 4576.0"] ;
808 -> 809 ;
810 [label="mse = 16129.0\nsamples = 2\nvalue = 4167.0"] ;
808 -> 810 ;
811 [label="X[9] <= 0.23\nmse = 27390.25\nsamples = 2\nvalue = 3707.5"] ;
805 -> 811 ;
812 [label="mse = 0.0\nsamples = 1\nvalue = 3542.0"] ;
811 -> 812 ;
813 [label="mse = 0.0\nsamples = 1\nvalue = 3873.0"] ;
811 -> 813 ;
814 [label="X[8] <= 0.899\nmse = 317546.531\nsamples = 7\nvalue = 3888.571"] ;
790 -> 814 ;
815 [label="X[4] <= 3.5\nmse = 162229.04\nsamples = 5\nvalue = 3614.6"] ;
814 -> 815 ;
816 [label="X[9] <= 0.127\nmse = 38384.667\nsamples = 3\nvalue = 3872.0"] ;
815 -> 816 ;
817 [label="mse = 0.0\nsamples = 1\nvalue = 4120.0"] ;
816 -> 817 ;
818 [label="X[4] <= 2.5\nmse = 11449.0\nsamples = 2\nvalue = 3748.0"] ;
816 -> 818 ;
819 [label="mse = 0.0\nsamples = 1\nvalue = 3641.0"] ;
818 -> 819 ;
820 [label="mse = 0.0\nsamples = 1\nvalue = 3855.0"] ;
818 -> 820 ;
821 [label="X[4] <= 4.5\nmse = 99540.25\nsamples = 2\nvalue = 3228.5"] ;
815 -> 821 ;
822 [label="mse = 0.0\nsamples = 1\nvalue = 2913.0"] ;
821 -> 822 ;
823 [label="mse = 0.0\nsamples = 1\nvalue = 3544.0"] ;
821 -> 823 ;
824 [label="X[8] <= 0.901\nmse = 49062.25\nsamples = 2\nvalue = 4573.5"] ;
814 -> 824 ;
825 [label="mse = 0.0\nsamples = 1\nvalue = 4352.0"] ;
824 -> 825 ;
826 [label="mse = 0.0\nsamples = 1\nvalue = 4795.0"] ;
824 -> 826 ;
827 [label="mse = 0.0\nsamples = 1\nvalue = 3351.0"] ;
789 -> 827 ;
828 [label="mse = 0.0\nsamples = 1\nvalue = 2395.0"] ;
772 -> 828 ;
829 [label="mse = 0.0\nsamples = 1\nvalue = 1115.0"] ;
771 -> 829 ;
830 [label="X[7] <= 0.459\nmse = 459598.579\nsamples = 30\nvalue = 3615.767"] ;
572 -> 830 ;
831 [label="X[8] <= 0.541\nmse = 181254.694\nsamples = 7\nvalue = 3130.143"] ;
830 -> 831 ;
832 [label="X[9] <= 0.293\nmse = 182.25\nsamples = 2\nvalue = 3730.5"] ;
831 -> 832 ;
833 [label="mse = 0.0\nsamples = 1\nvalue = 3717.0"] ;
832 -> 833 ;
834 [label="mse = 0.0\nsamples = 1\nvalue = 3744.0"] ;
832 -> 834 ;
835 [label="X[4] <= 3.5\nmse = 51843.6\nsamples = 5\nvalue = 2890.0"] ;
831 -> 835 ;
836 [label="X[7] <= 0.45\nmse = 20488.222\nsamples = 3\nvalue = 2727.667"] ;
835 -> 836 ;
837 [label="X[7] <= 0.441\nmse = 4692.25\nsamples = 2\nvalue = 2634.5"] ;
836 -> 837 ;
838 [label="mse = 0.0\nsamples = 1\nvalue = 2566.0"] ;
837 -> 838 ;
839 [label="mse = 0.0\nsamples = 1\nvalue = 2703.0"] ;
837 -> 839 ;
840 [label="mse = 0.0\nsamples = 1\nvalue = 2914.0"] ;
836 -> 840 ;
841 [label="X[8] <= 0.637\nmse = 56.25\nsamples = 2\nvalue = 3133.5"] ;
835 -> 841 ;
842 [label="mse = 0.0\nsamples = 1\nvalue = 3141.0"] ;
841 -> 842 ;
843 [label="mse = 0.0\nsamples = 1\nvalue = 3126.0"] ;
841 -> 843 ;
844 [label="X[9] <= 0.347\nmse = 450693.028\nsamples = 23\nvalue = 3763.565"] ;
830 -> 844 ;
845 [label="X[8] <= 0.514\nmse = 449875.324\nsamples = 21\nvalue = 3825.238"] ;
844 -> 845 ;
846 [label="X[8] <= 0.48\nmse = 215561.556\nsamples = 3\nvalue = 4698.667"] ;
845 -> 846 ;
847 [label="X[9] <= 0.283\nmse = 41209.0\nsamples = 2\nvalue = 4392.0"] ;
846 -> 847 ;
848 [label="mse = 0.0\nsamples = 1\nvalue = 4595.0"] ;
847 -> 848 ;
849 [label="mse = 0.0\nsamples = 1\nvalue = 4189.0"] ;
847 -> 849 ;
850 [label="mse = 0.0\nsamples = 1\nvalue = 5312.0"] ;
846 -> 850 ;
851 [label="X[7] <= 0.521\nmse = 340590.333\nsamples = 18\nvalue = 3679.667"] ;
845 -> 851 ;
852 [label="X[9] <= 0.253\nmse = 324203.75\nsamples = 8\nvalue = 3303.5"] ;
851 -> 852 ;
853 [label="X[8] <= 0.721\nmse = 107395.265\nsamples = 7\nvalue = 3484.857"] ;
852 -> 853 ;
854 [label="X[7] <= 0.461\nmse = 25554.16\nsamples = 5\nvalue = 3298.2"] ;
853 -> 854 ;
855 [label="mse = 0.0\nsamples = 1\nvalue = 3071.0"] ;
854 -> 855 ;
856 [label="X[4] <= 1.5\nmse = 15811.5\nsamples = 4\nvalue = 3355.0"] ;
854 -> 856 ;
857 [label="X[7] <= 0.488\nmse = 2070.25\nsamples = 2\nvalue = 3474.5"] ;
856 -> 857 ;
858 [label="mse = 0.0\nsamples = 1\nvalue = 3520.0"] ;
857 -> 858 ;
859 [label="mse = 0.0\nsamples = 1\nvalue = 3429.0"] ;
857 -> 859 ;
860 [label="X[8] <= 0.603\nmse = 992.25\nsamples = 2\nvalue = 3235.5"] ;
856 -> 860 ;
861 [label="mse = 0.0\nsamples = 1\nvalue = 3267.0"] ;
860 -> 861 ;
862 [label="mse = 0.0\nsamples = 1\nvalue = 3204.0"] ;
860 -> 862 ;
863 [label="X[8] <= 0.815\nmse = 7140.25\nsamples = 2\nvalue = 3951.5"] ;
853 -> 863 ;
864 [label="mse = 0.0\nsamples = 1\nvalue = 3867.0"] ;
863 -> 864 ;
865 [label="mse = 0.0\nsamples = 1\nvalue = 4036.0"] ;
863 -> 865 ;
866 [label="mse = 0.0\nsamples = 1\nvalue = 2034.0"] ;
852 -> 866 ;
867 [label="X[0] <= 1.5\nmse = 149937.64\nsamples = 10\nvalue = 3980.6"] ;
851 -> 867 ;
868 [label="mse = 0.0\nsamples = 1\nvalue = 3239.0"] ;
867 -> 868 ;
869 [label="X[7] <= 0.588\nmse = 98699.778\nsamples = 9\nvalue = 4063.0"] ;
867 -> 869 ;
870 [label="X[8] <= 0.638\nmse = 19080.222\nsamples = 3\nvalue = 4290.667"] ;
869 -> 870 ;
871 [label="mse = 0.0\nsamples = 1\nvalue = 4486.0"] ;
870 -> 871 ;
872 [label="X[5] <= 0.5\nmse = 4.0\nsamples = 2\nvalue = 4193.0"] ;
870 -> 872 ;
873 [label="mse = 0.0\nsamples = 1\nvalue = 4191.0"] ;
872 -> 873 ;
874 [label="mse = 0.0\nsamples = 1\nvalue = 4195.0"] ;
872 -> 874 ;
875 [label="X[7] <= 0.601\nmse = 99635.472\nsamples = 6\nvalue = 3949.167"] ;
869 -> 875 ;
876 [label="X[4] <= 2.0\nmse = 88804.0\nsamples = 2\nvalue = 3646.0"] ;
875 -> 876 ;
877 [label="mse = 0.0\nsamples = 1\nvalue = 3348.0"] ;
876 -> 877 ;
878 [label="mse = 0.0\nsamples = 1\nvalue = 3944.0"] ;
876 -> 878 ;
879 [label="X[9] <= 0.324\nmse = 36118.688\nsamples = 4\nvalue = 4100.75"] ;
875 -> 879 ;
880 [label="X[7] <= 0.619\nmse = 8358.0\nsamples = 3\nvalue = 4001.0"] ;
879 -> 880 ;
881 [label="X[7] <= 0.612\nmse = 56.25\nsamples = 2\nvalue = 4065.5"] ;
880 -> 881 ;
882 [label="mse = 0.0\nsamples = 1\nvalue = 4073.0"] ;
881 -> 882 ;
883 [label="mse = 0.0\nsamples = 1\nvalue = 4058.0"] ;
881 -> 883 ;
884 [label="mse = 0.0\nsamples = 1\nvalue = 3872.0"] ;
880 -> 884 ;
885 [label="mse = 0.0\nsamples = 1\nvalue = 4400.0"] ;
879 -> 885 ;
886 [label="X[5] <= 0.5\nmse = 1.0\nsamples = 2\nvalue = 3116.0"] ;
844 -> 886 ;
887 [label="mse = 0.0\nsamples = 1\nvalue = 3117.0"] ;
886 -> 887 ;
888 [label="mse = 0.0\nsamples = 1\nvalue = 3115.0"] ;
886 -> 888 ;
889 [label="X[4] <= 2.5\nmse = 128962.5\nsamples = 8\nvalue = 2320.5"] ;
571 -> 889 ;
890 [label="X[8] <= 0.93\nmse = 5080.222\nsamples = 3\nvalue = 2689.667"] ;
889 -> 890 ;
891 [label="X[7] <= 0.494\nmse = 756.25\nsamples = 2\nvalue = 2737.5"] ;
890 -> 891 ;
892 [label="mse = 0.0\nsamples = 1\nvalue = 2765.0"] ;
891 -> 892 ;
893 [label="mse = 0.0\nsamples = 1\nvalue = 2710.0"] ;
891 -> 893 ;
894 [label="mse = 0.0\nsamples = 1\nvalue = 2594.0"] ;
890 -> 894 ;
895 [label="X[9] <= 0.218\nmse = 72459.2\nsamples = 5\nvalue = 2099.0"] ;
889 -> 895 ;
896 [label="X[9] <= 0.117\nmse = 6264.667\nsamples = 3\nvalue = 1885.0"] ;
895 -> 896 ;
897 [label="mse = 0.0\nsamples = 1\nvalue = 1996.0"] ;
896 -> 897 ;
898 [label="X[0] <= 3.5\nmse = 156.25\nsamples = 2\nvalue = 1829.5"] ;
896 -> 898 ;
899 [label="mse = 0.0\nsamples = 1\nvalue = 1842.0"] ;
898 -> 899 ;
900 [label="mse = 0.0\nsamples = 1\nvalue = 1817.0"] ;
898 -> 900 ;
901 [label="X[8] <= 0.901\nmse = 16.0\nsamples = 2\nvalue = 2420.0"] ;
895 -> 901 ;
902 [label="mse = 0.0\nsamples = 1\nvalue = 2424.0"] ;
901 -> 902 ;
903 [label="mse = 0.0\nsamples = 1\nvalue = 2416.0"] ;
901 -> 903 ;
904 [label="X[8] <= 0.832\nmse = 1230966.341\nsamples = 227\nvalue = 6608.194"] ;
570 -> 904 ;
905 [label="X[0] <= 2.5\nmse = 893302.284\nsamples = 216\nvalue = 6726.176"] ;
904 -> 905 ;
906 [label="X[4] <= 4.5\nmse = 973266.435\nsamples = 90\nvalue = 6376.744"] ;
905 -> 906 ;
907 [label="X[7] <= 0.587\nmse = 784976.689\nsamples = 68\nvalue = 6134.676"] ;
906 -> 907 ;
908 [label="X[9] <= 0.165\nmse = 657322.837\nsamples = 40\nvalue = 5820.75"] ;
907 -> 908 ;
909 [label="X[9] <= 0.118\nmse = 93632.196\nsamples = 15\nvalue = 6372.267"] ;
908 -> 909 ;
910 [label="X[2] <= 2.5\nmse = 88221.714\nsamples = 7\nvalue = 6587.0"] ;
909 -> 910 ;
911 [label="mse = 0.0\nsamples = 1\nvalue = 7055.0"] ;
910 -> 911 ;
912 [label="X[9] <= 0.117\nmse = 60337.333\nsamples = 6\nvalue = 6509.0"] ;
910 -> 912 ;
913 [label="X[8] <= 0.452\nmse = 40954.24\nsamples = 5\nvalue = 6436.6"] ;
912 -> 913 ;
914 [label="mse = 0.0\nsamples = 1\nvalue = 6772.0"] ;
913 -> 914 ;
915 [label="X[9] <= 0.078\nmse = 16038.688\nsamples = 4\nvalue = 6352.75"] ;
913 -> 915 ;
916 [label="mse = 0.0\nsamples = 1\nvalue = 6565.0"] ;
915 -> 916 ;
917 [label="X[9] <= 0.102\nmse = 1362.667\nsamples = 3\nvalue = 6282.0"] ;
915 -> 917 ;
918 [label="mse = 0.0\nsamples = 1\nvalue = 6230.0"] ;
917 -> 918 ;
919 [label="X[7] <= 0.515\nmse = 16.0\nsamples = 2\nvalue = 6308.0"] ;
917 -> 919 ;
920 [label="mse = 0.0\nsamples = 1\nvalue = 6304.0"] ;
919 -> 920 ;
921 [label="mse = 0.0\nsamples = 1\nvalue = 6312.0"] ;
919 -> 921 ;
922 [label="mse = 0.0\nsamples = 1\nvalue = 6871.0"] ;
912 -> 922 ;
923 [label="X[8] <= 0.803\nmse = 22716.484\nsamples = 8\nvalue = 6184.375"] ;
909 -> 923 ;
924 [label="X[6] <= 1.5\nmse = 10559.222\nsamples = 6\nvalue = 6248.333"] ;
923 -> 924 ;
925 [label="X[8] <= 0.654\nmse = 306.25\nsamples = 4\nvalue = 6177.5"] ;
924 -> 925 ;
926 [label="X[7] <= 0.517\nmse = 4.0\nsamples = 2\nvalue = 6194.0"] ;
925 -> 926 ;
927 [label="mse = 0.0\nsamples = 1\nvalue = 6196.0"] ;
926 -> 927 ;
928 [label="mse = 0.0\nsamples = 1\nvalue = 6192.0"] ;
926 -> 928 ;
929 [label="X[8] <= 0.763\nmse = 64.0\nsamples = 2\nvalue = 6161.0"] ;
925 -> 929 ;
930 [label="mse = 0.0\nsamples = 1\nvalue = 6153.0"] ;
929 -> 930 ;
931 [label="mse = 0.0\nsamples = 1\nvalue = 6169.0"] ;
929 -> 931 ;
932 [label="X[7] <= 0.561\nmse = 961.0\nsamples = 2\nvalue = 6390.0"] ;
924 -> 932 ;
933 [label="mse = 0.0\nsamples = 1\nvalue = 6421.0"] ;
932 -> 933 ;
934 [label="mse = 0.0\nsamples = 1\nvalue = 6359.0"] ;
932 -> 934 ;
935 [label="X[9] <= 0.124\nmse = 10100.25\nsamples = 2\nvalue = 5992.5"] ;
923 -> 935 ;
936 [label="mse = 0.0\nsamples = 1\nvalue = 6093.0"] ;
935 -> 936 ;
937 [label="mse = 0.0\nsamples = 1\nvalue = 5892.0"] ;
935 -> 937 ;
938 [label="X[8] <= 0.784\nmse = 703533.414\nsamples = 25\nvalue = 5489.84"] ;
908 -> 938 ;
939 [label="X[9] <= 0.209\nmse = 428777.776\nsamples = 24\nvalue = 5600.125"] ;
938 -> 939 ;
940 [label="X[8] <= 0.479\nmse = 351436.859\nsamples = 8\nvalue = 5179.875"] ;
939 -> 940 ;
941 [label="mse = 0.0\nsamples = 1\nvalue = 6436.0"] ;
940 -> 941 ;
942 [label="X[4] <= 2.0\nmse = 144033.959\nsamples = 7\nvalue = 5000.429"] ;
940 -> 942 ;
943 [label="X[7] <= 0.465\nmse = 37600.667\nsamples = 3\nvalue = 5323.0"] ;
942 -> 943 ;
944 [label="mse = 0.0\nsamples = 1\nvalue = 5572.0"] ;
943 -> 944 ;
945 [label="X[2] <= 2.5\nmse = 9900.25\nsamples = 2\nvalue = 5198.5"] ;
943 -> 945 ;
946 [label="mse = 0.0\nsamples = 1\nvalue = 5099.0"] ;
945 -> 946 ;
947 [label="mse = 0.0\nsamples = 1\nvalue = 5298.0"] ;
945 -> 947 ;
948 [label="X[4] <= 3.5\nmse = 87290.25\nsamples = 4\nvalue = 4758.5"] ;
942 -> 948 ;
949 [label="X[9] <= 0.178\nmse = 11236.0\nsamples = 2\nvalue = 4473.0"] ;
948 -> 949 ;
950 [label="mse = 0.0\nsamples = 1\nvalue = 4367.0"] ;
949 -> 950 ;
951 [label="mse = 0.0\nsamples = 1\nvalue = 4579.0"] ;
949 -> 951 ;
952 [label="X[6] <= 1.5\nmse = 324.0\nsamples = 2\nvalue = 5044.0"] ;
948 -> 952 ;
953 [label="mse = 0.0\nsamples = 1\nvalue = 5062.0"] ;
952 -> 953 ;
954 [label="mse = 0.0\nsamples = 1\nvalue = 5026.0"] ;
952 -> 954 ;
955 [label="X[9] <= 0.213\nmse = 334990.688\nsamples = 16\nvalue = 5810.25"] ;
939 -> 955 ;
956 [label="mse = 0.0\nsamples = 1\nvalue = 7001.0"] ;
955 -> 956 ;
957 [label="X[9] <= 0.218\nmse = 256495.982\nsamples = 15\nvalue = 5730.867"] ;
955 -> 957 ;
958 [label="mse = 0.0\nsamples = 1\nvalue = 4717.0"] ;
957 -> 958 ;
959 [label="X[0] <= 1.5\nmse = 196149.347\nsamples = 14\nvalue = 5803.286"] ;
957 -> 959 ;
960 [label="X[7] <= 0.546\nmse = 122704.222\nsamples = 3\nvalue = 5406.333"] ;
959 -> 960 ;
961 [label="X[7] <= 0.507\nmse = 38416.0\nsamples = 2\nvalue = 5186.0"] ;
960 -> 961 ;
962 [label="mse = 0.0\nsamples = 1\nvalue = 4990.0"] ;
961 -> 962 ;
963 [label="mse = 0.0\nsamples = 1\nvalue = 5382.0"] ;
961 -> 963 ;
964 [label="mse = 0.0\nsamples = 1\nvalue = 5847.0"] ;
960 -> 964 ;
965 [label="X[4] <= 3.5\nmse = 161485.702\nsamples = 11\nvalue = 5911.545"] ;
959 -> 965 ;
966 [label="X[5] <= 0.5\nmse = 92363.609\nsamples = 8\nvalue = 5733.125"] ;
965 -> 966 ;
967 [label="mse = 0.0\nsamples = 1\nvalue = 5169.0"] ;
966 -> 967 ;
968 [label="X[9] <= 0.24\nmse = 53601.347\nsamples = 7\nvalue = 5813.714"] ;
966 -> 968 ;
969 [label="mse = 0.0\nsamples = 1\nvalue = 6273.0"] ;
968 -> 969 ;
970 [label="mse = 21518.139\nsamples = 6\nvalue = 5737.167"] ;
968 -> 970 ;
971 [label="X[9] <= 0.317\nmse = 34546.889\nsamples = 3\nvalue = 6387.333"] ;
965 -> 971 ;
972 [label="X[7] <= 0.47\nmse = 3306.25\nsamples = 2\nvalue = 6514.5"] ;
971 -> 972 ;
973 [label="mse = 0.0\nsamples = 1\nvalue = 6457.0"] ;
972 -> 973 ;
974 [label="mse = 0.0\nsamples = 1\nvalue = 6572.0"] ;
972 -> 974 ;
975 [label="mse = 0.0\nsamples = 1\nvalue = 6133.0"] ;
971 -> 975 ;
976 [label="mse = 0.0\nsamples = 1\nvalue = 2843.0"] ;
938 -> 976 ;
977 [label="X[8] <= 0.77\nmse = 625431.765\nsamples = 28\nvalue = 6583.143"] ;
907 -> 977 ;
978 [label="X[8] <= 0.573\nmse = 306117.862\nsamples = 25\nvalue = 6783.76"] ;
977 -> 978 ;
979 [label="X[9] <= 0.264\nmse = 147155.339\nsamples = 11\nvalue = 7103.455"] ;
978 -> 979 ;
980 [label="X[7] <= 0.703\nmse = 87971.859\nsamples = 8\nvalue = 7259.875"] ;
979 -> 980 ;
981 [label="X[9] <= 0.19\nmse = 29016.245\nsamples = 7\nvalue = 7354.429"] ;
980 -> 981 ;
982 [label="X[9] <= 0.171\nmse = 5402.25\nsamples = 2\nvalue = 7567.5"] ;
981 -> 982 ;
983 [label="mse = 0.0\nsamples = 1\nvalue = 7494.0"] ;
982 -> 983 ;
984 [label="mse = 0.0\nsamples = 1\nvalue = 7641.0"] ;
982 -> 984 ;
985 [label="X[4] <= 2.0\nmse = 13038.16\nsamples = 5\nvalue = 7269.2"] ;
981 -> 985 ;
986 [label="X[9] <= 0.24\nmse = 2.25\nsamples = 2\nvalue = 7130.5"] ;
985 -> 986 ;
987 [label="mse = 0.0\nsamples = 1\nvalue = 7132.0"] ;
986 -> 987 ;
988 [label="mse = 0.0\nsamples = 1\nvalue = 7129.0"] ;
986 -> 988 ;
989 [label="X[8] <= 0.506\nmse = 353.556\nsamples = 3\nvalue = 7361.667"] ;
985 -> 989 ;
990 [label="mse = 0.0\nsamples = 1\nvalue = 7338.0"] ;
989 -> 990 ;
991 [label="X[9] <= 0.242\nmse = 110.25\nsamples = 2\nvalue = 7373.5"] ;
989 -> 991 ;
992 [label="mse = 0.0\nsamples = 1\nvalue = 7384.0"] ;
991 -> 992 ;
993 [label="mse = 0.0\nsamples = 1\nvalue = 7363.0"] ;
991 -> 993 ;
994 [label="mse = 0.0\nsamples = 1\nvalue = 6598.0"] ;
980 -> 994 ;
995 [label="X[8] <= 0.524\nmse = 65741.556\nsamples = 3\nvalue = 6686.333"] ;
979 -> 995 ;
996 [label="X[9] <= 0.279\nmse = 23562.25\nsamples = 2\nvalue = 6844.5"] ;
995 -> 996 ;
997 [label="mse = 0.0\nsamples = 1\nvalue = 6691.0"] ;
996 -> 997 ;
998 [label="mse = 0.0\nsamples = 1\nvalue = 6998.0"] ;
996 -> 998 ;
999 [label="mse = 0.0\nsamples = 1\nvalue = 6370.0"] ;
995 -> 999 ;
1000 [label="X[4] <= 2.5\nmse = 287617.673\nsamples = 14\nvalue = 6532.571"] ;
978 -> 1000 ;
1001 [label="X[7] <= 0.602\nmse = 191823.556\nsamples = 9\nvalue = 6308.333"] ;
1000 -> 1001 ;
1002 [label="mse = 0.0\nsamples = 1\nvalue = 6978.0"] ;
1001 -> 1002 ;
1003 [label="X[8] <= 0.687\nmse = 152737.734\nsamples = 8\nvalue = 6224.625"] ;
1001 -> 1003 ;
1004 [label="X[8] <= 0.624\nmse = 114269.04\nsamples = 5\nvalue = 6061.6"] ;
1003 -> 1004 ;
1005 [label="X[5] <= 0.5\nmse = 74529.0\nsamples = 2\nvalue = 6391.0"] ;
1004 -> 1005 ;
1006 [label="mse = 0.0\nsamples = 1\nvalue = 6118.0"] ;
1005 -> 1006 ;
1007 [label="mse = 0.0\nsamples = 1\nvalue = 6664.0"] ;
1005 -> 1007 ;
1008 [label="X[5] <= 0.5\nmse = 20202.0\nsamples = 3\nvalue = 5842.0"] ;
1004 -> 1008 ;
1009 [label="mse = 0.0\nsamples = 1\nvalue = 6043.0"] ;
1008 -> 1009 ;
1010 [label="X[8] <= 0.672\nmse = 2.25\nsamples = 2\nvalue = 5741.5"] ;
1008 -> 1010 ;
1011 [label="mse = 0.0\nsamples = 1\nvalue = 5740.0"] ;
1010 -> 1011 ;
1012 [label="mse = 0.0\nsamples = 1\nvalue = 5743.0"] ;
1010 -> 1012 ;
1013 [label="X[6] <= 1.5\nmse = 98731.556\nsamples = 3\nvalue = 6496.333"] ;
1003 -> 1013 ;
1014 [label="X[7] <= 0.689\nmse = 13689.0\nsamples = 2\nvalue = 6708.0"] ;
1013 -> 1014 ;
1015 [label="mse = 0.0\nsamples = 1\nvalue = 6825.0"] ;
1014 -> 1015 ;
1016 [label="mse = 0.0\nsamples = 1\nvalue = 6591.0"] ;
1014 -> 1016 ;
1017 [label="mse = 0.0\nsamples = 1\nvalue = 6073.0"] ;
1013 -> 1017 ;
1018 [label="X[9] <= 0.118\nmse = 206622.16\nsamples = 5\nvalue = 6936.2"] ;
1000 -> 1018 ;
1019 [label="mse = 0.0\nsamples = 1\nvalue = 6211.0"] ;
1018 -> 1019 ;
1020 [label="X[4] <= 3.5\nmse = 93929.25\nsamples = 4\nvalue = 7117.5"] ;
1018 -> 1020 ;
1021 [label="X[6] <= 1.5\nmse = 71569.556\nsamples = 3\nvalue = 7233.333"] ;
1020 -> 1021 ;
1022 [label="X[8] <= 0.64\nmse = 2.25\nsamples = 2\nvalue = 7422.5"] ;
1021 -> 1022 ;
1023 [label="mse = 0.0\nsamples = 1\nvalue = 7421.0"] ;
1022 -> 1023 ;
1024 [label="mse = 0.0\nsamples = 1\nvalue = 7424.0"] ;
1022 -> 1024 ;
1025 [label="mse = 0.0\nsamples = 1\nvalue = 6855.0"] ;
1021 -> 1025 ;
1026 [label="mse = 0.0\nsamples = 1\nvalue = 6770.0"] ;
1020 -> 1026 ;
1027 [label="X[9] <= 0.19\nmse = 156040.222\nsamples = 3\nvalue = 4911.333"] ;
977 -> 1027 ;
1028 [label="X[8] <= 0.785\nmse = 5256.25\nsamples = 2\nvalue = 5187.5"] ;
1027 -> 1028 ;
1029 [label="mse = 0.0\nsamples = 1\nvalue = 5260.0"] ;
1028 -> 1029 ;
1030 [label="mse = 0.0\nsamples = 1\nvalue = 5115.0"] ;
1028 -> 1030 ;
1031 [label="mse = 0.0\nsamples = 1\nvalue = 4359.0"] ;
1027 -> 1031 ;
1032 [label="X[9] <= 0.237\nmse = 814316.862\nsamples = 22\nvalue = 7124.955"] ;
906 -> 1032 ;
1033 [label="X[9] <= 0.12\nmse = 366838.395\nsamples = 18\nvalue = 7383.778"] ;
1032 -> 1033 ;
1034 [label="X[0] <= 1.5\nmse = 54562.667\nsamples = 3\nvalue = 8164.0"] ;
1033 -> 1034 ;
1035 [label="mse = 0.0\nsamples = 1\nvalue = 7836.0"] ;
1034 -> 1035 ;
1036 [label="X[2] <= 2.5\nmse = 1156.0\nsamples = 2\nvalue = 8328.0"] ;
1034 -> 1036 ;
1037 [label="mse = 0.0\nsamples = 1\nvalue = 8294.0"] ;
1036 -> 1037 ;
1038 [label="mse = 0.0\nsamples = 1\nvalue = 8362.0"] ;
1036 -> 1038 ;
1039 [label="X[8] <= 0.714\nmse = 283194.329\nsamples = 15\nvalue = 7227.733"] ;
1033 -> 1039 ;
1040 [label="X[8] <= 0.423\nmse = 180697.157\nsamples = 11\nvalue = 7451.545"] ;
1039 -> 1040 ;
1041 [label="X[7] <= 0.488\nmse = 99856.0\nsamples = 2\nvalue = 6714.0"] ;
1040 -> 1041 ;
1042 [label="mse = 0.0\nsamples = 1\nvalue = 6398.0"] ;
1041 -> 1042 ;
1043 [label="mse = 0.0\nsamples = 1\nvalue = 7030.0"] ;
1041 -> 1043 ;
1044 [label="X[7] <= 0.574\nmse = 50916.025\nsamples = 9\nvalue = 7615.444"] ;
1040 -> 1044 ;
1045 [label="X[8] <= 0.609\nmse = 15445.25\nsamples = 4\nvalue = 7454.5"] ;
1044 -> 1045 ;
1046 [label="X[8] <= 0.513\nmse = 8566.889\nsamples = 3\nvalue = 7509.333"] ;
1045 -> 1046 ;
1047 [label="X[2] <= 2.5\nmse = 240.25\nsamples = 2\nvalue = 7444.5"] ;
1046 -> 1047 ;
1048 [label="mse = 0.0\nsamples = 1\nvalue = 7429.0"] ;
1047 -> 1048 ;
1049 [label="mse = 0.0\nsamples = 1\nvalue = 7460.0"] ;
1047 -> 1049 ;
1050 [label="mse = 0.0\nsamples = 1\nvalue = 7639.0"] ;
1046 -> 1050 ;
1051 [label="mse = 0.0\nsamples = 1\nvalue = 7290.0"] ;
1045 -> 1051 ;
1052 [label="X[7] <= 0.608\nmse = 41992.16\nsamples = 5\nvalue = 7744.2"] ;
1044 -> 1052 ;
1053 [label="mse = 0.0\nsamples = 1\nvalue = 8120.0"] ;
1052 -> 1053 ;
1054 [label="X[8] <= 0.452\nmse = 8357.188\nsamples = 4\nvalue = 7650.25"] ;
1052 -> 1054 ;
1055 [label="mse = 0.0\nsamples = 1\nvalue = 7498.0"] ;
1054 -> 1055 ;
1056 [label="X[9] <= 0.176\nmse = 840.667\nsamples = 3\nvalue = 7701.0"] ;
1054 -> 1056 ;
1057 [label="X[5] <= 0.5\nmse = 289.0\nsamples = 2\nvalue = 7719.0"] ;
1056 -> 1057 ;
1058 [label="mse = 0.0\nsamples = 1\nvalue = 7702.0"] ;
1057 -> 1058 ;
1059 [label="mse = 0.0\nsamples = 1\nvalue = 7736.0"] ;
1057 -> 1059 ;
1060 [label="mse = 0.0\nsamples = 1\nvalue = 7665.0"] ;
1056 -> 1060 ;
1061 [label="X[8] <= 0.741\nmse = 48489.188\nsamples = 4\nvalue = 6612.25"] ;
1039 -> 1061 ;
1062 [label="X[7] <= 0.66\nmse = 14400.0\nsamples = 2\nvalue = 6416.0"] ;
1061 -> 1062 ;
1063 [label="mse = 0.0\nsamples = 1\nvalue = 6296.0"] ;
1062 -> 1063 ;
1064 [label="mse = 0.0\nsamples = 1\nvalue = 6536.0"] ;
1062 -> 1064 ;
1065 [label="X[5] <= 0.5\nmse = 5550.25\nsamples = 2\nvalue = 6808.5"] ;
1061 -> 1065 ;
1066 [label="mse = 0.0\nsamples = 1\nvalue = 6883.0"] ;
1065 -> 1066 ;
1067 [label="mse = 0.0\nsamples = 1\nvalue = 6734.0"] ;
1065 -> 1067 ;
1068 [label="X[6] <= 1.5\nmse = 1169980.688\nsamples = 4\nvalue = 5960.25"] ;
1032 -> 1068 ;
1069 [label="X[9] <= 0.316\nmse = 66282.889\nsamples = 3\nvalue = 6571.333"] ;
1068 -> 1069 ;
1070 [label="X[8] <= 0.469\nmse = 13572.25\nsamples = 2\nvalue = 6740.5"] ;
1069 -> 1070 ;
1071 [label="mse = 0.0\nsamples = 1\nvalue = 6857.0"] ;
1070 -> 1071 ;
1072 [label="mse = 0.0\nsamples = 1\nvalue = 6624.0"] ;
1070 -> 1072 ;
1073 [label="mse = 0.0\nsamples = 1\nvalue = 6233.0"] ;
1069 -> 1073 ;
1074 [label="mse = 0.0\nsamples = 1\nvalue = 4127.0"] ;
1068 -> 1074 ;
1075 [label="X[7] <= 0.765\nmse = 686671.939\nsamples = 126\nvalue = 6975.77"] ;
905 -> 1075 ;
1076 [label="X[8] <= 0.694\nmse = 560757.674\nsamples = 106\nvalue = 7131.792"] ;
1075 -> 1076 ;
1077 [label="X[7] <= 0.697\nmse = 302305.102\nsamples = 73\nvalue = 7387.342"] ;
1076 -> 1077 ;
1078 [label="X[7] <= 0.528\nmse = 292521.654\nsamples = 41\nvalue = 7587.171"] ;
1077 -> 1078 ;
1079 [label="X[9] <= 0.257\nmse = 330585.467\nsamples = 13\nvalue = 7152.385"] ;
1078 -> 1079 ;
1080 [label="X[4] <= 1.5\nmse = 151546.975\nsamples = 11\nvalue = 7328.455"] ;
1079 -> 1080 ;
1081 [label="X[8] <= 0.501\nmse = 57199.2\nsamples = 5\nvalue = 6997.0"] ;
1080 -> 1081 ;
1082 [label="mse = 0.0\nsamples = 1\nvalue = 7436.0"] ;
1081 -> 1082 ;
1083 [label="X[9] <= 0.086\nmse = 11273.688\nsamples = 4\nvalue = 6887.25"] ;
1081 -> 1083 ;
1084 [label="mse = 0.0\nsamples = 1\nvalue = 7058.0"] ;
1083 -> 1084 ;
1085 [label="X[7] <= 0.524\nmse = 2073.556\nsamples = 3\nvalue = 6830.333"] ;
1083 -> 1085 ;
1086 [label="X[8] <= 0.58\nmse = 529.0\nsamples = 2\nvalue = 6801.0"] ;
1085 -> 1086 ;
1087 [label="mse = 0.0\nsamples = 1\nvalue = 6824.0"] ;
1086 -> 1087 ;
1088 [label="mse = 0.0\nsamples = 1\nvalue = 6778.0"] ;
1086 -> 1088 ;
1089 [label="mse = 0.0\nsamples = 1\nvalue = 6889.0"] ;
1085 -> 1089 ;
1090 [label="X[5] <= 0.5\nmse = 62325.222\nsamples = 6\nvalue = 7604.667"] ;
1080 -> 1090 ;
1091 [label="mse = 0.0\nsamples = 1\nvalue = 8090.0"] ;
1090 -> 1091 ;
1092 [label="X[9] <= 0.211\nmse = 18258.64\nsamples = 5\nvalue = 7507.6"] ;
1090 -> 1092 ;
1093 [label="X[9] <= 0.185\nmse = 6918.5\nsamples = 4\nvalue = 7564.0"] ;
1092 -> 1093 ;
1094 [label="X[9] <= 0.141\nmse = 2056.222\nsamples = 3\nvalue = 7521.667"] ;
1093 -> 1094 ;
1095 [label="mse = 0.0\nsamples = 1\nvalue = 7461.0"] ;
1094 -> 1095 ;
1096 [label="X[4] <= 3.0\nmse = 324.0\nsamples = 2\nvalue = 7552.0"] ;
1094 -> 1096 ;
1097 [label="mse = 0.0\nsamples = 1\nvalue = 7534.0"] ;
1096 -> 1097 ;
1098 [label="mse = 0.0\nsamples = 1\nvalue = 7570.0"] ;
1096 -> 1098 ;
1099 [label="mse = 0.0\nsamples = 1\nvalue = 7691.0"] ;
1093 -> 1099 ;
1100 [label="mse = 0.0\nsamples = 1\nvalue = 7282.0"] ;
1092 -> 1100 ;
1101 [label="X[5] <= 0.5\nmse = 207025.0\nsamples = 2\nvalue = 6184.0"] ;
1079 -> 1101 ;
1102 [label="mse = 0.0\nsamples = 1\nvalue = 6639.0"] ;
1101 -> 1102 ;
1103 [label="mse = 0.0\nsamples = 1\nvalue = 5729.0"] ;
1101 -> 1103 ;
1104 [label="X[4] <= 4.5\nmse = 146331.606\nsamples = 28\nvalue = 7789.036"] ;
1078 -> 1104 ;
1105 [label="X[8] <= 0.639\nmse = 66656.377\nsamples = 19\nvalue = 7623.789"] ;
1104 -> 1105 ;
1106 [label="X[9] <= 0.23\nmse = 42648.116\nsamples = 15\nvalue = 7707.467"] ;
1105 -> 1106 ;
1107 [label="X[9] <= 0.224\nmse = 43158.017\nsamples = 11\nvalue = 7761.273"] ;
1106 -> 1107 ;
1108 [label="X[9] <= 0.219\nmse = 23614.61\nsamples = 10\nvalue = 7714.7"] ;
1107 -> 1108 ;
1109 [label="X[4] <= 1.0\nmse = 21673.111\nsamples = 9\nvalue = 7693.333"] ;
1108 -> 1109 ;
1110 [label="mse = 0.0\nsamples = 1\nvalue = 7333.0"] ;
1109 -> 1110 ;
1111 [label="X[9] <= 0.174\nmse = 6123.484\nsamples = 8\nvalue = 7738.375"] ;
1109 -> 1111 ;
1112 [label="mse = 3452.245\nsamples = 7\nvalue = 7759.429"] ;
1111 -> 1112 ;
1113 [label="mse = 0.0\nsamples = 1\nvalue = 7591.0"] ;
1111 -> 1113 ;
1114 [label="mse = 0.0\nsamples = 1\nvalue = 7907.0"] ;
1108 -> 1114 ;
1115 [label="mse = 0.0\nsamples = 1\nvalue = 8227.0"] ;
1107 -> 1115 ;
1116 [label="X[8] <= 0.6\nmse = 11390.25\nsamples = 4\nvalue = 7559.5"] ;
1106 -> 1116 ;
1117 [label="X[9] <= 0.303\nmse = 1808.222\nsamples = 3\nvalue = 7501.667"] ;
1116 -> 1117 ;
1118 [label="X[8] <= 0.537\nmse = 42.25\nsamples = 2\nvalue = 7531.5"] ;
1117 -> 1118 ;
1119 [label="mse = 0.0\nsamples = 1\nvalue = 7525.0"] ;
1118 -> 1119 ;
1120 [label="mse = 0.0\nsamples = 1\nvalue = 7538.0"] ;
1118 -> 1120 ;
1121 [label="mse = 0.0\nsamples = 1\nvalue = 7442.0"] ;
1117 -> 1121 ;
1122 [label="mse = 0.0\nsamples = 1\nvalue = 7733.0"] ;
1116 -> 1122 ;
1123 [label="X[0] <= 3.5\nmse = 31966.5\nsamples = 4\nvalue = 7310.0"] ;
1105 -> 1123 ;
1124 [label="X[4] <= 2.5\nmse = 34040.25\nsamples = 2\nvalue = 7190.5"] ;
1123 -> 1124 ;
1125 [label="mse = 0.0\nsamples = 1\nvalue = 7006.0"] ;
1124 -> 1125 ;
1126 [label="mse = 0.0\nsamples = 1\nvalue = 7375.0"] ;
1124 -> 1126 ;
1127 [label="X[4] <= 3.0\nmse = 1332.25\nsamples = 2\nvalue = 7429.5"] ;
1123 -> 1127 ;
1128 [label="mse = 0.0\nsamples = 1\nvalue = 7466.0"] ;
1127 -> 1128 ;
1129 [label="mse = 0.0\nsamples = 1\nvalue = 7393.0"] ;
1127 -> 1129 ;
1130 [label="X[8] <= 0.573\nmse = 135189.654\nsamples = 9\nvalue = 8137.889"] ;
1104 -> 1130 ;
1131 [label="X[8] <= 0.522\nmse = 6320.25\nsamples = 2\nvalue = 8634.5"] ;
1130 -> 1131 ;
1132 [label="mse = 0.0\nsamples = 1\nvalue = 8714.0"] ;
1131 -> 1132 ;
1133 [label="mse = 0.0\nsamples = 1\nvalue = 8555.0"] ;
1131 -> 1133 ;
1134 [label="X[8] <= 0.681\nmse = 81413.429\nsamples = 7\nvalue = 7996.0"] ;
1130 -> 1134 ;
1135 [label="X[9] <= 0.276\nmse = 29345.472\nsamples = 6\nvalue = 8092.833"] ;
1134 -> 1135 ;
1136 [label="X[5] <= 0.5\nmse = 13301.44\nsamples = 5\nvalue = 8032.4"] ;
1135 -> 1136 ;
1137 [label="X[9] <= 0.223\nmse = 2500.0\nsamples = 2\nvalue = 7915.0"] ;
1136 -> 1137 ;
1138 [label="mse = 0.0\nsamples = 1\nvalue = 7865.0"] ;
1137 -> 1138 ;
1139 [label="mse = 0.0\nsamples = 1\nvalue = 7965.0"] ;
1137 -> 1139 ;
1140 [label="X[7] <= 0.624\nmse = 5188.222\nsamples = 3\nvalue = 8110.667"] ;
1136 -> 1140 ;
1141 [label="X[7] <= 0.607\nmse = 30.25\nsamples = 2\nvalue = 8161.5"] ;
1140 -> 1141 ;
1142 [label="mse = 0.0\nsamples = 1\nvalue = 8167.0"] ;
1141 -> 1142 ;
1143 [label="mse = 0.0\nsamples = 1\nvalue = 8156.0"] ;
1141 -> 1143 ;
1144 [label="mse = 0.0\nsamples = 1\nvalue = 8009.0"] ;
1140 -> 1144 ;
1145 [label="mse = 0.0\nsamples = 1\nvalue = 8395.0"] ;
1135 -> 1145 ;
1146 [label="mse = 0.0\nsamples = 1\nvalue = 7415.0"] ;
1134 -> 1146 ;
1147 [label="X[4] <= 2.5\nmse = 198126.777\nsamples = 32\nvalue = 7131.312"] ;
1077 -> 1147 ;
1148 [label="X[7] <= 0.727\nmse = 95359.254\nsamples = 13\nvalue = 6839.769"] ;
1147 -> 1148 ;
1149 [label="X[6] <= 1.5\nmse = 33935.265\nsamples = 7\nvalue = 6635.143"] ;
1148 -> 1149 ;
1150 [label="X[5] <= 0.5\nmse = 16043.44\nsamples = 5\nvalue = 6717.4"] ;
1149 -> 1150 ;
1151 [label="X[8] <= 0.577\nmse = 702.25\nsamples = 2\nvalue = 6570.5"] ;
1150 -> 1151 ;
1152 [label="mse = 0.0\nsamples = 1\nvalue = 6544.0"] ;
1151 -> 1152 ;
1153 [label="mse = 0.0\nsamples = 1\nvalue = 6597.0"] ;
1151 -> 1153 ;
1154 [label="X[9] <= 0.153\nmse = 2293.556\nsamples = 3\nvalue = 6815.333"] ;
1150 -> 1154 ;
1155 [label="mse = 0.0\nsamples = 1\nvalue = 6883.0"] ;
1154 -> 1155 ;
1156 [label="X[4] <= 1.5\nmse = 6.25\nsamples = 2\nvalue = 6781.5"] ;
1154 -> 1156 ;
1157 [label="mse = 0.0\nsamples = 1\nvalue = 6779.0"] ;
1156 -> 1157 ;
1158 [label="mse = 0.0\nsamples = 1\nvalue = 6784.0"] ;
1156 -> 1158 ;
1159 [label="X[8] <= 0.675\nmse = 19460.25\nsamples = 2\nvalue = 6429.5"] ;
1149 -> 1159 ;
1160 [label="mse = 0.0\nsamples = 1\nvalue = 6290.0"] ;
1159 -> 1160 ;
1161 [label="mse = 0.0\nsamples = 1\nvalue = 6569.0"] ;
1159 -> 1161 ;
1162 [label="X[9] <= 0.201\nmse = 61177.583\nsamples = 6\nvalue = 7078.5"] ;
1148 -> 1162 ;
1163 [label="X[7] <= 0.737\nmse = 10129.36\nsamples = 5\nvalue = 6975.8"] ;
1162 -> 1163 ;
1164 [label="X[8] <= 0.644\nmse = 1056.25\nsamples = 2\nvalue = 7072.5"] ;
1163 -> 1164 ;
1165 [label="mse = 0.0\nsamples = 1\nvalue = 7040.0"] ;
1164 -> 1165 ;
1166 [label="mse = 0.0\nsamples = 1\nvalue = 7105.0"] ;
1164 -> 1166 ;
1167 [label="X[6] <= 1.5\nmse = 5788.222\nsamples = 3\nvalue = 6911.333"] ;
1163 -> 1167 ;
1168 [label="X[9] <= 0.155\nmse = 930.25\nsamples = 2\nvalue = 6860.5"] ;
1167 -> 1168 ;
1169 [label="mse = 0.0\nsamples = 1\nvalue = 6891.0"] ;
1168 -> 1169 ;
1170 [label="mse = 0.0\nsamples = 1\nvalue = 6830.0"] ;
1168 -> 1170 ;
1171 [label="mse = 0.0\nsamples = 1\nvalue = 7013.0"] ;
1167 -> 1171 ;
1172 [label="mse = 0.0\nsamples = 1\nvalue = 7592.0"] ;
1162 -> 1172 ;
1173 [label="X[4] <= 5.5\nmse = 170494.166\nsamples = 19\nvalue = 7330.789"] ;
1147 -> 1173 ;
1174 [label="X[9] <= 0.171\nmse = 75347.609\nsamples = 16\nvalue = 7437.625"] ;
1173 -> 1174 ;
1175 [label="X[8] <= 0.468\nmse = 56118.024\nsamples = 13\nvalue = 7510.769"] ;
1174 -> 1175 ;
1176 [label="mse = 0.0\nsamples = 1\nvalue = 8173.0"] ;
1175 -> 1176 ;
1177 [label="X[9] <= 0.149\nmse = 21203.243\nsamples = 12\nvalue = 7455.583"] ;
1175 -> 1177 ;
1178 [label="X[7] <= 0.751\nmse = 15582.75\nsamples = 8\nvalue = 7527.5"] ;
1177 -> 1178 ;
1179 [label="X[7] <= 0.711\nmse = 6213.388\nsamples = 7\nvalue = 7565.571"] ;
1178 -> 1179 ;
1180 [label="X[8] <= 0.603\nmse = 4290.25\nsamples = 2\nvalue = 7647.5"] ;
1179 -> 1180 ;
1181 [label="mse = 0.0\nsamples = 1\nvalue = 7713.0"] ;
1180 -> 1181 ;
1182 [label="mse = 0.0\nsamples = 1\nvalue = 7582.0"] ;
1180 -> 1182 ;
1183 [label="X[9] <= 0.144\nmse = 3223.76\nsamples = 5\nvalue = 7532.8"] ;
1179 -> 1183 ;
1184 [label="mse = 1675.25\nsamples = 4\nvalue = 7554.5"] ;
1183 -> 1184 ;
1185 [label="mse = 0.0\nsamples = 1\nvalue = 7446.0"] ;
1183 -> 1185 ;
1186 [label="mse = 0.0\nsamples = 1\nvalue = 7261.0"] ;
1178 -> 1186 ;
1187 [label="X[8] <= 0.62\nmse = 1412.188\nsamples = 4\nvalue = 7311.75"] ;
1177 -> 1187 ;
1188 [label="X[9] <= 0.169\nmse = 2.25\nsamples = 2\nvalue = 7348.5"] ;
1187 -> 1188 ;
1189 [label="mse = 0.0\nsamples = 1\nvalue = 7350.0"] ;
1188 -> 1189 ;
1190 [label="mse = 0.0\nsamples = 1\nvalue = 7347.0"] ;
1188 -> 1190 ;
1191 [label="X[4] <= 3.5\nmse = 121.0\nsamples = 2\nvalue = 7275.0"] ;
1187 -> 1191 ;
1192 [label="mse = 0.0\nsamples = 1\nvalue = 7264.0"] ;
1191 -> 1192 ;
1193 [label="mse = 0.0\nsamples = 1\nvalue = 7286.0"] ;
1191 -> 1193 ;
1194 [label="X[9] <= 0.202\nmse = 35029.556\nsamples = 3\nvalue = 7120.667"] ;
1174 -> 1194 ;
1195 [label="mse = 0.0\nsamples = 1\nvalue = 6879.0"] ;
1194 -> 1195 ;
1196 [label="X[9] <= 0.252\nmse = 8742.25\nsamples = 2\nvalue = 7241.5"] ;
1194 -> 1196 ;
1197 [label="mse = 0.0\nsamples = 1\nvalue = 7148.0"] ;
1196 -> 1197 ;
1198 [label="mse = 0.0\nsamples = 1\nvalue = 7335.0"] ;
1196 -> 1198 ;
1199 [label="X[9] <= 0.169\nmse = 292408.667\nsamples = 3\nvalue = 6761.0"] ;
1173 -> 1199 ;
1200 [label="X[6] <= 1.5\nmse = 74256.25\nsamples = 2\nvalue = 6412.5"] ;
1199 -> 1200 ;
1201 [label="mse = 0.0\nsamples = 1\nvalue = 6685.0"] ;
1200 -> 1201 ;
1202 [label="mse = 0.0\nsamples = 1\nvalue = 6140.0"] ;
1200 -> 1202 ;
1203 [label="mse = 0.0\nsamples = 1\nvalue = 7458.0"] ;
1199 -> 1203 ;
1204 [label="X[9] <= 0.238\nmse = 668449.038\nsamples = 33\nvalue = 6566.485"] ;
1076 -> 1204 ;
1205 [label="X[4] <= 1.5\nmse = 540510.902\nsamples = 28\nvalue = 6733.75"] ;
1204 -> 1205 ;
1206 [label="X[9] <= 0.09\nmse = 534390.0\nsamples = 11\nvalue = 6329.0"] ;
1205 -> 1206 ;
1207 [label="X[8] <= 0.74\nmse = 512124.667\nsamples = 3\nvalue = 5531.0"] ;
1206 -> 1207 ;
1208 [label="mse = 0.0\nsamples = 1\nvalue = 4549.0"] ;
1207 -> 1208 ;
1209 [label="X[9] <= 0.073\nmse = 44944.0\nsamples = 2\nvalue = 6022.0"] ;
1207 -> 1209 ;
1210 [label="mse = 0.0\nsamples = 1\nvalue = 5810.0"] ;
1209 -> 1210 ;
1211 [label="mse = 0.0\nsamples = 1\nvalue = 6234.0"] ;
1209 -> 1211 ;
1212 [label="X[9] <= 0.145\nmse = 214387.438\nsamples = 8\nvalue = 6628.25"] ;
1206 -> 1212 ;
1213 [label="X[9] <= 0.111\nmse = 97303.188\nsamples = 4\nvalue = 6955.75"] ;
1212 -> 1213 ;
1214 [label="mse = 0.0\nsamples = 1\nvalue = 7410.0"] ;
1213 -> 1214 ;
1215 [label="X[7] <= 0.67\nmse = 38029.556\nsamples = 3\nvalue = 6804.333"] ;
1213 -> 1215 ;
1216 [label="mse = 0.0\nsamples = 1\nvalue = 6530.0"] ;
1215 -> 1216 ;
1217 [label="X[8] <= 0.712\nmse = 600.25\nsamples = 2\nvalue = 6941.5"] ;
1215 -> 1217 ;
1218 [label="mse = 0.0\nsamples = 1\nvalue = 6966.0"] ;
1217 -> 1218 ;
1219 [label="mse = 0.0\nsamples = 1\nvalue = 6917.0"] ;
1217 -> 1219 ;
1220 [label="X[6] <= 1.5\nmse = 116959.188\nsamples = 4\nvalue = 6300.75"] ;
1212 -> 1220 ;
1221 [label="X[7] <= 0.596\nmse = 12430.889\nsamples = 3\nvalue = 6111.333"] ;
1220 -> 1221 ;
1222 [label="mse = 0.0\nsamples = 1\nvalue = 6269.0"] ;
1221 -> 1222 ;
1223 [label="X[9] <= 0.159\nmse = 2.25\nsamples = 2\nvalue = 6032.5"] ;
1221 -> 1223 ;
1224 [label="mse = 0.0\nsamples = 1\nvalue = 6034.0"] ;
1223 -> 1224 ;
1225 [label="mse = 0.0\nsamples = 1\nvalue = 6031.0"] ;
1223 -> 1225 ;
1226 [label="mse = 0.0\nsamples = 1\nvalue = 6869.0"] ;
1220 -> 1226 ;
1227 [label="X[8] <= 0.809\nmse = 369878.581\nsamples = 17\nvalue = 6995.647"] ;
1205 -> 1227 ;
1228 [label="X[7] <= 0.499\nmse = 187794.196\nsamples = 15\nvalue = 7153.267"] ;
1227 -> 1228 ;
1229 [label="X[9] <= 0.182\nmse = 11449.0\nsamples = 2\nvalue = 6499.0"] ;
1228 -> 1229 ;
1230 [label="mse = 0.0\nsamples = 1\nvalue = 6606.0"] ;
1229 -> 1230 ;
1231 [label="mse = 0.0\nsamples = 1\nvalue = 6392.0"] ;
1229 -> 1231 ;
1232 [label="X[7] <= 0.675\nmse = 138936.379\nsamples = 13\nvalue = 7253.923"] ;
1228 -> 1232 ;
1233 [label="X[4] <= 5.5\nmse = 30181.222\nsamples = 6\nvalue = 7510.667"] ;
1232 -> 1233 ;
1234 [label="X[4] <= 3.5\nmse = 8255.44\nsamples = 5\nvalue = 7442.4"] ;
1233 -> 1234 ;
1235 [label="mse = 0.0\nsamples = 1\nvalue = 7572.0"] ;
1234 -> 1235 ;
1236 [label="X[7] <= 0.548\nmse = 5070.5\nsamples = 4\nvalue = 7410.0"] ;
1234 -> 1236 ;
1237 [label="X[8] <= 0.768\nmse = 1056.25\nsamples = 2\nvalue = 7476.5"] ;
1236 -> 1237 ;
1238 [label="mse = 0.0\nsamples = 1\nvalue = 7509.0"] ;
1237 -> 1238 ;
1239 [label="mse = 0.0\nsamples = 1\nvalue = 7444.0"] ;
1237 -> 1239 ;
1240 [label="X[9] <= 0.121\nmse = 240.25\nsamples = 2\nvalue = 7343.5"] ;
1236 -> 1240 ;
1241 [label="mse = 0.0\nsamples = 1\nvalue = 7328.0"] ;
1240 -> 1241 ;
1242 [label="mse = 0.0\nsamples = 1\nvalue = 7359.0"] ;
1240 -> 1242 ;
1243 [label="mse = 0.0\nsamples = 1\nvalue = 7852.0"] ;
1233 -> 1243 ;
1244 [label="X[7] <= 0.698\nmse = 127225.551\nsamples = 7\nvalue = 7033.857"] ;
1232 -> 1244 ;
1245 [label="mse = 0.0\nsamples = 1\nvalue = 6299.0"] ;
1244 -> 1245 ;
1246 [label="X[9] <= 0.212\nmse = 43426.889\nsamples = 6\nvalue = 7156.333"] ;
1244 -> 1246 ;
1247 [label="X[4] <= 5.5\nmse = 31602.16\nsamples = 5\nvalue = 7214.8"] ;
1246 -> 1247 ;
1248 [label="X[4] <= 4.0\nmse = 20622.188\nsamples = 4\nvalue = 7276.25"] ;
1247 -> 1248 ;
1249 [label="mse = 4442.889\nsamples = 3\nvalue = 7200.333"] ;
1248 -> 1249 ;
1250 [label="mse = 0.0\nsamples = 1\nvalue = 7504.0"] ;
1248 -> 1250 ;
1251 [label="mse = 0.0\nsamples = 1\nvalue = 6969.0"] ;
1247 -> 1251 ;
1252 [label="mse = 0.0\nsamples = 1\nvalue = 6864.0"] ;
1246 -> 1252 ;
1253 [label="X[9] <= 0.139\nmse = 151710.25\nsamples = 2\nvalue = 5813.5"] ;
1227 -> 1253 ;
1254 [label="mse = 0.0\nsamples = 1\nvalue = 5424.0"] ;
1253 -> 1254 ;
1255 [label="mse = 0.0\nsamples = 1\nvalue = 6203.0"] ;
1253 -> 1255 ;
1256 [label="X[4] <= 0.5\nmse = 350849.36\nsamples = 5\nvalue = 5629.8"] ;
1204 -> 1256 ;
1257 [label="mse = 0.0\nsamples = 1\nvalue = 4459.0"] ;
1256 -> 1257 ;
1258 [label="X[5] <= 0.5\nmse = 10195.25\nsamples = 4\nvalue = 5922.5"] ;
1256 -> 1258 ;
1259 [label="X[7] <= 0.66\nmse = 1482.25\nsamples = 2\nvalue = 6014.5"] ;
1258 -> 1259 ;
1260 [label="mse = 0.0\nsamples = 1\nvalue = 5976.0"] ;
1259 -> 1260 ;
1261 [label="mse = 0.0\nsamples = 1\nvalue = 6053.0"] ;
1259 -> 1261 ;
1262 [label="X[7] <= 0.639\nmse = 1980.25\nsamples = 2\nvalue = 5830.5"] ;
1258 -> 1262 ;
1263 [label="mse = 0.0\nsamples = 1\nvalue = 5875.0"] ;
1262 -> 1263 ;
1264 [label="mse = 0.0\nsamples = 1\nvalue = 5786.0"] ;
1262 -> 1264 ;
1265 [label="X[4] <= 0.5\nmse = 541202.927\nsamples = 20\nvalue = 6148.85"] ;
1075 -> 1265 ;
1266 [label="X[9] <= 0.147\nmse = 152181.556\nsamples = 3\nvalue = 5222.333"] ;
1265 -> 1266 ;
1267 [label="mse = 0.0\nsamples = 1\nvalue = 4672.0"] ;
1266 -> 1267 ;
1268 [label="X[7] <= 0.793\nmse = 1122.25\nsamples = 2\nvalue = 5497.5"] ;
1266 -> 1268 ;
1269 [label="mse = 0.0\nsamples = 1\nvalue = 5464.0"] ;
1268 -> 1269 ;
