digraph Tree {
node [shape=box] ;
0 [label="X[7] <= 0.432\nmse = 3747654.435\nsamples = 731\nvalue = 4504.349"] ;
1 [label="X[1] <= 0.5\nmse = 2241571.905\nsamples = 296\nvalue = 3037.807"] ;
0 -> 1 [labeldistance=2.5, labelangle=45, headlabel="True"] ;
2 [label="X[0] <= 3.0\nmse = 1039088.724\nsamples = 157\nvalue = 2227.229"] ;
1 -> 2 ;
3 [label="X[2] <= 2.5\nmse = 344731.62\nsamples = 108\nvalue = 1711.139"] ;
2 -> 3 ;
4 [label="X[2] <= 1.5\nmse = 152891.098\nsamples = 57\nvalue = 1421.088"] ;
3 -> 4 ;
5 [label="X[8] <= 0.687\nmse = 134231.7\nsamples = 31\nvalue = 1231.903"] ;
4 -> 5 ;
6 [label="X[5] <= 0.5\nmse = 85552.578\nsamples = 23\nvalue = 1342.174"] ;
5 -> 6 ;
7 [label="X[7] <= 0.186\nmse = 16943.188\nsamples = 8\nvalue = 1037.25"] ;
6 -> 7 ;
8 [label="X[9] <= 0.314\nmse = 4244.24\nsamples = 5\nvalue = 949.6"] ;
7 -> 8 ;
9 [label="X[9] <= 0.257\nmse = 217.25\nsamples = 4\nvalue = 981.5"] ;
8 -> 9 ;
10 [label="X[3] <= 0.5\nmse = 64.667\nsamples = 3\nvalue = 989.0"] ;
9 -> 10 ;
11 [label="X[7] <= 0.078\nmse = 6.25\nsamples = 2\nvalue = 983.5"] ;
10 -> 11 ;
12 [label="mse = 0.0\nsamples = 1\nvalue = 981.0"] ;
11 -> 12 ;
13 [label="mse = 0.0\nsamples = 1\nvalue = 986.0"] ;
11 -> 13 ;
14 [label="mse = 0.0\nsamples = 1\nvalue = 1000.0"] ;
10 -> 14 ;
15 [label="mse = 0.0\nsamples = 1\nvalue = 959.0"] ;
9 -> 15 ;
16 [label="mse = 0.0\nsamples = 1\nvalue = 822.0"] ;
8 -> 16 ;
17 [label="X[7] <= 0.214\nmse = 3963.556\nsamples = 3\nvalue = 1183.333"] ;
7 -> 17 ;
18 [label="mse = 0.0\nsamples = 1\nvalue = 1098.0"] ;
17 -> 18 ;
19 [label="X[4] <= 3.0\nmse = 484.0\nsamples = 2\nvalue = 1226.0"] ;
17 -> 19 ;
20 [label="mse = 0.0\nsamples = 1\nvalue = 1204.0"] ;
19 -> 20 ;
21 [label="mse = 0.0\nsamples = 1\nvalue = 1248.0"] ;
19 -> 21 ;
22 [label="X[7] <= 0.214\nmse = 46108.427\nsamples = 15\nvalue = 1504.8"] ;
6 -> 22 ;
23 [label="X[7] <= 0.175\nmse = 15898.722\nsamples = 12\nvalue = 1421.667"] ;
22 -> 23 ;
24 [label="X[7] <= 0.167\nmse = 9038.917\nsamples = 6\nvalue = 1331.5"] ;
23 -> 24 ;
25 [label="X[9] <= 0.191\nmse = 1662.5\nsamples = 4\nvalue = 1391.0"] ;
24 -> 25 ;
26 [label="X[4] <= 3.0\nmse = 6.25\nsamples = 2\nvalue = 1418.5"] ;
25 -> 26 ;
27 [label="mse = 0.0\nsamples = 1\nvalue = 1416.0"] ;
26 -> 27 ;
28 [label="mse = 0.0\nsamples = 1\nvalue = 1421.0"] ;
26 -> 28 ;
29 [label="X[9] <= 0.262\nmse = 1806.25\nsamples = 2\nvalue = 1363.5"] ;
25 -> 29 ;
30 [label="mse = 0.0\nsamples = 1\nvalue = 1321.0"] ;
29 -> 30 ;
31 [label="mse = 0.0\nsamples = 1\nvalue = 1406.0"] ;
29 -> 31 ;
32 [label="X[6] <= 1.5\nmse = 2550.25\nsamples = 2\nvalue = 1212.5"] ;
24 -> 32 ;
33 [label="mse = 0.0\nsamples = 1\nvalue = 1162.0"] ;
32 -> 33 ;
34 [label="mse = 0.0\nsamples = 1\nvalue = 1263.0"] ;
32 -> 34 ;
35 [label="X[8] <= 0.447\nmse = 6498.472\nsamples = 6\nvalue = 1511.833"] ;
23 -> 35 ;
36 [label="mse = 0.0\nsamples = 1\nvalue = 1349.0"] ;
35 -> 36 ;
37 [label="X[7] <= 0.198\nmse = 1434.64\nsamples = 5\nvalue = 1544.4"] ;
35 -> 37 ;
38 [label="X[8] <= 0.478\nmse = 326.0\nsamples = 3\nvalue = 1518.0"] ;
37 -> 38 ;
39 [label="mse = 0.0\nsamples = 1\nvalue = 1543.0"] ;
38 -> 39 ;
40 [label="X[8] <= 0.551\nmse = 20.25\nsamples = 2\nvalue = 1505.5"] ;
38 -> 40 ;
41 [label="mse = 0.0\nsamples = 1\nvalue = 1510.0"] ;
40 -> 41 ;
42 [label="mse = 0.0\nsamples = 1\nvalue = 1501.0"] ;
40 -> 42 ;
43 [label="X[8] <= 0.554\nmse = 484.0\nsamples = 2\nvalue = 1584.0"] ;
37 -> 43 ;
44 [label="mse = 0.0\nsamples = 1\nvalue = 1606.0"] ;
43 -> 44 ;
45 [label="mse = 0.0\nsamples = 1\nvalue = 1562.0"] ;
43 -> 45 ;
46 [label="X[6] <= 1.5\nmse = 28724.222\nsamples = 3\nvalue = 1837.333"] ;
22 -> 46 ;
47 [label="mse = 0.0\nsamples = 1\nvalue = 1600.0"] ;
46 -> 47 ;
48 [label="X[4] <= 3.0\nmse = 841.0\nsamples = 2\nvalue = 1956.0"] ;
46 -> 48 ;
49 [label="mse = 0.0\nsamples = 1\nvalue = 1985.0"] ;
48 -> 49 ;
50 [label="mse = 0.0\nsamples = 1\nvalue = 1927.0"] ;
48 -> 50 ;
51 [label="X[8] <= 0.834\nmse = 138718.359\nsamples = 8\nvalue = 914.875"] ;
5 -> 51 ;
52 [label="X[8] <= 0.709\nmse = 136729.222\nsamples = 6\nvalue = 1021.667"] ;
51 -> 52 ;
53 [label="X[4] <= 2.0\nmse = 34225.0\nsamples = 2\nvalue = 616.0"] ;
52 -> 53 ;
54 [label="mse = 0.0\nsamples = 1\nvalue = 801.0"] ;
53 -> 54 ;
55 [label="mse = 0.0\nsamples = 1\nvalue = 431.0"] ;
53 -> 55 ;
56 [label="X[9] <= 0.184\nmse = 64557.25\nsamples = 4\nvalue = 1224.5"] ;
52 -> 56 ;
57 [label="X[7] <= 0.28\nmse = 5609.556\nsamples = 3\nvalue = 1082.667"] ;
56 -> 57 ;
58 [label="X[6] <= 1.5\nmse = 1260.25\nsamples = 2\nvalue = 1131.5"] ;
57 -> 58 ;
59 [label="mse = 0.0\nsamples = 1\nvalue = 1096.0"] ;
58 -> 59 ;
60 [label="mse = 0.0\nsamples = 1\nvalue = 1167.0"] ;
58 -> 60 ;
61 [label="mse = 0.0\nsamples = 1\nvalue = 985.0"] ;
57 -> 61 ;
62 [label="mse = 0.0\nsamples = 1\nvalue = 1650.0"] ;
56 -> 62 ;
63 [label="X[8] <= 0.862\nmse = 7832.25\nsamples = 2\nvalue = 594.5"] ;
51 -> 63 ;
64 [label="mse = 0.0\nsamples = 1\nvalue = 683.0"] ;
63 -> 64 ;
65 [label="mse = 0.0\nsamples = 1\nvalue = 506.0"] ;
63 -> 65 ;
66 [label="X[6] <= 1.5\nmse = 81585.149\nsamples = 26\nvalue = 1646.654"] ;
4 -> 66 ;
67 [label="X[7] <= 0.317\nmse = 60358.533\nsamples = 17\nvalue = 1752.235"] ;
66 -> 67 ;
68 [label="X[8] <= 0.43\nmse = 26686.462\nsamples = 13\nvalue = 1671.0"] ;
67 -> 68 ;
69 [label="X[4] <= 2.5\nmse = 2382.0\nsamples = 3\nvalue = 1848.0"] ;
68 -> 69 ;
70 [label="X[9] <= 0.257\nmse = 2.25\nsamples = 2\nvalue = 1813.5"] ;
69 -> 70 ;
71 [label="mse = 0.0\nsamples = 1\nvalue = 1812.0"] ;
70 -> 71 ;
72 [label="mse = 0.0\nsamples = 1\nvalue = 1815.0"] ;
70 -> 72 ;
73 [label="mse = 0.0\nsamples = 1\nvalue = 1917.0"] ;
69 -> 73 ;
74 [label="X[9] <= 0.191\nmse = 21759.49\nsamples = 10\nvalue = 1617.9"] ;
68 -> 74 ;
75 [label="X[4] <= 5.5\nmse = 16231.25\nsamples = 4\nvalue = 1762.5"] ;
74 -> 75 ;
76 [label="X[7] <= 0.279\nmse = 2689.556\nsamples = 3\nvalue = 1693.667"] ;
75 -> 76 ;
77 [label="X[9] <= 0.077\nmse = 289.0\nsamples = 2\nvalue = 1729.0"] ;
76 -> 77 ;
78 [label="mse = 0.0\nsamples = 1\nvalue = 1712.0"] ;
77 -> 78 ;
79 [label="mse = 0.0\nsamples = 1\nvalue = 1746.0"] ;
77 -> 79 ;
80 [label="mse = 0.0\nsamples = 1\nvalue = 1623.0"] ;
76 -> 80 ;
81 [label="mse = 0.0\nsamples = 1\nvalue = 1969.0"] ;
75 -> 81 ;
82 [label="X[8] <= 0.541\nmse = 2212.583\nsamples = 6\nvalue = 1521.5"] ;
74 -> 82 ;
83 [label="X[5] <= 0.5\nmse = 513.188\nsamples = 4\nvalue = 1551.75"] ;
82 -> 83 ;
84 [label="mse = 0.0\nsamples = 1\nvalue = 1589.0"] ;
83 -> 84 ;
85 [label="X[4] <= 3.0\nmse = 67.556\nsamples = 3\nvalue = 1539.333"] ;
83 -> 85 ;
86 [label="mse = 0.0\nsamples = 1\nvalue = 1530.0"] ;
85 -> 86 ;
87 [label="X[9] <= 0.25\nmse = 36.0\nsamples = 2\nvalue = 1544.0"] ;
85 -> 87 ;
88 [label="mse = 0.0\nsamples = 1\nvalue = 1538.0"] ;
87 -> 88 ;
89 [label="mse = 0.0\nsamples = 1\nvalue = 1550.0"] ;
87 -> 89 ;
90 [label="X[9] <= 0.2\nmse = 121.0\nsamples = 2\nvalue = 1461.0"] ;
82 -> 90 ;
91 [label="mse = 0.0\nsamples = 1\nvalue = 1450.0"] ;
90 -> 91 ;
92 [label="mse = 0.0\nsamples = 1\nvalue = 1472.0"] ;
90 -> 92 ;
93 [label="X[7] <= 0.371\nmse = 78641.688\nsamples = 4\nvalue = 2016.25"] ;
67 -> 93 ;
94 [label="X[9] <= 0.189\nmse = 20592.25\nsamples = 2\nvalue = 2258.5"] ;
93 -> 94 ;
95 [label="mse = 0.0\nsamples = 1\nvalue = 2402.0"] ;
94 -> 95 ;
96 [label="mse = 0.0\nsamples = 1\nvalue = 2115.0"] ;
94 -> 96 ;
97 [label="X[9] <= 0.463\nmse = 19321.0\nsamples = 2\nvalue = 1774.0"] ;
93 -> 97 ;
98 [label="mse = 0.0\nsamples = 1\nvalue = 1913.0"] ;
97 -> 98 ;
99 [label="mse = 0.0\nsamples = 1\nvalue = 1635.0"] ;
97 -> 99 ;
100 [label="X[5] <= 0.5\nmse = 60850.617\nsamples = 9\nvalue = 1447.222"] ;
66 -> 100 ;
101 [label="X[7] <= 0.268\nmse = 2601.0\nsamples = 2\nvalue = 1056.0"] ;
100 -> 101 ;
102 [label="mse = 0.0\nsamples = 1\nvalue = 1005.0"] ;
101 -> 102 ;
103 [label="mse = 0.0\nsamples = 1\nvalue = 1107.0"] ;
101 -> 103 ;
104 [label="X[8] <= 0.705\nmse = 21269.143\nsamples = 7\nvalue = 1559.0"] ;
100 -> 104 ;
105 [label="X[4] <= 3.5\nmse = 6801.556\nsamples = 3\nvalue = 1706.667"] ;
104 -> 105 ;
106 [label="mse = 0.0\nsamples = 1\nvalue = 1605.0"] ;
105 -> 106 ;
107 [label="X[9] <= 0.189\nmse = 2450.25\nsamples = 2\nvalue = 1757.5"] ;
105 -> 107 ;
108 [label="mse = 0.0\nsamples = 1\nvalue = 1708.0"] ;
107 -> 108 ;
109 [label="mse = 0.0\nsamples = 1\nvalue = 1807.0"] ;
107 -> 109 ;
110 [label="X[7] <= 0.226\nmse = 3500.188\nsamples = 4\nvalue = 1448.25"] ;
104 -> 110 ;
111 [label="mse = 0.0\nsamples = 1\nvalue = 1360.0"] ;
110 -> 111 ;
112 [label="X[9] <= 0.277\nmse = 1205.556\nsamples = 3\nvalue = 1477.667"] ;
110 -> 112 ;
113 [label="mse = 0.0\nsamples = 1\nvalue = 1526.0"] ;
112 -> 113 ;
114 [label="X[4] <= 3.0\nmse = 56.25\nsamples = 2\nvalue = 1453.5"] ;
112 -> 114 ;
115 [label="mse = 0.0\nsamples = 1\nvalue = 1446.0"] ;
114 -> 115 ;
116 [label="mse = 0.0\nsamples = 1\nvalue = 1461.0"] ;
114 -> 116 ;
117 [label="X[8] <= 0.883\nmse = 360025.0\nsamples = 51\nvalue = 2035.314"] ;
3 -> 117 ;
118 [label="X[7] <= 0.39\nmse = 301338.604\nsamples = 48\nvalue = 2098.25"] ;
117 -> 118 ;
119 [label="X[7] <= 0.387\nmse = 279579.336\nsamples = 38\nvalue = 1983.921"] ;
118 -> 119 ;
120 [label="X[7] <= 0.34\nmse = 235725.722\nsamples = 37\nvalue = 2020.703"] ;
119 -> 120 ;
121 [label="X[8] <= 0.668\nmse = 218946.982\nsamples = 30\nvalue = 1934.867"] ;
120 -> 121 ;
122 [label="X[9] <= 0.136\nmse = 171134.057\nsamples = 23\nvalue = 2043.174"] ;
121 -> 122 ;
123 [label="X[7] <= 0.302\nmse = 129536.889\nsamples = 3\nvalue = 2518.333"] ;
122 -> 123 ;
124 [label="X[7] <= 0.27\nmse = 21025.0\nsamples = 2\nvalue = 2278.0"] ;
123 -> 124 ;
125 [label="mse = 0.0\nsamples = 1\nvalue = 2423.0"] ;
124 -> 125 ;
126 [label="mse = 0.0\nsamples = 1\nvalue = 2133.0"] ;
124 -> 126 ;
127 [label="mse = 0.0\nsamples = 1\nvalue = 2999.0"] ;
123 -> 127 ;
128 [label="X[2] <= 8.0\nmse = 138427.19\nsamples = 20\nvalue = 1971.9"] ;
122 -> 128 ;
129 [label="X[7] <= 0.263\nmse = 71183.426\nsamples = 17\nvalue = 2047.529"] ;
128 -> 129 ;
130 [label="X[7] <= 0.257\nmse = 12646.25\nsamples = 4\nvalue = 1798.5"] ;
129 -> 130 ;
131 [label="X[0] <= 1.5\nmse = 16.0\nsamples = 2\nvalue = 1689.0"] ;
130 -> 131 ;
132 [label="mse = 0.0\nsamples = 1\nvalue = 1685.0"] ;
131 -> 132 ;
133 [label="mse = 0.0\nsamples = 1\nvalue = 1693.0"] ;
131 -> 133 ;
134 [label="X[9] <= 0.272\nmse = 1296.0\nsamples = 2\nvalue = 1908.0"] ;
130 -> 134 ;
135 [label="mse = 0.0\nsamples = 1\nvalue = 1944.0"] ;
134 -> 135 ;
136 [label="mse = 0.0\nsamples = 1\nvalue = 1872.0"] ;
134 -> 136 ;
137 [label="X[8] <= 0.496\nmse = 64241.822\nsamples = 13\nvalue = 2124.154"] ;
129 -> 137 ;
138 [label="X[5] <= 0.5\nmse = 32117.667\nsamples = 6\nvalue = 2294.0"] ;
137 -> 138 ;
139 [label="X[4] <= 3.0\nmse = 156.25\nsamples = 2\nvalue = 2483.5"] ;
138 -> 139 ;
140 [label="mse = 0.0\nsamples = 1\nvalue = 2471.0"] ;
139 -> 140 ;
141 [label="mse = 0.0\nsamples = 1\nvalue = 2496.0"] ;
139 -> 141 ;
142 [label="X[8] <= 0.308\nmse = 21165.688\nsamples = 4\nvalue = 2199.25"] ;
138 -> 142 ;
143 [label="mse = 0.0\nsamples = 1\nvalue = 2028.0"] ;
142 -> 143 ;
144 [label="mse = 15186.889\nsamples = 3\nvalue = 2256.333"] ;
142 -> 144 ;
145 [label="X[7] <= 0.308\nmse = 45855.959\nsamples = 7\nvalue = 1978.571"] ;
137 -> 145 ;
146 [label="X[6] <= 1.5\nmse = 24806.25\nsamples = 2\nvalue = 1693.5"] ;
145 -> 146 ;
147 [label="mse = 0.0\nsamples = 1\nvalue = 1851.0"] ;
146 -> 147 ;
148 [label="mse = 0.0\nsamples = 1\nvalue = 1536.0"] ;
146 -> 148 ;
149 [label="X[4] <= 5.5\nmse = 8767.04\nsamples = 5\nvalue = 2092.6"] ;
145 -> 149 ;
150 [label="mse = 1233.556\nsamples = 3\nvalue = 2026.333"] ;
149 -> 150 ;
151 [label="mse = 3600.0\nsamples = 2\nvalue = 2192.0"] ;
149 -> 151 ;
152 [label="X[7] <= 0.301\nmse = 303393.556\nsamples = 3\nvalue = 1543.333"] ;
128 -> 152 ;
153 [label="mse = 0.0\nsamples = 1\nvalue = 2302.0"] ;
152 -> 153 ;
154 [label="X[9] <= 0.215\nmse = 23409.0\nsamples = 2\nvalue = 1164.0"] ;
152 -> 154 ;
155 [label="mse = 0.0\nsamples = 1\nvalue = 1011.0"] ;
154 -> 155 ;
156 [label="mse = 0.0\nsamples = 1\nvalue = 1317.0"] ;
154 -> 156 ;
157 [label="X[4] <= 2.5\nmse = 210862.571\nsamples = 7\nvalue = 1579.0"] ;
121 -> 157 ;
158 [label="X[4] <= 1.0\nmse = 41616.0\nsamples = 2\nvalue = 958.0"] ;
157 -> 158 ;
159 [label="mse = 0.0\nsamples = 1\nvalue = 754.0"] ;
158 -> 159 ;
160 [label="mse = 0.0\nsamples = 1\nvalue = 1162.0"] ;
158 -> 160 ;
161 [label="X[7] <= 0.318\nmse = 62602.24\nsamples = 5\nvalue = 1827.4"] ;
157 -> 161 ;
162 [label="X[8] <= 0.731\nmse = 27179.556\nsamples = 3\nvalue = 1994.333"] ;
161 -> 162 ;
163 [label="mse = 0.0\nsamples = 1\nvalue = 2227.0"] ;
162 -> 163 ;
164 [label="X[8] <= 0.791\nmse = 169.0\nsamples = 2\nvalue = 1878.0"] ;
162 -> 164 ;
165 [label="mse = 0.0\nsamples = 1\nvalue = 1891.0"] ;
164 -> 165 ;
166 [label="mse = 0.0\nsamples = 1\nvalue = 1865.0"] ;
164 -> 166 ;
167 [label="X[7] <= 0.336\nmse = 11236.0\nsamples = 2\nvalue = 1577.0"] ;
161 -> 167 ;
168 [label="mse = 0.0\nsamples = 1\nvalue = 1471.0"] ;
167 -> 168 ;
169 [label="mse = 0.0\nsamples = 1\nvalue = 1683.0"] ;
167 -> 169 ;
170 [label="X[8] <= 0.504\nmse = 140730.816\nsamples = 7\nvalue = 2388.571"] ;
120 -> 170 ;
171 [label="mse = 0.0\nsamples = 1\nvalue = 3249.0"] ;
170 -> 171 ;
172 [label="X[8] <= 0.859\nmse = 20231.472\nsamples = 6\nvalue = 2245.167"] ;
170 -> 172 ;
173 [label="X[7] <= 0.384\nmse = 13710.56\nsamples = 5\nvalue = 2203.2"] ;
172 -> 173 ;
174 [label="X[8] <= 0.783\nmse = 2853.688\nsamples = 4\nvalue = 2149.75"] ;
173 -> 174 ;
175 [label="X[9] <= 0.239\nmse = 72.25\nsamples = 2\nvalue = 2200.5"] ;
174 -> 175 ;
176 [label="mse = 0.0\nsamples = 1\nvalue = 2192.0"] ;
175 -> 176 ;
177 [label="mse = 0.0\nsamples = 1\nvalue = 2209.0"] ;
175 -> 177 ;
178 [label="X[7] <= 0.366\nmse = 484.0\nsamples = 2\nvalue = 2099.0"] ;
174 -> 178 ;
179 [label="mse = 0.0\nsamples = 1\nvalue = 2121.0"] ;
178 -> 179 ;
180 [label="mse = 0.0\nsamples = 1\nvalue = 2077.0"] ;
178 -> 180 ;
181 [label="mse = 0.0\nsamples = 1\nvalue = 2417.0"] ;
173 -> 181 ;
182 [label="mse = 0.0\nsamples = 1\nvalue = 2455.0"] ;
172 -> 182 ;
183 [label="mse = 0.0\nsamples = 1\nvalue = 623.0"] ;
119 -> 183 ;
184 [label="X[9] <= 0.359\nmse = 145606.81\nsamples = 10\nvalue = 2532.7"] ;
118 -> 184 ;
185 [label="X[9] <= 0.215\nmse = 94600.0\nsamples = 9\nvalue = 2614.667"] ;
184 -> 185 ;
186 [label="X[9] <= 0.097\nmse = 17522.889\nsamples = 3\nvalue = 2902.333"] ;
185 -> 186 ;
187 [label="mse = 0.0\nsamples = 1\nvalue = 3068.0"] ;
186 -> 187 ;
188 [label="X[4] <= 2.0\nmse = 5700.25\nsamples = 2\nvalue = 2819.5"] ;
186 -> 188 ;
189 [label="mse = 0.0\nsamples = 1\nvalue = 2895.0"] ;
188 -> 189 ;
190 [label="mse = 0.0\nsamples = 1\nvalue = 2744.0"] ;
188 -> 190 ;
191 [label="X[7] <= 0.429\nmse = 71074.472\nsamples = 6\nvalue = 2470.833"] ;
185 -> 191 ;
192 [label="X[9] <= 0.257\nmse = 48064.24\nsamples = 5\nvalue = 2549.6"] ;
191 -> 192 ;
193 [label="X[0] <= 1.5\nmse = 42550.889\nsamples = 3\nvalue = 2435.667"] ;
192 -> 193 ;
194 [label="X[4] <= 4.5\nmse = 7656.25\nsamples = 2\nvalue = 2572.5"] ;
193 -> 194 ;
195 [label="mse = 0.0\nsamples = 1\nvalue = 2660.0"] ;
194 -> 195 ;
196 [label="mse = 0.0\nsamples = 1\nvalue = 2485.0"] ;
194 -> 196 ;
197 [label="mse = 0.0\nsamples = 1\nvalue = 2162.0"] ;
193 -> 197 ;
198 [label="X[8] <= 0.604\nmse = 7656.25\nsamples = 2\nvalue = 2720.5"] ;
192 -> 198 ;
199 [label="mse = 0.0\nsamples = 1\nvalue = 2808.0"] ;
198 -> 199 ;
200 [label="mse = 0.0\nsamples = 1\nvalue = 2633.0"] ;
198 -> 200 ;
201 [label="mse = 0.0\nsamples = 1\nvalue = 2077.0"] ;
191 -> 201 ;
202 [label="mse = 0.0\nsamples = 1\nvalue = 1795.0"] ;
184 -> 202 ;
203 [label="X[7] <= 0.322\nmse = 221622.222\nsamples = 3\nvalue = 1028.333"] ;
117 -> 203 ;
204 [label="mse = 0.0\nsamples = 1\nvalue = 1685.0"] ;
203 -> 204 ;
205 [label="X[6] <= 2.5\nmse = 9025.0\nsamples = 2\nvalue = 700.0"] ;
203 -> 205 ;
206 [label="mse = 0.0\nsamples = 1\nvalue = 605.0"] ;
205 -> 206 ;
207 [label="mse = 0.0\nsamples = 1\nvalue = 795.0"] ;
205 -> 207 ;
208 [label="X[8] <= 0.855\nmse = 688534.317\nsamples = 49\nvalue = 3364.735"] ;
2 -> 208 ;
209 [label="X[7] <= 0.385\nmse = 325352.029\nsamples = 46\nvalue = 3520.283"] ;
208 -> 209 ;
210 [label="X[3] <= 0.5\nmse = 269452.454\nsamples = 33\nvalue = 3357.697"] ;
209 -> 210 ;
211 [label="X[7] <= 0.262\nmse = 171338.57\nsamples = 31\nvalue = 3417.452"] ;
210 -> 211 ;
212 [label="X[5] <= 0.5\nmse = 100774.688\nsamples = 4\nvalue = 2805.75"] ;
211 -> 212 ;
213 [label="X[8] <= 0.574\nmse = 21358.222\nsamples = 3\nvalue = 2637.667"] ;
212 -> 213 ;
214 [label="X[7] <= 0.24\nmse = 4.0\nsamples = 2\nvalue = 2741.0"] ;
213 -> 214 ;
215 [label="mse = 0.0\nsamples = 1\nvalue = 2743.0"] ;
214 -> 215 ;
216 [label="mse = 0.0\nsamples = 1\nvalue = 2739.0"] ;
214 -> 216 ;
217 [label="mse = 0.0\nsamples = 1\nvalue = 2431.0"] ;
213 -> 217 ;
218 [label="mse = 0.0\nsamples = 1\nvalue = 3310.0"] ;
212 -> 218 ;
219 [label="X[8] <= 0.784\nmse = 118146.143\nsamples = 27\nvalue = 3508.074"] ;
211 -> 219 ;
220 [label="X[9] <= 0.288\nmse = 98269.818\nsamples = 25\nvalue = 3554.68"] ;
219 -> 220 ;
221 [label="X[7] <= 0.28\nmse = 91440.66\nsamples = 24\nvalue = 3575.583"] ;
220 -> 221 ;
222 [label="X[5] <= 0.5\nmse = 7198.688\nsamples = 4\nvalue = 3326.75"] ;
221 -> 222 ;
223 [label="mse = 0.0\nsamples = 1\nvalue = 3190.0"] ;
222 -> 223 ;
224 [label="X[9] <= 0.206\nmse = 1286.889\nsamples = 3\nvalue = 3372.333"] ;
222 -> 224 ;
225 [label="X[2] <= 11.5\nmse = 30.25\nsamples = 2\nvalue = 3397.5"] ;
224 -> 225 ;
226 [label="mse = 0.0\nsamples = 1\nvalue = 3392.0"] ;
225 -> 226 ;
227 [label="mse = 0.0\nsamples = 1\nvalue = 3403.0"] ;
225 -> 227 ;
228 [label="mse = 0.0\nsamples = 1\nvalue = 3322.0"] ;
224 -> 228 ;
229 [label="X[7] <= 0.366\nmse = 93428.728\nsamples = 20\nvalue = 3625.35"] ;
221 -> 229 ;
230 [label="X[4] <= 2.5\nmse = 32373.84\nsamples = 15\nvalue = 3687.6"] ;
229 -> 230 ;
231 [label="X[7] <= 0.335\nmse = 15029.44\nsamples = 5\nvalue = 3531.4"] ;
230 -> 231 ;
232 [label="X[9] <= 0.159\nmse = 6891.556\nsamples = 3\nvalue = 3446.333"] ;
231 -> 232 ;
233 [label="X[5] <= 0.5\nmse = 361.0\nsamples = 2\nvalue = 3504.0"] ;
232 -> 233 ;
234 [label="mse = 0.0\nsamples = 1\nvalue = 3485.0"] ;
233 -> 234 ;
235 [label="mse = 0.0\nsamples = 1\nvalue = 3523.0"] ;
233 -> 235 ;
236 [label="mse = 0.0\nsamples = 1\nvalue = 3331.0"] ;
232 -> 236 ;
237 [label="X[7] <= 0.344\nmse = 100.0\nsamples = 2\nvalue = 3659.0"] ;
231 -> 237 ;
238 [label="mse = 0.0\nsamples = 1\nvalue = 3669.0"] ;
237 -> 238 ;
239 [label="mse = 0.0\nsamples = 1\nvalue = 3649.0"] ;
237 -> 239 ;
240 [label="X[7] <= 0.344\nmse = 22747.21\nsamples = 10\nvalue = 3765.7"] ;
230 -> 240 ;
241 [label="X[7] <= 0.306\nmse = 14067.062\nsamples = 9\nvalue = 3732.222"] ;
240 -> 241 ;
242 [label="X[8] <= 0.654\nmse = 9.0\nsamples = 2\nvalue = 3617.0"] ;
241 -> 242 ;
243 [label="mse = 0.0\nsamples = 1\nvalue = 3614.0"] ;
242 -> 243 ;
244 [label="mse = 0.0\nsamples = 1\nvalue = 3620.0"] ;
242 -> 244 ;
245 [label="X[9] <= 0.205\nmse = 13206.694\nsamples = 7\nvalue = 3765.143"] ;
241 -> 245 ;
246 [label="mse = 8310.222\nsamples = 3\nvalue = 3868.667"] ;
245 -> 246 ;
247 [label="mse = 2812.75\nsamples = 4\nvalue = 3687.5"] ;
245 -> 247 ;
248 [label="mse = 0.0\nsamples = 1\nvalue = 4067.0"] ;
240 -> 248 ;
249 [label="X[4] <= 4.0\nmse = 230092.64\nsamples = 5\nvalue = 3438.6"] ;
229 -> 249 ;
250 [label="X[4] <= 2.0\nmse = 94864.0\nsamples = 2\nvalue = 3878.0"] ;
249 -> 250 ;
251 [label="mse = 0.0\nsamples = 1\nvalue = 3570.0"] ;
250 -> 251 ;
252 [label="mse = 0.0\nsamples = 1\nvalue = 4186.0"] ;
250 -> 252 ;
253 [label="X[8] <= 0.572\nmse = 105720.222\nsamples = 3\nvalue = 3145.667"] ;
249 -> 253 ;
254 [label="mse = 0.0\nsamples = 1\nvalue = 3577.0"] ;
253 -> 254 ;
255 [label="X[8] <= 0.663\nmse = 19044.0\nsamples = 2\nvalue = 2930.0"] ;
253 -> 255 ;
256 [label="mse = 0.0\nsamples = 1\nvalue = 2792.0"] ;
255 -> 256 ;
257 [label="mse = 0.0\nsamples = 1\nvalue = 3068.0"] ;
255 -> 257 ;
258 [label="mse = 0.0\nsamples = 1\nvalue = 3053.0"] ;
220 -> 258 ;
259 [label="X[9] <= 0.206\nmse = 56.25\nsamples = 2\nvalue = 2925.5"] ;
219 -> 259 ;
260 [label="mse = 0.0\nsamples = 1\nvalue = 2933.0"] ;
259 -> 260 ;
261 [label="mse = 0.0\nsamples = 1\nvalue = 2918.0"] ;
259 -> 261 ;
262 [label="X[8] <= 0.498\nmse = 877032.25\nsamples = 2\nvalue = 2431.5"] ;
210 -> 262 ;
263 [label="mse = 0.0\nsamples = 1\nvalue = 3368.0"] ;
262 -> 263 ;
264 [label="mse = 0.0\nsamples = 1\nvalue = 1495.0"] ;
262 -> 264 ;
265 [label="X[9] <= 0.282\nmse = 229813.385\nsamples = 13\nvalue = 3933.0"] ;
209 -> 265 ;
266 [label="X[2] <= 11.5\nmse = 44754.722\nsamples = 12\nvalue = 4058.333"] ;
265 -> 266 ;
267 [label="X[2] <= 10.5\nmse = 18641.877\nsamples = 9\nvalue = 4158.889"] ;
266 -> 267 ;
268 [label="X[7] <= 0.422\nmse = 1252.667\nsamples = 3\nvalue = 4331.0"] ;
267 -> 268 ;
269 [label="mse = 0.0\nsamples = 1\nvalue = 4381.0"] ;
268 -> 269 ;
270 [label="X[4] <= 5.5\nmse = 4.0\nsamples = 2\nvalue = 4306.0"] ;
268 -> 270 ;
271 [label="mse = 0.0\nsamples = 1\nvalue = 4304.0"] ;
270 -> 271 ;
272 [label="mse = 0.0\nsamples = 1\nvalue = 4308.0"] ;
270 -> 272 ;
273 [label="X[9] <= 0.136\nmse = 5119.806\nsamples = 6\nvalue = 4072.833"] ;
267 -> 273 ;
274 [label="X[7] <= 0.405\nmse = 4070.688\nsamples = 4\nvalue = 4104.25"] ;
273 -> 274 ;
275 [label="X[4] <= 2.5\nmse = 916.222\nsamples = 3\nvalue = 4070.667"] ;
274 -> 275 ;
276 [label="X[4] <= 1.5\nmse = 272.25\nsamples = 2\nvalue = 4051.5"] ;
275 -> 276 ;
277 [label="mse = 0.0\nsamples = 1\nvalue = 4035.0"] ;
276 -> 277 ;
278 [label="mse = 0.0\nsamples = 1\nvalue = 4068.0"] ;
276 -> 278 ;
279 [label="mse = 0.0\nsamples = 1\nvalue = 4109.0"] ;
275 -> 279 ;
280 [label="mse = 0.0\nsamples = 1\nvalue = 4205.0"] ;
274 -> 280 ;
281 [label="X[7] <= 0.406\nmse = 1296.0\nsamples = 2\nvalue = 4010.0"] ;
273 -> 281 ;
282 [label="mse = 0.0\nsamples = 1\nvalue = 4046.0"] ;
281 -> 282 ;
283 [label="mse = 0.0\nsamples = 1\nvalue = 3974.0"] ;
281 -> 283 ;
284 [label="X[4] <= 1.5\nmse = 1756.222\nsamples = 3\nvalue = 3756.667"] ;
266 -> 284 ;
285 [label="mse = 0.0\nsamples = 1\nvalue = 3811.0"] ;
284 -> 285 ;
286 [label="X[8] <= 0.615\nmse = 420.25\nsamples = 2\nvalue = 3729.5"] ;
284 -> 286 ;
287 [label="mse = 0.0\nsamples = 1\nvalue = 3750.0"] ;
286 -> 287 ;
288 [label="mse = 0.0\nsamples = 1\nvalue = 3709.0"] ;
286 -> 288 ;
289 [label="mse = 0.0\nsamples = 1\nvalue = 2429.0"] ;
265 -> 289 ;
290 [label="X[4] <= 2.5\nmse = 197787.556\nsamples = 3\nvalue = 979.667"] ;
208 -> 290 ;
291 [label="mse = 0.0\nsamples = 1\nvalue = 1607.0"] ;
290 -> 291 ;
292 [label="X[4] <= 4.5\nmse = 1521.0\nsamples = 2\nvalue = 666.0"] ;
290 -> 292 ;
293 [label="mse = 0.0\nsamples = 1\nvalue = 705.0"] ;
292 -> 293 ;
294 [label="mse = 0.0\nsamples = 1\nvalue = 627.0"] ;
292 -> 294 ;
295 [label="X[0] <= 1.5\nmse = 2019428.703\nsamples = 139\nvalue = 3953.353"] ;
1 -> 295 ;
296 [label="X[7] <= 0.28\nmse = 1041295.254\nsamples = 78\nvalue = 3170.949"] ;
295 -> 296 ;
297 [label="X[8] <= 0.727\nmse = 649926.408\nsamples = 37\nvalue = 2499.568"] ;
296 -> 297 ;
298 [label="X[9] <= 0.23\nmse = 436816.168\nsamples = 28\nvalue = 2746.214"] ;
297 -> 298 ;
299 [label="X[9] <= 0.191\nmse = 290018.052\nsamples = 18\nvalue = 3055.944"] ;
298 -> 299 ;
300 [label="X[7] <= 0.25\nmse = 215989.69\nsamples = 10\nvalue = 2729.1"] ;
299 -> 300 ;
301 [label="X[8] <= 0.413\nmse = 239773.139\nsamples = 6\nvalue = 2529.167"] ;
300 -> 301 ;
302 [label="mse = 0.0\nsamples = 1\nvalue = 3422.0"] ;
301 -> 302 ;
303 [label="X[7] <= 0.235\nmse = 96411.44\nsamples = 5\nvalue = 2350.6"] ;
301 -> 303 ;
304 [label="X[2] <= 6.5\nmse = 21250.25\nsamples = 4\nvalue = 2491.5"] ;
303 -> 304 ;
305 [label="X[5] <= 0.5\nmse = 3264.222\nsamples = 3\nvalue = 2412.333"] ;
304 -> 305 ;
306 [label="mse = 0.0\nsamples = 1\nvalue = 2493.0"] ;
305 -> 306 ;
307 [label="X[8] <= 0.558\nmse = 16.0\nsamples = 2\nvalue = 2372.0"] ;
305 -> 307 ;
308 [label="mse = 0.0\nsamples = 1\nvalue = 2368.0"] ;
307 -> 308 ;
309 [label="mse = 0.0\nsamples = 1\nvalue = 2376.0"] ;
307 -> 309 ;
310 [label="mse = 0.0\nsamples = 1\nvalue = 2729.0"] ;
304 -> 310 ;
311 [label="mse = 0.0\nsamples = 1\nvalue = 1787.0"] ;
303 -> 311 ;
312 [label="X[8] <= 0.639\nmse = 30414.5\nsamples = 4\nvalue = 3029.0"] ;
300 -> 312 ;
313 [label="X[6] <= 1.5\nmse = 7832.25\nsamples = 2\nvalue = 3183.5"] ;
312 -> 313 ;
314 [label="mse = 0.0\nsamples = 1\nvalue = 3272.0"] ;
313 -> 314 ;
315 [label="mse = 0.0\nsamples = 1\nvalue = 3095.0"] ;
313 -> 315 ;
316 [label="X[8] <= 0.705\nmse = 5256.25\nsamples = 2\nvalue = 2874.5"] ;
312 -> 316 ;
317 [label="mse = 0.0\nsamples = 1\nvalue = 2947.0"] ;
316 -> 317 ;
318 [label="mse = 0.0\nsamples = 1\nvalue = 2802.0"] ;
316 -> 318 ;
319 [label="X[9] <= 0.202\nmse = 82101.75\nsamples = 8\nvalue = 3464.5"] ;
299 -> 319 ;
320 [label="X[2] <= 2.5\nmse = 3969.0\nsamples = 2\nvalue = 3893.0"] ;
319 -> 320 ;
321 [label="mse = 0.0\nsamples = 1\nvalue = 3830.0"] ;
320 -> 321 ;
322 [label="mse = 0.0\nsamples = 1\nvalue = 3956.0"] ;
320 -> 322 ;
323 [label="X[8] <= 0.405\nmse = 26540.556\nsamples = 6\nvalue = 3321.667"] ;
319 -> 323 ;
324 [label="mse = 0.0\nsamples = 1\nvalue = 3624.0"] ;
323 -> 324 ;
325 [label="X[3] <= 0.5\nmse = 9911.36\nsamples = 5\nvalue = 3261.2"] ;
323 -> 325 ;
326 [label="X[6] <= 1.5\nmse = 6927.688\nsamples = 4\nvalue = 3294.25"] ;
325 -> 326 ;
327 [label="X[7] <= 0.261\nmse = 1580.667\nsamples = 3\nvalue = 3338.0"] ;
326 -> 327 ;
328 [label="X[7] <= 0.217\nmse = 420.25\nsamples = 2\nvalue = 3312.5"] ;
327 -> 328 ;
329 [label="mse = 0.0\nsamples = 1\nvalue = 3292.0"] ;
328 -> 329 ;
330 [label="mse = 0.0\nsamples = 1\nvalue = 3333.0"] ;
328 -> 330 ;
331 [label="mse = 0.0\nsamples = 1\nvalue = 3389.0"] ;
327 -> 331 ;
332 [label="mse = 0.0\nsamples = 1\nvalue = 3163.0"] ;
326 -> 332 ;
333 [label="mse = 0.0\nsamples = 1\nvalue = 3129.0"] ;
325 -> 333 ;
334 [label="X[7] <= 0.274\nmse = 217551.61\nsamples = 10\nvalue = 2188.7"] ;
298 -> 334 ;
335 [label="X[9] <= 0.387\nmse = 72880.5\nsamples = 8\nvalue = 1998.0"] ;
334 -> 335 ;
336 [label="X[7] <= 0.255\nmse = 35860.222\nsamples = 6\nvalue = 2117.667"] ;
335 -> 336 ;
337 [label="X[4] <= 3.0\nmse = 6074.188\nsamples = 4\nvalue = 2239.75"] ;
336 -> 337 ;
338 [label="X[9] <= 0.308\nmse = 1070.889\nsamples = 3\nvalue = 2281.667"] ;
337 -> 338 ;
339 [label="X[4] <= 0.5\nmse = 42.25\nsamples = 2\nvalue = 2304.5"] ;
338 -> 339 ;
340 [label="mse = 0.0\nsamples = 1\nvalue = 2311.0"] ;
339 -> 340 ;
341 [label="mse = 0.0\nsamples = 1\nvalue = 2298.0"] ;
339 -> 341 ;
342 [label="mse = 0.0\nsamples = 1\nvalue = 2236.0"] ;
338 -> 342 ;
343 [label="mse = 0.0\nsamples = 1\nvalue = 2114.0"] ;
337 -> 343 ;
344 [label="X[7] <= 0.264\nmse = 6006.25\nsamples = 2\nvalue = 1873.5"] ;
336 -> 344 ;
345 [label="mse = 0.0\nsamples = 1\nvalue = 1796.0"] ;
344 -> 345 ;
346 [label="mse = 0.0\nsamples = 1\nvalue = 1951.0"] ;
344 -> 346 ;
347 [label="X[7] <= 0.197\nmse = 12100.0\nsamples = 2\nvalue = 1639.0"] ;
335 -> 347 ;
348 [label="mse = 0.0\nsamples = 1\nvalue = 1529.0"] ;
347 -> 348 ;
349 [label="mse = 0.0\nsamples = 1\nvalue = 1749.0"] ;
347 -> 349 ;
350 [label="X[2] <= 1.5\nmse = 68906.25\nsamples = 2\nvalue = 2951.5"] ;
334 -> 350 ;
351 [label="mse = 0.0\nsamples = 1\nvalue = 3214.0"] ;
350 -> 351 ;
352 [label="mse = 0.0\nsamples = 1\nvalue = 2689.0"] ;
350 -> 352 ;
353 [label="X[2] <= 7.0\nmse = 534853.951\nsamples = 9\nvalue = 1732.222"] ;
297 -> 353 ;
354 [label="X[7] <= 0.196\nmse = 216074.0\nsamples = 6\nvalue = 2148.0"] ;
353 -> 354 ;
355 [label="X[8] <= 0.814\nmse = 114244.0\nsamples = 2\nvalue = 1639.0"] ;
354 -> 355 ;
356 [label="mse = 0.0\nsamples = 1\nvalue = 1977.0"] ;
355 -> 356 ;
357 [label="mse = 0.0\nsamples = 1\nvalue = 1301.0"] ;
355 -> 357 ;
358 [label="X[9] <= 0.127\nmse = 72678.25\nsamples = 4\nvalue = 2402.5"] ;
354 -> 358 ;
359 [label="X[4] <= 3.5\nmse = 40000.0\nsamples = 2\nvalue = 2632.0"] ;
358 -> 359 ;
360 [label="mse = 0.0\nsamples = 1\nvalue = 2432.0"] ;
359 -> 360 ;
361 [label="mse = 0.0\nsamples = 1\nvalue = 2832.0"] ;
359 -> 361 ;
362 [label="X[4] <= 4.5\nmse = 16.0\nsamples = 2\nvalue = 2173.0"] ;
358 -> 362 ;
363 [label="mse = 0.0\nsamples = 1\nvalue = 2177.0"] ;
362 -> 363 ;
364 [label="mse = 0.0\nsamples = 1\nvalue = 2169.0"] ;
362 -> 364 ;
365 [label="X[6] <= 2.5\nmse = 135186.889\nsamples = 3\nvalue = 900.667"] ;
353 -> 365 ;
366 [label="X[9] <= 0.101\nmse = 44310.25\nsamples = 2\nvalue = 1130.5"] ;
365 -> 366 ;
367 [label="mse = 0.0\nsamples = 1\nvalue = 920.0"] ;
366 -> 367 ;
368 [label="mse = 0.0\nsamples = 1\nvalue = 1341.0"] ;
366 -> 368 ;
369 [label="mse = 0.0\nsamples = 1\nvalue = 441.0"] ;
365 -> 369 ;
370 [label="X[3] <= 0.5\nmse = 620613.751\nsamples = 41\nvalue = 3776.829"] ;
296 -> 370 ;
371 [label="X[8] <= 0.645\nmse = 440386.069\nsamples = 40\nvalue = 3845.925"] ;
370 -> 371 ;
372 [label="X[7] <= 0.34\nmse = 256087.995\nsamples = 28\nvalue = 4062.929"] ;
371 -> 372 ;
373 [label="X[9] <= 0.233\nmse = 163231.929\nsamples = 15\nvalue = 3719.733"] ;
372 -> 373 ;
374 [label="X[4] <= 2.5\nmse = 54529.29\nsamples = 10\nvalue = 3939.9"] ;
373 -> 374 ;
375 [label="X[2] <= 1.5\nmse = 33744.5\nsamples = 4\nvalue = 3727.0"] ;
374 -> 375 ;
376 [label="mse = 0.0\nsamples = 1\nvalue = 3425.0"] ;
375 -> 376 ;
377 [label="X[7] <= 0.303\nmse = 4457.556\nsamples = 3\nvalue = 3827.667"] ;
375 -> 377 ;
378 [label="X[4] <= 1.5\nmse = 12.25\nsamples = 2\nvalue = 3780.5"] ;
377 -> 378 ;
379 [label="mse = 0.0\nsamples = 1\nvalue = 3784.0"] ;
378 -> 379 ;
380 [label="mse = 0.0\nsamples = 1\nvalue = 3777.0"] ;
378 -> 380 ;
381 [label="mse = 0.0\nsamples = 1\nvalue = 3922.0"] ;
377 -> 381 ;
382 [label="X[6] <= 1.5\nmse = 18023.139\nsamples = 6\nvalue = 4081.833"] ;
374 -> 382 ;
383 [label="X[4] <= 4.0\nmse = 6527.6\nsamples = 5\nvalue = 4132.0"] ;
382 -> 383 ;
384 [label="mse = 0.0\nsamples = 1\nvalue = 4270.0"] ;
383 -> 384 ;
385 [label="X[8] <= 0.543\nmse = 2208.25\nsamples = 4\nvalue = 4097.5"] ;
383 -> 385 ;
386 [label="X[7] <= 0.324\nmse = 477.556\nsamples = 3\nvalue = 4122.333"] ;
385 -> 386 ;
387 [label="X[9] <= 0.202\nmse = 272.25\nsamples = 2\nvalue = 4134.5"] ;
386 -> 387 ;
388 [label="mse = 0.0\nsamples = 1\nvalue = 4151.0"] ;
387 -> 388 ;
389 [label="mse = 0.0\nsamples = 1\nvalue = 4118.0"] ;
387 -> 389 ;
390 [label="mse = 0.0\nsamples = 1\nvalue = 4098.0"] ;
386 -> 390 ;
391 [label="mse = 0.0\nsamples = 1\nvalue = 4023.0"] ;
385 -> 391 ;
392 [label="mse = 0.0\nsamples = 1\nvalue = 3831.0"] ;
382 -> 392 ;
393 [label="X[4] <= 5.5\nmse = 89797.04\nsamples = 5\nvalue = 3279.4"] ;
373 -> 393 ;
394 [label="X[7] <= 0.326\nmse = 18606.688\nsamples = 4\nvalue = 3416.25"] ;
393 -> 394 ;
395 [label="X[8] <= 0.357\nmse = 5810.889\nsamples = 3\nvalue = 3347.333"] ;
394 -> 395 ;
396 [label="mse = 0.0\nsamples = 1\nvalue = 3243.0"] ;
395 -> 396 ;
397 [label="X[9] <= 0.375\nmse = 552.25\nsamples = 2\nvalue = 3399.5"] ;
395 -> 397 ;
398 [label="mse = 0.0\nsamples = 1\nvalue = 3423.0"] ;
397 -> 398 ;
399 [label="mse = 0.0\nsamples = 1\nvalue = 3376.0"] ;
397 -> 399 ;
400 [label="mse = 0.0\nsamples = 1\nvalue = 3623.0"] ;
394 -> 400 ;
401 [label="mse = 0.0\nsamples = 1\nvalue = 2732.0"] ;
393 -> 401 ;
402 [label="X[9] <= 0.214\nmse = 70514.533\nsamples = 13\nvalue = 4458.923"] ;
372 -> 402 ;
403 [label="X[8] <= 0.578\nmse = 21346.694\nsamples = 7\nvalue = 4280.857"] ;
402 -> 403 ;
404 [label="X[7] <= 0.351\nmse = 12763.36\nsamples = 5\nvalue = 4349.2"] ;
403 -> 404 ;
405 [label="X[7] <= 0.347\nmse = 5550.25\nsamples = 2\nvalue = 4243.5"] ;
404 -> 405 ;
406 [label="mse = 0.0\nsamples = 1\nvalue = 4318.0"] ;
405 -> 406 ;
407 [label="mse = 0.0\nsamples = 1\nvalue = 4169.0"] ;
405 -> 407 ;
408 [label="X[7] <= 0.376\nmse = 5158.222\nsamples = 3\nvalue = 4419.667"] ;
404 -> 408 ;
409 [label="X[7] <= 0.357\nmse = 36.0\nsamples = 2\nvalue = 4369.0"] ;
408 -> 409 ;
410 [label="mse = 0.0\nsamples = 1\nvalue = 4375.0"] ;
409 -> 410 ;
411 [label="mse = 0.0\nsamples = 1\nvalue = 4363.0"] ;
409 -> 411 ;
412 [label="mse = 0.0\nsamples = 1\nvalue = 4521.0"] ;
408 -> 412 ;
413 [label="X[2] <= 2.5\nmse = 1936.0\nsamples = 2\nvalue = 4110.0"] ;
403 -> 413 ;
414 [label="mse = 0.0\nsamples = 1\nvalue = 4154.0"] ;
413 -> 414 ;
415 [label="mse = 0.0\nsamples = 1\nvalue = 4066.0"] ;
413 -> 415 ;
416 [label="X[2] <= 2.5\nmse = 47727.556\nsamples = 6\nvalue = 4666.667"] ;
402 -> 416 ;
417 [label="X[4] <= 2.5\nmse = 34229.556\nsamples = 3\nvalue = 4534.667"] ;
416 -> 417 ;
418 [label="X[9] <= 0.265\nmse = 8742.25\nsamples = 2\nvalue = 4415.5"] ;
417 -> 418 ;
419 [label="mse = 0.0\nsamples = 1\nvalue = 4509.0"] ;
418 -> 419 ;
420 [label="mse = 0.0\nsamples = 1\nvalue = 4322.0"] ;
418 -> 420 ;
421 [label="mse = 0.0\nsamples = 1\nvalue = 4773.0"] ;
417 -> 421 ;
422 [label="X[7] <= 0.407\nmse = 26377.556\nsamples = 3\nvalue = 4798.667"] ;
416 -> 422 ;
423 [label="X[5] <= 0.5\nmse = 6.25\nsamples = 2\nvalue = 4913.5"] ;
422 -> 423 ;
424 [label="mse = 0.0\nsamples = 1\nvalue = 4911.0"] ;
423 -> 424 ;
425 [label="mse = 0.0\nsamples = 1\nvalue = 4916.0"] ;
423 -> 425 ;
426 [label="mse = 0.0\nsamples = 1\nvalue = 4569.0"] ;
422 -> 426 ;
427 [label="X[5] <= 0.5\nmse = 504155.076\nsamples = 12\nvalue = 3339.583"] ;
371 -> 427 ;
428 [label="mse = 0.0\nsamples = 1\nvalue = 2294.0"] ;
427 -> 428 ;
429 [label="X[2] <= 1.5\nmse = 441566.413\nsamples = 11\nvalue = 3434.636"] ;
427 -> 429 ;
430 [label="X[8] <= 0.755\nmse = 224453.333\nsamples = 6\nvalue = 3750.0"] ;
429 -> 430 ;
431 [label="X[9] <= 0.346\nmse = 81241.556\nsamples = 3\nvalue = 3329.667"] ;
430 -> 431 ;
432 [label="X[9] <= 0.265\nmse = 5041.0\nsamples = 2\nvalue = 3527.0"] ;
431 -> 432 ;
433 [label="mse = 0.0\nsamples = 1\nvalue = 3598.0"] ;
432 -> 433 ;
434 [label="mse = 0.0\nsamples = 1\nvalue = 3456.0"] ;
432 -> 434 ;
435 [label="mse = 0.0\nsamples = 1\nvalue = 2935.0"] ;
431 -> 435 ;
436 [label="X[6] <= 1.5\nmse = 14304.889\nsamples = 3\nvalue = 4170.333"] ;
430 -> 436 ;
437 [label="mse = 0.0\nsamples = 1\nvalue = 4339.0"] ;
436 -> 437 ;
438 [label="X[7] <= 0.362\nmse = 121.0\nsamples = 2\nvalue = 4086.0"] ;
436 -> 438 ;
439 [label="mse = 0.0\nsamples = 1\nvalue = 4075.0"] ;
438 -> 439 ;
440 [label="mse = 0.0\nsamples = 1\nvalue = 4097.0"] ;
438 -> 440 ;
441 [label="X[8] <= 0.779\nmse = 439542.96\nsamples = 5\nvalue = 3056.2"] ;
429 -> 441 ;
442 [label="X[9] <= 0.166\nmse = 82624.688\nsamples = 4\nvalue = 3361.75"] ;
441 -> 442 ;
443 [label="X[2] <= 2.5\nmse = 8930.25\nsamples = 2\nvalue = 3099.5"] ;
442 -> 443 ;
444 [label="mse = 0.0\nsamples = 1\nvalue = 3005.0"] ;
443 -> 444 ;
445 [label="mse = 0.0\nsamples = 1\nvalue = 3194.0"] ;
443 -> 445 ;
446 [label="X[8] <= 0.705\nmse = 18769.0\nsamples = 2\nvalue = 3624.0"] ;
442 -> 446 ;
447 [label="mse = 0.0\nsamples = 1\nvalue = 3761.0"] ;
446 -> 447 ;
448 [label="mse = 0.0\nsamples = 1\nvalue = 3487.0"] ;
446 -> 448 ;
449 [label="mse = 0.0\nsamples = 1\nvalue = 1834.0"] ;
441 -> 449 ;
450 [label="mse = 0.0\nsamples = 1\nvalue = 1013.0"] ;
370 -> 450 ;
451 [label="X[8] <= 0.765\nmse = 1486498.519\nsamples = 61\nvalue = 4953.803"] ;
295 -> 451 ;
452 [label="X[7] <= 0.28\nmse = 939374.273\nsamples = 51\nvalue = 5213.039"] ;
451 -> 452 ;
453 [label="X[5] <= 0.5\nmse = 2036401.556\nsamples = 3\nvalue = 3358.667"] ;
452 -> 453 ;
454 [label="X[9] <= 0.264\nmse = 5402.25\nsamples = 2\nvalue = 2350.5"] ;
453 -> 454 ;
455 [label="mse = 0.0\nsamples = 1\nvalue = 2424.0"] ;
454 -> 455 ;
456 [label="mse = 0.0\nsamples = 1\nvalue = 2277.0"] ;
454 -> 456 ;
457 [label="mse = 0.0\nsamples = 1\nvalue = 5375.0"] ;
453 -> 457 ;
458 [label="X[9] <= 0.055\nmse = 642459.059\nsamples = 48\nvalue = 5328.938"] ;
452 -> 458 ;
459 [label="X[9] <= 0.05\nmse = 1771561.0\nsamples = 2\nvalue = 3756.0"] ;
458 -> 459 ;
460 [label="mse = 0.0\nsamples = 1\nvalue = 5087.0"] ;
459 -> 460 ;
461 [label="mse = 0.0\nsamples = 1\nvalue = 2425.0"] ;
459 -> 461 ;
462 [label="X[7] <= 0.386\nmse = 481119.698\nsamples = 46\nvalue = 5397.326"] ;
458 -> 462 ;
463 [label="X[8] <= 0.65\nmse = 252775.323\nsamples = 36\nvalue = 5248.194"] ;
462 -> 463 ;
464 [label="X[7] <= 0.367\nmse = 199194.249\nsamples = 28\nvalue = 5332.536"] ;
463 -> 464 ;
465 [label="X[7] <= 0.354\nmse = 85955.207\nsamples = 24\nvalue = 5425.958"] ;
464 -> 465 ;
466 [label="X[9] <= 0.182\nmse = 54172.299\nsamples = 21\nvalue = 5352.286"] ;
465 -> 466 ;
467 [label="X[4] <= 4.5\nmse = 42602.43\nsamples = 11\nvalue = 5469.455"] ;
466 -> 467 ;
468 [label="X[7] <= 0.324\nmse = 36533.388\nsamples = 7\nvalue = 5365.429"] ;
467 -> 468 ;
469 [label="X[9] <= 0.168\nmse = 19026.0\nsamples = 5\nvalue = 5461.0"] ;
468 -> 469 ;
470 [label="X[8] <= 0.588\nmse = 3419.556\nsamples = 3\nvalue = 5362.333"] ;
469 -> 470 ;
471 [label="mse = 4.0\nsamples = 2\nvalue = 5321.0"] ;
470 -> 471 ;
472 [label="mse = 0.0\nsamples = 1\nvalue = 5445.0"] ;
470 -> 472 ;
473 [label="X[4] <= 3.0\nmse = 5929.0\nsamples = 2\nvalue = 5609.0"] ;
469 -> 473 ;
474 [label="mse = 0.0\nsamples = 1\nvalue = 5686.0"] ;
473 -> 474 ;
475 [label="mse = 0.0\nsamples = 1\nvalue = 5532.0"] ;
473 -> 475 ;
476 [label="X[4] <= 1.5\nmse = 380.25\nsamples = 2\nvalue = 5126.5"] ;
468 -> 476 ;
477 [label="mse = 0.0\nsamples = 1\nvalue = 5107.0"] ;
476 -> 477 ;
478 [label="mse = 0.0\nsamples = 1\nvalue = 5146.0"] ;
476 -> 478 ;
479 [label="X[7] <= 0.335\nmse = 1145.25\nsamples = 4\nvalue = 5651.5"] ;
467 -> 479 ;
480 [label="X[9] <= 0.095\nmse = 566.0\nsamples = 3\nvalue = 5636.0"] ;
479 -> 480 ;
481 [label="mse = 0.0\nsamples = 1\nvalue = 5668.0"] ;
480 -> 481 ;
482 [label="X[5] <= 0.5\nmse = 81.0\nsamples = 2\nvalue = 5620.0"] ;
480 -> 482 ;
483 [label="mse = 0.0\nsamples = 1\nvalue = 5629.0"] ;
482 -> 483 ;
484 [label="mse = 0.0\nsamples = 1\nvalue = 5611.0"] ;
482 -> 484 ;
485 [label="mse = 0.0\nsamples = 1\nvalue = 5698.0"] ;
479 -> 485 ;
486 [label="X[8] <= 0.55\nmse = 35186.24\nsamples = 10\nvalue = 5223.4"] ;
466 -> 486 ;
487 [label="X[2] <= 7.5\nmse = 21275.918\nsamples = 7\nvalue = 5138.714"] ;
486 -> 487 ;
488 [label="X[4] <= 2.5\nmse = 14400.0\nsamples = 2\nvalue = 4982.0"] ;
487 -> 488 ;
489 [label="mse = 0.0\nsamples = 1\nvalue = 5102.0"] ;
488 -> 489 ;
490 [label="mse = 0.0\nsamples = 1\nvalue = 4862.0"] ;
488 -> 490 ;
491 [label="X[6] <= 1.5\nmse = 10273.04\nsamples = 5\nvalue = 5201.4"] ;
487 -> 491 ;
492 [label="X[7] <= 0.336\nmse = 684.667\nsamples = 3\nvalue = 5278.0"] ;
491 -> 492 ;
493 [label="mse = 0.25\nsamples = 2\nvalue = 5259.5"] ;
492 -> 493 ;
494 [label="mse = 0.0\nsamples = 1\nvalue = 5315.0"] ;
492 -> 494 ;
495 [label="X[9] <= 0.287\nmse = 2652.25\nsamples = 2\nvalue = 5086.5"] ;
491 -> 495 ;
496 [label="mse = 0.0\nsamples = 1\nvalue = 5138.0"] ;
495 -> 496 ;
497 [label="mse = 0.0\nsamples = 1\nvalue = 5035.0"] ;
495 -> 497 ;
498 [label="X[8] <= 0.611\nmse = 11864.0\nsamples = 3\nvalue = 5421.0"] ;
486 -> 498 ;
499 [label="X[2] <= 11.5\nmse = 9.0\nsamples = 2\nvalue = 5498.0"] ;
498 -> 499 ;
500 [label="mse = 0.0\nsamples = 1\nvalue = 5495.0"] ;
499 -> 500 ;
501 [label="mse = 0.0\nsamples = 1\nvalue = 5501.0"] ;
499 -> 501 ;
502 [label="mse = 0.0\nsamples = 1\nvalue = 5267.0"] ;
498 -> 502 ;
503 [label="X[9] <= 0.24\nmse = 4486.889\nsamples = 3\nvalue = 5941.667"] ;
465 -> 503 ;
504 [label="X[7] <= 0.364\nmse = 9.0\nsamples = 2\nvalue = 5989.0"] ;
503 -> 504 ;
505 [label="mse = 0.0\nsamples = 1\nvalue = 5992.0"] ;
504 -> 505 ;
506 [label="mse = 0.0\nsamples = 1\nvalue = 5986.0"] ;
504 -> 506 ;
507 [label="mse = 0.0\nsamples = 1\nvalue = 5847.0"] ;
503 -> 507 ;
508 [label="X[8] <= 0.575\nmse = 512061.5\nsamples = 4\nvalue = 4772.0"] ;
464 -> 508 ;
509 [label="X[0] <= 3.0\nmse = 24025.0\nsamples = 2\nvalue = 4065.0"] ;
508 -> 509 ;
510 [label="mse = 0.0\nsamples = 1\nvalue = 4220.0"] ;
509 -> 510 ;
511 [label="mse = 0.0\nsamples = 1\nvalue = 3910.0"] ;
509 -> 511 ;
512 [label="X[7] <= 0.375\nmse = 400.0\nsamples = 2\nvalue = 5479.0"] ;
508 -> 512 ;
513 [label="mse = 0.0\nsamples = 1\nvalue = 5459.0"] ;
512 -> 513 ;
514 [label="mse = 0.0\nsamples = 1\nvalue = 5499.0"] ;
512 -> 514 ;
515 [label="X[7] <= 0.35\nmse = 328272.25\nsamples = 8\nvalue = 4953.0"] ;
463 -> 515 ;
516 [label="X[9] <= 0.132\nmse = 169854.16\nsamples = 5\nvalue = 4589.2"] ;
515 -> 516 ;
517 [label="X[6] <= 1.5\nmse = 380.25\nsamples = 2\nvalue = 5027.5"] ;
516 -> 517 ;
518 [label="mse = 0.0\nsamples = 1\nvalue = 5047.0"] ;
517 -> 518 ;
519 [label="mse = 0.0\nsamples = 1\nvalue = 5008.0"] ;
517 -> 519 ;
520 [label="X[4] <= 1.0\nmse = 69384.667\nsamples = 3\nvalue = 4297.0"] ;
516 -> 520 ;
521 [label="mse = 0.0\nsamples = 1\nvalue = 4669.0"] ;
520 -> 521 ;
522 [label="X[4] <= 3.0\nmse = 289.0\nsamples = 2\nvalue = 4111.0"] ;
520 -> 522 ;
523 [label="mse = 0.0\nsamples = 1\nvalue = 4094.0"] ;
522 -> 523 ;
524 [label="mse = 0.0\nsamples = 1\nvalue = 4128.0"] ;
522 -> 524 ;
525 [label="X[8] <= 0.697\nmse = 4078.222\nsamples = 3\nvalue = 5559.333"] ;
515 -> 525 ;
526 [label="X[2] <= 10.5\nmse = 1156.0\nsamples = 2\nvalue = 5600.0"] ;
525 -> 526 ;
527 [label="mse = 0.0\nsamples = 1\nvalue = 5566.0"] ;
526 -> 527 ;
528 [label="mse = 0.0\nsamples = 1\nvalue = 5634.0"] ;
526 -> 528 ;
529 [label="mse = 0.0\nsamples = 1\nvalue = 5478.0"] ;
525 -> 529 ;
530 [label="X[4] <= 4.5\nmse = 934860.96\nsamples = 10\nvalue = 5934.2"] ;
462 -> 530 ;
531 [label="X[8] <= 0.692\nmse = 1018317.222\nsamples = 6\nvalue = 5500.333"] ;
530 -> 531 ;
532 [label="X[9] <= 0.15\nmse = 271238.24\nsamples = 5\nvalue = 5898.4"] ;
531 -> 532 ;
533 [label="mse = 0.0\nsamples = 1\nvalue = 6852.0"] ;
532 -> 533 ;
534 [label="X[7] <= 0.42\nmse = 54875.0\nsamples = 4\nvalue = 5660.0"] ;
532 -> 534 ;
535 [label="X[7] <= 0.404\nmse = 8650.667\nsamples = 3\nvalue = 5533.0"] ;
534 -> 535 ;
536 [label="mse = 0.0\nsamples = 1\nvalue = 5409.0"] ;
535 -> 536 ;
537 [label="X[7] <= 0.412\nmse = 1444.0\nsamples = 2\nvalue = 5595.0"] ;
535 -> 537 ;
538 [label="mse = 0.0\nsamples = 1\nvalue = 5557.0"] ;
537 -> 538 ;
539 [label="mse = 0.0\nsamples = 1\nvalue = 5633.0"] ;
537 -> 539 ;
540 [label="mse = 0.0\nsamples = 1\nvalue = 6041.0"] ;
534 -> 540 ;
541 [label="mse = 0.0\nsamples = 1\nvalue = 3510.0"] ;
531 -> 541 ;
542 [label="X[2] <= 7.0\nmse = 103775.5\nsamples = 4\nvalue = 6585.0"] ;
530 -> 542 ;
543 [label="X[4] <= 5.5\nmse = 12656.25\nsamples = 2\nvalue = 6347.5"] ;
542 -> 543 ;
544 [label="mse = 0.0\nsamples = 1\nvalue = 6460.0"] ;
543 -> 544 ;
545 [label="mse = 0.0\nsamples = 1\nvalue = 6235.0"] ;
543 -> 545 ;
546 [label="X[2] <= 10.5\nmse = 82082.25\nsamples = 2\nvalue = 6822.5"] ;
542 -> 546 ;
547 [label="mse = 0.0\nsamples = 1\nvalue = 7109.0"] ;
546 -> 547 ;
548 [label="mse = 0.0\nsamples = 1\nvalue = 6536.0"] ;
546 -> 548 ;
549 [label="X[2] <= 10.5\nmse = 2186138.41\nsamples = 10\nvalue = 3631.7"] ;
451 -> 549 ;
550 [label="X[8] <= 0.796\nmse = 1030406.0\nsamples = 3\nvalue = 1779.0"] ;
549 -> 550 ;
551 [label="mse = 0.0\nsamples = 1\nvalue = 3214.0"] ;
550 -> 551 ;
552 [label="X[0] <= 3.0\nmse = 1190.25\nsamples = 2\nvalue = 1061.5"] ;
550 -> 552 ;
553 [label="mse = 0.0\nsamples = 1\nvalue = 1027.0"] ;
552 -> 553 ;
554 [label="mse = 0.0\nsamples = 1\nvalue = 1096.0"] ;
552 -> 554 ;
555 [label="X[4] <= 4.0\nmse = 579923.347\nsamples = 7\nvalue = 4425.714"] ;
549 -> 555 ;
556 [label="X[9] <= 0.141\nmse = 279663.44\nsamples = 5\nvalue = 4041.4"] ;
555 -> 556 ;
557 [label="X[9] <= 0.113\nmse = 154140.667\nsamples = 3\nvalue = 4340.0"] ;
556 -> 557 ;
558 [label="X[9] <= 0.1\nmse = 159600.25\nsamples = 2\nvalue = 4185.5"] ;
557 -> 558 ;
559 [label="mse = 0.0\nsamples = 1\nvalue = 4585.0"] ;
558 -> 559 ;
560 [label="mse = 0.0\nsamples = 1\nvalue = 3786.0"] ;
558 -> 560 ;
561 [label="mse = 0.0\nsamples = 1\nvalue = 4649.0"] ;
557 -> 561 ;
562 [label="X[2] <= 11.5\nmse = 133590.25\nsamples = 2\nvalue = 3593.5"] ;
556 -> 562 ;
563 [label="mse = 0.0\nsamples = 1\nvalue = 3959.0"] ;
562 -> 563 ;
564 [label="mse = 0.0\nsamples = 1\nvalue = 3228.0"] ;
562 -> 564 ;
565 [label="X[8] <= 0.859\nmse = 38220.25\nsamples = 2\nvalue = 5386.5"] ;
555 -> 565 ;
566 [label="mse = 0.0\nsamples = 1\nvalue = 5191.0"] ;
565 -> 566 ;
567 [label="mse = 0.0\nsamples = 1\nvalue = 5582.0"] ;
565 -> 567 ;
568 [label="X[1] <= 0.5\nmse = 2313139.278\nsamples = 435\nvalue = 5502.271"] ;
0 -> 568 [labeldistance=2.5, labelangle=-45, headlabel="False"] ;
569 [label="X[6] <= 2.5\nmse = 702662.922\nsamples = 208\nvalue = 4295.327"] ;
568 -> 569 ;
570 [label="X[2] <= 4.5\nmse = 563373.378\nsamples = 200\nvalue = 4374.32"] ;
569 -> 570 ;
571 [label="X[2] <= 3.5\nmse = 518045.359\nsamples = 24\nvalue = 3564.125"] ;
570 -> 571 ;
572 [label="X[4] <= 4.5\nmse = 76373.76\nsamples = 5\nvalue = 2892.2"] ;
571 -> 572 ;
573 [label="X[9] <= 0.228\nmse = 12996.0\nsamples = 2\nvalue = 2589.0"] ;
572 -> 573 ;
574 [label="mse = 0.0\nsamples = 1\nvalue = 2703.0"] ;
573 -> 574 ;
575 [label="mse = 0.0\nsamples = 1\nvalue = 2475.0"] ;
573 -> 575 ;
576 [label="X[2] <= 2.5\nmse = 16480.889\nsamples = 3\nvalue = 3094.333"] ;
572 -> 576 ;
577 [label="mse = 0.0\nsamples = 1\nvalue = 2927.0"] ;
576 -> 577 ;
578 [label="X[5] <= 0.5\nmse = 3721.0\nsamples = 2\nvalue = 3178.0"] ;
576 -> 578 ;
579 [label="mse = 0.0\nsamples = 1\nvalue = 3117.0"] ;
578 -> 579 ;
580 [label="mse = 0.0\nsamples = 1\nvalue = 3239.0"] ;
578 -> 580 ;
581 [label="X[4] <= 5.5\nmse = 484197.208\nsamples = 19\nvalue = 3740.947"] ;
571 -> 581 ;
582 [label="X[7] <= 0.508\nmse = 378802.381\nsamples = 17\nvalue = 3631.176"] ;
581 -> 582 ;
583 [label="X[8] <= 0.705\nmse = 376255.102\nsamples = 7\nvalue = 3243.571"] ;
582 -> 583 ;
584 [label="X[8] <= 0.51\nmse = 154479.806\nsamples = 6\nvalue = 3445.167"] ;
583 -> 584 ;
585 [label="X[8] <= 0.443\nmse = 49506.25\nsamples = 2\nvalue = 3966.5"] ;
584 -> 585 ;
586 [label="mse = 0.0\nsamples = 1\nvalue = 4189.0"] ;
585 -> 586 ;
587 [label="mse = 0.0\nsamples = 1\nvalue = 3744.0"] ;
585 -> 587 ;
588 [label="X[9] <= 0.16\nmse = 3125.25\nsamples = 4\nvalue = 3184.5"] ;
584 -> 588 ;
589 [label="X[9] <= 0.134\nmse = 992.25\nsamples = 2\nvalue = 3235.5"] ;
588 -> 589 ;
590 [label="mse = 0.0\nsamples = 1\nvalue = 3267.0"] ;
589 -> 590 ;
591 [label="mse = 0.0\nsamples = 1\nvalue = 3204.0"] ;
589 -> 591 ;
592 [label="X[9] <= 0.194\nmse = 56.25\nsamples = 2\nvalue = 3133.5"] ;
588 -> 592 ;
593 [label="mse = 0.0\nsamples = 1\nvalue = 3141.0"] ;
592 -> 593 ;
594 [label="mse = 0.0\nsamples = 1\nvalue = 3126.0"] ;
592 -> 594 ;
595 [label="mse = 0.0\nsamples = 1\nvalue = 2034.0"] ;
583 -> 595 ;
596 [label="X[4] <= 1.5\nmse = 201802.65\nsamples = 10\nvalue = 3902.5"] ;
582 -> 596 ;
597 [label="X[8] <= 0.747\nmse = 179222.56\nsamples = 5\nvalue = 3631.2"] ;
596 -> 597 ;
598 [label="X[8] <= 0.484\nmse = 17716.222\nsamples = 3\nvalue = 3297.333"] ;
597 -> 598 ;
599 [label="mse = 0.0\nsamples = 1\nvalue = 3115.0"] ;
598 -> 599 ;
600 [label="X[9] <= 0.244\nmse = 1640.25\nsamples = 2\nvalue = 3388.5"] ;
598 -> 600 ;
601 [label="mse = 0.0\nsamples = 1\nvalue = 3429.0"] ;
600 -> 601 ;
602 [label="mse = 0.0\nsamples = 1\nvalue = 3348.0"] ;
600 -> 602 ;
603 [label="X[7] <= 0.594\nmse = 3481.0\nsamples = 2\nvalue = 4132.0"] ;
597 -> 603 ;
604 [label="mse = 0.0\nsamples = 1\nvalue = 4191.0"] ;
603 -> 604 ;
605 [label="mse = 0.0\nsamples = 1\nvalue = 4073.0"] ;
603 -> 605 ;
606 [label="X[7] <= 0.553\nmse = 77175.36\nsamples = 5\nvalue = 4173.8"] ;
596 -> 606 ;
607 [label="mse = 0.0\nsamples = 1\nvalue = 4595.0"] ;
606 -> 607 ;
608 [label="X[4] <= 2.5\nmse = 41028.75\nsamples = 4\nvalue = 4068.5"] ;
606 -> 608 ;
609 [label="mse = 0.0\nsamples = 1\nvalue = 4400.0"] ;
608 -> 609 ;
610 [label="X[9] <= 0.317\nmse = 5864.0\nsamples = 3\nvalue = 3958.0"] ;
608 -> 610 ;
611 [label="X[8] <= 0.725\nmse = 1296.0\nsamples = 2\nvalue = 3908.0"] ;
610 -> 611 ;
612 [label="mse = 0.0\nsamples = 1\nvalue = 3944.0"] ;
611 -> 612 ;
613 [label="mse = 0.0\nsamples = 1\nvalue = 3872.0"] ;
611 -> 613 ;
614 [label="mse = 0.0\nsamples = 1\nvalue = 4058.0"] ;
610 -> 614 ;
615 [label="X[6] <= 1.5\nmse = 407044.0\nsamples = 2\nvalue = 4674.0"] ;
581 -> 615 ;
616 [label="mse = 0.0\nsamples = 1\nvalue = 5312.0"] ;
615 -> 616 ;
617 [label="mse = 0.0\nsamples = 1\nvalue = 4036.0"] ;
615 -> 617 ;
618 [label="X[8] <= 0.756\nmse = 467837.125\nsamples = 176\nvalue = 4484.801"] ;
570 -> 618 ;
619 [label="X[7] <= 0.807\nmse = 290703.961\nsamples = 140\nvalue = 4636.157"] ;
618 -> 619 ;
620 [label="X[2] <= 10.5\nmse = 254571.711\nsamples = 134\nvalue = 4680.888"] ;
619 -> 620 ;
621 [label="X[8] <= 0.631\nmse = 219484.426\nsamples = 128\nvalue = 4721.742"] ;
620 -> 621 ;
622 [label="X[7] <= 0.751\nmse = 160506.857\nsamples = 59\nvalue = 4894.559"] ;
621 -> 622 ;
623 [label="X[7] <= 0.568\nmse = 139084.376\nsamples = 46\nvalue = 5006.565"] ;
622 -> 623 ;
624 [label="X[5] <= 0.5\nmse = 55192.777\nsamples = 11\nvalue = 4723.636"] ;
623 -> 624 ;
625 [label="X[2] <= 7.5\nmse = 43434.889\nsamples = 3\nvalue = 4990.667"] ;
624 -> 625 ;
626 [label="mse = 0.0\nsamples = 1\nvalue = 4714.0"] ;
625 -> 626 ;
627 [label="X[9] <= 0.27\nmse = 7744.0\nsamples = 2\nvalue = 5129.0"] ;
625 -> 627 ;
628 [label="mse = 0.0\nsamples = 1\nvalue = 5217.0"] ;
627 -> 628 ;
629 [label="mse = 0.0\nsamples = 1\nvalue = 5041.0"] ;
627 -> 629 ;
630 [label="X[9] <= 0.171\nmse = 22835.25\nsamples = 8\nvalue = 4623.5"] ;
624 -> 630 ;
631 [label="X[8] <= 0.622\nmse = 1761.688\nsamples = 4\nvalue = 4753.75"] ;
630 -> 631 ;
632 [label="X[9] <= 0.125\nmse = 368.667\nsamples = 3\nvalue = 4776.0"] ;
631 -> 632 ;
633 [label="mse = 0.0\nsamples = 1\nvalue = 4803.0"] ;
632 -> 633 ;
634 [label="X[2] <= 9.5\nmse = 6.25\nsamples = 2\nvalue = 4762.5"] ;
632 -> 634 ;
635 [label="mse = 0.0\nsamples = 1\nvalue = 4760.0"] ;
634 -> 635 ;
636 [label="mse = 0.0\nsamples = 1\nvalue = 4765.0"] ;
634 -> 636 ;
637 [label="mse = 0.0\nsamples = 1\nvalue = 4687.0"] ;
631 -> 637 ;
638 [label="X[4] <= 4.5\nmse = 9978.688\nsamples = 4\nvalue = 4493.25"] ;
630 -> 638 ;
639 [label="X[2] <= 7.5\nmse = 7452.667\nsamples = 3\nvalue = 4455.0"] ;
638 -> 639 ;
640 [label="X[9] <= 0.236\nmse = 1260.25\nsamples = 2\nvalue = 4397.5"] ;
639 -> 640 ;
641 [label="mse = 0.0\nsamples = 1\nvalue = 4362.0"] ;
640 -> 641 ;
642 [label="mse = 0.0\nsamples = 1\nvalue = 4433.0"] ;
640 -> 642 ;
643 [label="mse = 0.0\nsamples = 1\nvalue = 4570.0"] ;
639 -> 643 ;
644 [label="mse = 0.0\nsamples = 1\nvalue = 4608.0"] ;
638 -> 644 ;
645 [label="X[4] <= 5.5\nmse = 132385.278\nsamples = 35\nvalue = 5095.486"] ;
623 -> 645 ;
646 [label="X[8] <= 0.551\nmse = 108785.405\nsamples = 29\nvalue = 5021.207"] ;
645 -> 646 ;
647 [label="X[9] <= 0.266\nmse = 83625.396\nsamples = 15\nvalue = 5161.067"] ;
646 -> 647 ;
648 [label="X[7] <= 0.702\nmse = 79052.05\nsamples = 11\nvalue = 5252.636"] ;
647 -> 648 ;
649 [label="X[8] <= 0.464\nmse = 64057.388\nsamples = 7\nvalue = 5356.429"] ;
648 -> 649 ;
650 [label="mse = 58388.667\nsamples = 3\nvalue = 5574.0"] ;
649 -> 650 ;
651 [label="mse = 6178.688\nsamples = 4\nvalue = 5193.25"] ;
649 -> 651 ;
652 [label="X[2] <= 7.5\nmse = 53448.5\nsamples = 4\nvalue = 5071.0"] ;
648 -> 652 ;
653 [label="mse = 4692.25\nsamples = 2\nvalue = 5293.5"] ;
652 -> 653 ;
654 [label="mse = 3192.25\nsamples = 2\nvalue = 4848.5"] ;
652 -> 654 ;
655 [label="X[2] <= 7.0\nmse = 9731.688\nsamples = 4\nvalue = 4909.25"] ;
647 -> 655 ;
656 [label="X[9] <= 0.281\nmse = 2808.222\nsamples = 3\nvalue = 4959.667"] ;
655 -> 656 ;
657 [label="mse = 0.0\nsamples = 1\nvalue = 4891.0"] ;
656 -> 657 ;
658 [label="mse = 676.0\nsamples = 2\nvalue = 4994.0"] ;
656 -> 658 ;
659 [label="mse = 0.0\nsamples = 1\nvalue = 4758.0"] ;
655 -> 659 ;
660 [label="X[8] <= 0.591\nmse = 92329.658\nsamples = 14\nvalue = 4871.357"] ;
646 -> 660 ;
661 [label="X[9] <= 0.27\nmse = 36793.959\nsamples = 7\nvalue = 4703.429"] ;
660 -> 661 ;
662 [label="X[2] <= 6.5\nmse = 16389.0\nsamples = 6\nvalue = 4765.0"] ;
661 -> 662 ;
663 [label="mse = 0.0\nsamples = 1\nvalue = 4991.0"] ;
662 -> 663 ;
664 [label="mse = 7408.56\nsamples = 5\nvalue = 4719.8"] ;
662 -> 664 ;
665 [label="mse = 0.0\nsamples = 1\nvalue = 4334.0"] ;
661 -> 665 ;
666 [label="X[0] <= 2.5\nmse = 91465.347\nsamples = 7\nvalue = 5039.286"] ;
660 -> 666 ;
667 [label="X[4] <= 1.5\nmse = 20306.25\nsamples = 2\nvalue = 4690.5"] ;
666 -> 667 ;
668 [label="mse = 0.0\nsamples = 1\nvalue = 4548.0"] ;
667 -> 668 ;
669 [label="mse = 0.0\nsamples = 1\nvalue = 4833.0"] ;
667 -> 669 ;
670 [label="X[2] <= 7.5\nmse = 51804.16\nsamples = 5\nvalue = 5178.8"] ;
666 -> 670 ;
671 [label="mse = 13924.0\nsamples = 2\nvalue = 5420.0"] ;
670 -> 671 ;
672 [label="mse = 12416.0\nsamples = 3\nvalue = 5018.0"] ;
670 -> 672 ;
673 [label="X[7] <= 0.691\nmse = 90892.917\nsamples = 6\nvalue = 5454.5"] ;
645 -> 673 ;
674 [label="X[8] <= 0.521\nmse = 62872.667\nsamples = 3\nvalue = 5690.0"] ;
673 -> 674 ;
675 [label="mse = 0.0\nsamples = 1\nvalue = 5342.0"] ;
674 -> 675 ;
676 [label="X[8] <= 0.606\nmse = 3481.0\nsamples = 2\nvalue = 5864.0"] ;
674 -> 676 ;
677 [label="mse = 0.0\nsamples = 1\nvalue = 5923.0"] ;
676 -> 677 ;
678 [label="mse = 0.0\nsamples = 1\nvalue = 5805.0"] ;
676 -> 678 ;
679 [label="X[8] <= 0.546\nmse = 7992.667\nsamples = 3\nvalue = 5219.0"] ;
673 -> 679 ;
680 [label="X[9] <= 0.162\nmse = 1722.25\nsamples = 2\nvalue = 5160.5"] ;
679 -> 680 ;
681 [label="mse = 0.0\nsamples = 1\nvalue = 5119.0"] ;
680 -> 681 ;
682 [label="mse = 0.0\nsamples = 1\nvalue = 5202.0"] ;
680 -> 682 ;
683 [label="mse = 0.0\nsamples = 1\nvalue = 5336.0"] ;
679 -> 683 ;
684 [label="X[9] <= 0.2\nmse = 34842.024\nsamples = 13\nvalue = 4498.231"] ;
622 -> 684 ;
685 [label="X[4] <= 1.5\nmse = 19299.76\nsamples = 10\nvalue = 4426.2"] ;
684 -> 685 ;
686 [label="X[9] <= 0.161\nmse = 608.0\nsamples = 3\nvalue = 4298.0"] ;
685 -> 686 ;
687 [label="mse = 0.0\nsamples = 1\nvalue = 4266.0"] ;
686 -> 687 ;
688 [label="X[4] <= 0.5\nmse = 144.0\nsamples = 2\nvalue = 4314.0"] ;
686 -> 688 ;
689 [label="mse = 0.0\nsamples = 1\nvalue = 4302.0"] ;
688 -> 689 ;
690 [label="mse = 0.0\nsamples = 1\nvalue = 4326.0"] ;
688 -> 690 ;
691 [label="X[7] <= 0.775\nmse = 17248.122\nsamples = 7\nvalue = 4481.143"] ;
685 -> 691 ;
692 [label="X[9] <= 0.167\nmse = 896.889\nsamples = 3\nvalue = 4614.667"] ;
691 -> 692 ;
693 [label="X[4] <= 3.5\nmse = 64.0\nsamples = 2\nvalue = 4594.0"] ;
692 -> 693 ;
694 [label="mse = 0.0\nsamples = 1\nvalue = 4602.0"] ;
693 -> 694 ;
695 [label="mse = 0.0\nsamples = 1\nvalue = 4586.0"] ;
693 -> 695 ;
696 [label="mse = 0.0\nsamples = 1\nvalue = 4656.0"] ;
692 -> 696 ;
697 [label="X[9] <= 0.189\nmse = 6111.5\nsamples = 4\nvalue = 4381.0"] ;
691 -> 697 ;
698 [label="X[4] <= 5.0\nmse = 1424.667\nsamples = 3\nvalue = 4422.0"] ;
697 -> 698 ;
699 [label="X[2] <= 6.5\nmse = 30.25\nsamples = 2\nvalue = 4395.5"] ;
698 -> 699 ;
700 [label="mse = 0.0\nsamples = 1\nvalue = 4401.0"] ;
699 -> 700 ;
701 [label="mse = 0.0\nsamples = 1\nvalue = 4390.0"] ;
699 -> 701 ;
702 [label="mse = 0.0\nsamples = 1\nvalue = 4475.0"] ;
698 -> 702 ;
703 [label="mse = 0.0\nsamples = 1\nvalue = 4258.0"] ;
697 -> 703 ;
704 [label="X[2] <= 7.5\nmse = 11705.556\nsamples = 3\nvalue = 4738.333"] ;
684 -> 704 ;
705 [label="mse = 0.0\nsamples = 1\nvalue = 4590.0"] ;
704 -> 705 ;
706 [label="X[7] <= 0.775\nmse = 1056.25\nsamples = 2\nvalue = 4812.5"] ;
704 -> 706 ;
707 [label="mse = 0.0\nsamples = 1\nvalue = 4780.0"] ;
706 -> 707 ;
708 [label="mse = 0.0\nsamples = 1\nvalue = 4845.0"] ;
706 -> 708 ;
709 [label="X[9] <= 0.106\nmse = 222540.811\nsamples = 69\nvalue = 4573.971"] ;
621 -> 709 ;
710 [label="X[7] <= 0.713\nmse = 226430.173\nsamples = 9\nvalue = 5116.222"] ;
709 -> 710 ;
711 [label="X[8] <= 0.697\nmse = 133948.734\nsamples = 8\nvalue = 5000.375"] ;
710 -> 711 ;
712 [label="X[4] <= 3.0\nmse = 83133.76\nsamples = 5\nvalue = 4793.2"] ;
711 -> 712 ;
713 [label="X[2] <= 5.5\nmse = 34920.222\nsamples = 3\nvalue = 4596.667"] ;
712 -> 713 ;
714 [label="mse = 0.0\nsamples = 1\nvalue = 4333.0"] ;
713 -> 714 ;
715 [label="X[9] <= 0.095\nmse = 240.25\nsamples = 2\nvalue = 4728.5"] ;
713 -> 715 ;
716 [label="mse = 0.0\nsamples = 1\nvalue = 4713.0"] ;
715 -> 716 ;
717 [label="mse = 0.0\nsamples = 1\nvalue = 4744.0"] ;
715 -> 717 ;
718 [label="X[7] <= 0.604\nmse = 10609.0\nsamples = 2\nvalue = 5088.0"] ;
712 -> 718 ;
719 [label="mse = 0.0\nsamples = 1\nvalue = 4985.0"] ;
718 -> 719 ;
720 [label="mse = 0.0\nsamples = 1\nvalue = 5191.0"] ;
718 -> 720 ;
721 [label="X[9] <= 0.044\nmse = 27878.222\nsamples = 3\nvalue = 5345.667"] ;
711 -> 721 ;
722 [label="mse = 0.0\nsamples = 1\nvalue = 5117.0"] ;
721 -> 722 ;
723 [label="X[8] <= 0.714\nmse = 2601.0\nsamples = 2\nvalue = 5460.0"] ;
721 -> 723 ;
724 [label="mse = 0.0\nsamples = 1\nvalue = 5409.0"] ;
723 -> 724 ;
725 [label="mse = 0.0\nsamples = 1\nvalue = 5511.0"] ;
723 -> 725 ;
726 [label="mse = 0.0\nsamples = 1\nvalue = 6043.0"] ;
710 -> 726 ;
727 [label="X[6] <= 1.5\nmse = 171236.132\nsamples = 60\nvalue = 4492.633"] ;
709 -> 727 ;
728 [label="X[7] <= 0.71\nmse = 138928.0\nsamples = 39\nvalue = 4603.0"] ;
727 -> 728 ;
729 [label="X[8] <= 0.638\nmse = 94200.854\nsamples = 25\nvalue = 4749.84"] ;
728 -> 729 ;
730 [label="X[2] <= 7.5\nmse = 42.25\nsamples = 2\nvalue = 4188.5"] ;
729 -> 730 ;
731 [label="mse = 0.0\nsamples = 1\nvalue = 4182.0"] ;
730 -> 731 ;
732 [label="mse = 0.0\nsamples = 1\nvalue = 4195.0"] ;
730 -> 732 ;
733 [label="X[9] <= 0.159\nmse = 72605.705\nsamples = 23\nvalue = 4798.652"] ;
729 -> 733 ;
734 [label="X[7] <= 0.652\nmse = 38551.556\nsamples = 9\nvalue = 4976.333"] ;
733 -> 734 ;
735 [label="X[4] <= 3.5\nmse = 9132.5\nsamples = 4\nvalue = 4796.0"] ;
734 -> 735 ;
736 [label="mse = 2652.25\nsamples = 2\nvalue = 4711.5"] ;
735 -> 736 ;
737 [label="mse = 1332.25\nsamples = 2\nvalue = 4880.5"] ;
735 -> 737 ;
738 [label="X[8] <= 0.734\nmse = 15257.84\nsamples = 5\nvalue = 5120.6"] ;
734 -> 738 ;
739 [label="mse = 3336.25\nsamples = 4\nvalue = 5064.5"] ;
738 -> 739 ;
740 [label="mse = 0.0\nsamples = 1\nvalue = 5345.0"] ;
738 -> 740 ;
741 [label="X[8] <= 0.648\nmse = 61155.245\nsamples = 14\nvalue = 4684.429"] ;
733 -> 741 ;
742 [label="mse = 0.0\nsamples = 1\nvalue = 5202.0"] ;
741 -> 742 ;
743 [label="X[4] <= 2.5\nmse = 43668.237\nsamples = 13\nvalue = 4644.615"] ;
741 -> 743 ;
744 [label="mse = 54850.24\nsamples = 5\nvalue = 4493.6"] ;
743 -> 744 ;
745 [label="mse = 13517.5\nsamples = 8\nvalue = 4739.0"] ;
743 -> 745 ;
746 [label="X[2] <= 7.5\nmse = 111538.026\nsamples = 14\nvalue = 4340.786"] ;
728 -> 746 ;
747 [label="X[2] <= 5.5\nmse = 72189.521\nsamples = 12\nvalue = 4431.75"] ;
746 -> 747 ;
748 [label="X[3] <= 0.5\nmse = 3364.0\nsamples = 2\nvalue = 4040.0"] ;
747 -> 748 ;
749 [label="mse = 0.0\nsamples = 1\nvalue = 3982.0"] ;
748 -> 749 ;
750 [label="mse = 0.0\nsamples = 1\nvalue = 4098.0"] ;
748 -> 750 ;
751 [label="X[5] <= 0.5\nmse = 49122.29\nsamples = 10\nvalue = 4510.1"] ;
747 -> 751 ;
752 [label="mse = 0.0\nsamples = 1\nvalue = 4966.0"] ;
751 -> 752 ;
753 [label="X[9] <= 0.249\nmse = 28920.469\nsamples = 9\nvalue = 4459.444"] ;
751 -> 753 ;
754 [label="mse = 12923.859\nsamples = 8\nvalue = 4506.125"] ;
753 -> 754 ;
755 [label="mse = 0.0\nsamples = 1\nvalue = 4086.0"] ;
753 -> 755 ;
756 [label="X[5] <= 0.5\nmse = 100.0\nsamples = 2\nvalue = 3795.0"] ;
746 -> 756 ;
757 [label="mse = 0.0\nsamples = 1\nvalue = 3785.0"] ;
756 -> 757 ;
758 [label="mse = 0.0\nsamples = 1\nvalue = 3805.0"] ;
756 -> 758 ;
759 [label="X[4] <= 2.5\nmse = 166604.127\nsamples = 21\nvalue = 4287.667"] ;
727 -> 759 ;
760 [label="X[8] <= 0.744\nmse = 58617.432\nsamples = 9\nvalue = 4544.889"] ;
759 -> 760 ;
761 [label="X[9] <= 0.145\nmse = 25710.938\nsamples = 8\nvalue = 4611.75"] ;
760 -> 761 ;
762 [label="X[8] <= 0.655\nmse = 7307.556\nsamples = 3\nvalue = 4787.333"] ;
761 -> 762 ;
763 [label="mse = 0.0\nsamples = 1\nvalue = 4906.0"] ;
762 -> 763 ;
764 [label="X[8] <= 0.68\nmse = 400.0\nsamples = 2\nvalue = 4728.0"] ;
762 -> 764 ;
765 [label="mse = 0.0\nsamples = 1\nvalue = 4708.0"] ;
764 -> 765 ;
766 [label="mse = 0.0\nsamples = 1\nvalue = 4748.0"] ;
764 -> 766 ;
767 [label="X[0] <= 2.5\nmse = 7156.64\nsamples = 5\nvalue = 4506.4"] ;
761 -> 767 ;
768 [label="X[9] <= 0.195\nmse = 1384.667\nsamples = 3\nvalue = 4448.0"] ;
767 -> 768 ;
769 [label="mse = 0.0\nsamples = 1\nvalue = 4401.0"] ;
768 -> 769 ;
770 [label="mse = 420.25\nsamples = 2\nvalue = 4471.5"] ;
768 -> 770 ;
771 [label="X[8] <= 0.686\nmse = 3025.0\nsamples = 2\nvalue = 4594.0"] ;
767 -> 771 ;
772 [label="mse = 0.0\nsamples = 1\nvalue = 4649.0"] ;
771 -> 772 ;
773 [label="mse = 0.0\nsamples = 1\nvalue = 4539.0"] ;
771 -> 773 ;
774 [label="mse = 0.0\nsamples = 1\nvalue = 4010.0"] ;
760 -> 774 ;
775 [label="X[8] <= 0.717\nmse = 160754.854\nsamples = 12\nvalue = 4094.75"] ;
759 -> 775 ;
776 [label="X[2] <= 7.0\nmse = 174191.222\nsamples = 6\nvalue = 3901.333"] ;
775 -> 776 ;
777 [label="X[0] <= 2.5\nmse = 195026.0\nsamples = 3\nvalue = 4177.0"] ;
776 -> 777 ;
778 [label="X[9] <= 0.207\nmse = 10712.25\nsamples = 2\nvalue = 3870.5"] ;
777 -> 778 ;
779 [label="mse = 0.0\nsamples = 1\nvalue = 3767.0"] ;
778 -> 779 ;
780 [label="mse = 0.0\nsamples = 1\nvalue = 3974.0"] ;
778 -> 780 ;
781 [label="mse = 0.0\nsamples = 1\nvalue = 4790.0"] ;
777 -> 781 ;
782 [label="X[8] <= 0.683\nmse = 1372.222\nsamples = 3\nvalue = 3625.667"] ;
776 -> 782 ;
783 [label="mse = 0.0\nsamples = 1\nvalue = 3574.0"] ;
782 -> 783 ;
784 [label="X[7] <= 0.564\nmse = 56.25\nsamples = 2\nvalue = 3651.5"] ;
782 -> 784 ;
785 [label="mse = 0.0\nsamples = 1\nvalue = 3644.0"] ;
784 -> 785 ;
786 [label="mse = 0.0\nsamples = 1\nvalue = 3659.0"] ;
784 -> 786 ;
787 [label="X[0] <= 3.5\nmse = 72498.472\nsamples = 6\nvalue = 4288.167"] ;
775 -> 787 ;
788 [label="X[2] <= 8.5\nmse = 49710.0\nsamples = 5\nvalue = 4367.0"] ;
787 -> 788 ;
789 [label="X[7] <= 0.701\nmse = 4514.0\nsamples = 3\nvalue = 4199.0"] ;
788 -> 789 ;
790 [label="mse = 2.25\nsamples = 2\nvalue = 4151.5"] ;
789 -> 790 ;
791 [label="mse = 0.0\nsamples = 1\nvalue = 4294.0"] ;
789 -> 791 ;
792 [label="X[9] <= 0.165\nmse = 11664.0\nsamples = 2\nvalue = 4619.0"] ;
788 -> 792 ;
793 [label="mse = 0.0\nsamples = 1\nvalue = 4727.0"] ;
792 -> 793 ;
794 [label="mse = 0.0\nsamples = 1\nvalue = 4511.0"] ;
792 -> 794 ;
795 [label="mse = 0.0\nsamples = 1\nvalue = 3894.0"] ;
787 -> 795 ;
796 [label="X[7] <= 0.517\nmse = 207886.222\nsamples = 6\nvalue = 3809.333"] ;
620 -> 796 ;
797 [label="X[8] <= 0.721\nmse = 89640.688\nsamples = 4\nvalue = 3543.75"] ;
796 -> 797 ;
798 [label="X[8] <= 0.691\nmse = 73080.667\nsamples = 3\nvalue = 3436.0"] ;
797 -> 798 ;
799 [label="X[7] <= 0.452\nmse = 9702.25\nsamples = 2\nvalue = 3618.5"] ;
798 -> 799 ;
800 [label="mse = 0.0\nsamples = 1\nvalue = 3717.0"] ;
799 -> 800 ;
801 [label="mse = 0.0\nsamples = 1\nvalue = 3520.0"] ;
799 -> 801 ;
802 [label="mse = 0.0\nsamples = 1\nvalue = 3071.0"] ;
798 -> 802 ;
803 [label="mse = 0.0\nsamples = 1\nvalue = 3867.0"] ;
797 -> 803 ;
804 [label="X[4] <= 1.5\nmse = 21170.25\nsamples = 2\nvalue = 4340.5"] ;
796 -> 804 ;
805 [label="mse = 0.0\nsamples = 1\nvalue = 4486.0"] ;
804 -> 805 ;
806 [label="mse = 0.0\nsamples = 1\nvalue = 4195.0"] ;
804 -> 806 ;
807 [label="X[7] <= 0.843\nmse = 54989.806\nsamples = 6\nvalue = 3637.167"] ;
619 -> 807 ;
808 [label="X[4] <= 2.0\nmse = 13158.188\nsamples = 4\nvalue = 3787.75"] ;
807 -> 808 ;
809 [label="mse = 0.0\nsamples = 1\nvalue = 3606.0"] ;
808 -> 809 ;
810 [label="X[7] <= 0.812\nmse = 2862.889\nsamples = 3\nvalue = 3848.333"] ;
808 -> 810 ;
811 [label="mse = 0.0\nsamples = 1\nvalue = 3915.0"] ;
810 -> 811 ;
812 [label="X[4] <= 4.5\nmse = 961.0\nsamples = 2\nvalue = 3815.0"] ;
810 -> 812 ;
813 [label="mse = 0.0\nsamples = 1\nvalue = 3784.0"] ;
812 -> 813 ;
814 [label="mse = 0.0\nsamples = 1\nvalue = 3846.0"] ;
812 -> 814 ;
815 [label="X[9] <= 0.132\nmse = 2601.0\nsamples = 2\nvalue = 3336.0"] ;
807 -> 815 ;
816 [label="mse = 0.0\nsamples = 1\nvalue = 3285.0"] ;
815 -> 816 ;
817 [label="mse = 0.0\nsamples = 1\nvalue = 3387.0"] ;
815 -> 817 ;
818 [label="X[9] <= 0.307\nmse = 721141.323\nsamples = 36\nvalue = 3896.194"] ;
618 -> 818 ;
819 [label="X[8] <= 0.947\nmse = 469396.045\nsamples = 34\nvalue = 4017.118"] ;
818 -> 819 ;
820 [label="X[9] <= 0.087\nmse = 401468.623\nsamples = 33\nvalue = 4066.273"] ;
819 -> 820 ;
821 [label="X[4] <= 5.5\nmse = 97001.556\nsamples = 3\nvalue = 5031.333"] ;
820 -> 821 ;
822 [label="X[4] <= 2.5\nmse = 30450.25\nsamples = 2\nvalue = 4835.5"] ;
821 -> 822 ;
823 [label="mse = 0.0\nsamples = 1\nvalue = 5010.0"] ;
822 -> 823 ;
824 [label="mse = 0.0\nsamples = 1\nvalue = 4661.0"] ;
822 -> 824 ;
825 [label="mse = 0.0\nsamples = 1\nvalue = 5423.0"] ;
821 -> 825 ;
826 [label="X[7] <= 0.491\nmse = 329467.712\nsamples = 30\nvalue = 3969.767"] ;
820 -> 826 ;
827 [label="X[6] <= 1.5\nmse = 336816.688\nsamples = 4\nvalue = 3277.75"] ;
826 -> 827 ;
828 [label="mse = 0.0\nsamples = 1\nvalue = 4187.0"] ;
827 -> 828 ;
829 [label="X[2] <= 7.5\nmse = 81650.889\nsamples = 3\nvalue = 2974.667"] ;
827 -> 829 ;
830 [label="mse = 0.0\nsamples = 1\nvalue = 3351.0"] ;
829 -> 830 ;
831 [label="X[7] <= 0.464\nmse = 16256.25\nsamples = 2\nvalue = 2786.5"] ;
829 -> 831 ;
832 [label="mse = 0.0\nsamples = 1\nvalue = 2914.0"] ;
831 -> 832 ;
833 [label="mse = 0.0\nsamples = 1\nvalue = 2659.0"] ;
831 -> 833 ;
834 [label="X[8] <= 0.869\nmse = 243327.562\nsamples = 26\nvalue = 4076.231"] ;
826 -> 834 ;
835 [label="X[3] <= 0.5\nmse = 177444.201\nsamples = 18\nvalue = 4186.278"] ;
834 -> 835 ;
836 [label="X[7] <= 0.683\nmse = 144427.419\nsamples = 17\nvalue = 4235.412"] ;
835 -> 836 ;
837 [label="X[9] <= 0.218\nmse = 115868.188\nsamples = 12\nvalue = 4344.25"] ;
836 -> 837 ;
838 [label="X[7] <= 0.642\nmse = 109750.543\nsamples = 9\nvalue = 4434.889"] ;
837 -> 838 ;
839 [label="X[7] <= 0.572\nmse = 85836.806\nsamples = 6\nvalue = 4276.833"] ;
838 -> 839 ;
840 [label="mse = 39506.0\nsamples = 4\nvalue = 4449.0"] ;
839 -> 840 ;
841 [label="mse = 650.25\nsamples = 2\nvalue = 3932.5"] ;
839 -> 841 ;
842 [label="X[0] <= 3.5\nmse = 7688.667\nsamples = 3\nvalue = 4751.0"] ;
838 -> 842 ;
843 [label="mse = 552.25\nsamples = 2\nvalue = 4811.5"] ;
842 -> 843 ;
844 [label="mse = 0.0\nsamples = 1\nvalue = 4630.0"] ;
842 -> 844 ;
845 [label="X[5] <= 0.5\nmse = 35636.222\nsamples = 3\nvalue = 4072.333"] ;
837 -> 845 ;
846 [label="mse = 0.0\nsamples = 1\nvalue = 3820.0"] ;
845 -> 846 ;
847 [label="X[8] <= 0.824\nmse = 5700.25\nsamples = 2\nvalue = 4198.5"] ;
845 -> 847 ;
848 [label="mse = 0.0\nsamples = 1\nvalue = 4274.0"] ;
847 -> 848 ;
849 [label="mse = 0.0\nsamples = 1\nvalue = 4123.0"] ;
847 -> 849 ;
850 [label="X[8] <= 0.764\nmse = 116308.16\nsamples = 5\nvalue = 3974.2"] ;
836 -> 850 ;
851 [label="X[2] <= 7.5\nmse = 96554.667\nsamples = 3\nvalue = 4152.0"] ;
850 -> 851 ;
852 [label="X[4] <= 3.0\nmse = 10000.0\nsamples = 2\nvalue = 3940.0"] ;
851 -> 852 ;
853 [label="mse = 0.0\nsamples = 1\nvalue = 3840.0"] ;
852 -> 853 ;
854 [label="mse = 0.0\nsamples = 1\nvalue = 4040.0"] ;
852 -> 854 ;
855 [label="mse = 0.0\nsamples = 1\nvalue = 4576.0"] ;
851 -> 855 ;
856 [label="X[6] <= 1.5\nmse = 27390.25\nsamples = 2\nvalue = 3707.5"] ;
850 -> 856 ;
857 [label="mse = 0.0\nsamples = 1\nvalue = 3873.0"] ;
856 -> 857 ;
858 [label="mse = 0.0\nsamples = 1\nvalue = 3542.0"] ;
856 -> 858 ;
859 [label="mse = 0.0\nsamples = 1\nvalue = 3351.0"] ;
835 -> 859 ;
860 [label="X[7] <= 0.592\nmse = 303008.234\nsamples = 8\nvalue = 3828.625"] ;
834 -> 860 ;
861 [label="X[0] <= 3.5\nmse = 122618.75\nsamples = 4\nvalue = 3454.5"] ;
860 -> 861 ;
862 [label="X[9] <= 0.135\nmse = 33170.667\nsamples = 3\nvalue = 3635.0"] ;
861 -> 862 ;
863 [label="mse = 0.0\nsamples = 1\nvalue = 3409.0"] ;
862 -> 863 ;
864 [label="X[2] <= 7.0\nmse = 11449.0\nsamples = 2\nvalue = 3748.0"] ;
862 -> 864 ;
865 [label="mse = 0.0\nsamples = 1\nvalue = 3855.0"] ;
864 -> 865 ;
866 [label="mse = 0.0\nsamples = 1\nvalue = 3641.0"] ;
864 -> 866 ;
867 [label="mse = 0.0\nsamples = 1\nvalue = 2913.0"] ;
861 -> 867 ;
868 [label="X[7] <= 0.643\nmse = 203458.688\nsamples = 4\nvalue = 4202.75"] ;
860 -> 868 ;
869 [label="X[9] <= 0.123\nmse = 78410.889\nsamples = 3\nvalue = 4422.333"] ;
868 -> 869 ;
870 [label="X[9] <= 0.107\nmse = 13456.0\nsamples = 2\nvalue = 4236.0"] ;
869 -> 870 ;
871 [label="mse = 0.0\nsamples = 1\nvalue = 4352.0"] ;
870 -> 871 ;
872 [label="mse = 0.0\nsamples = 1\nvalue = 4120.0"] ;
870 -> 872 ;
873 [label="mse = 0.0\nsamples = 1\nvalue = 4795.0"] ;
869 -> 873 ;
874 [label="mse = 0.0\nsamples = 1\nvalue = 3544.0"] ;
868 -> 874 ;
875 [label="mse = 0.0\nsamples = 1\nvalue = 2395.0"] ;
819 -> 875 ;
876 [label="X[4] <= 4.5\nmse = 526350.25\nsamples = 2\nvalue = 1840.5"] ;
818 -> 876 ;
877 [label="mse = 0.0\nsamples = 1\nvalue = 2566.0"] ;
876 -> 877 ;
878 [label="mse = 0.0\nsamples = 1\nvalue = 1115.0"] ;
876 -> 878 ;
879 [label="X[4] <= 2.5\nmse = 128962.5\nsamples = 8\nvalue = 2320.5"] ;
569 -> 879 ;
880 [label="X[8] <= 0.93\nmse = 5080.222\nsamples = 3\nvalue = 2689.667"] ;
879 -> 880 ;
881 [label="X[7] <= 0.494\nmse = 756.25\nsamples = 2\nvalue = 2737.5"] ;
880 -> 881 ;
882 [label="mse = 0.0\nsamples = 1\nvalue = 2765.0"] ;
881 -> 882 ;
883 [label="mse = 0.0\nsamples = 1\nvalue = 2710.0"] ;
881 -> 883 ;
884 [label="mse = 0.0\nsamples = 1\nvalue = 2594.0"] ;
880 -> 884 ;
885 [label="X[9] <= 0.218\nmse = 72459.2\nsamples = 5\nvalue = 2099.0"] ;
879 -> 885 ;
886 [label="X[8] <= 0.924\nmse = 6264.667\nsamples = 3\nvalue = 1885.0"] ;
885 -> 886 ;
887 [label="mse = 0.0\nsamples = 1\nvalue = 1996.0"] ;
886 -> 887 ;
888 [label="X[7] <= 0.545\nmse = 156.25\nsamples = 2\nvalue = 1829.5"] ;
886 -> 888 ;
889 [label="mse = 0.0\nsamples = 1\nvalue = 1817.0"] ;
888 -> 889 ;
890 [label="mse = 0.0\nsamples = 1\nvalue = 1842.0"] ;
888 -> 890 ;
891 [label="X[9] <= 0.246\nmse = 16.0\nsamples = 2\nvalue = 2420.0"] ;
885 -> 891 ;
892 [label="mse = 0.0\nsamples = 1\nvalue = 2424.0"] ;
891 -> 892 ;
893 [label="mse = 0.0\nsamples = 1\nvalue = 2416.0"] ;
891 -> 893 ;
894 [label="X[8] <= 0.832\nmse = 1230966.341\nsamples = 227\nvalue = 6608.194"] ;
568 -> 894 ;
895 [label="X[2] <= 5.5\nmse = 893302.284\nsamples = 216\nvalue = 6726.176"] ;
894 -> 895 ;
896 [label="X[4] <= 4.5\nmse = 883909.16\nsamples = 71\nvalue = 6221.282"] ;
895 -> 896 ;
897 [label="X[6] <= 1.5\nmse = 714903.494\nsamples = 55\nvalue = 5960.182"] ;
896 -> 897 ;
898 [label="X[7] <= 0.535\nmse = 457016.637\nsamples = 38\nvalue = 6183.684"] ;
897 -> 898 ;
899 [label="X[0] <= 1.5\nmse = 374478.469\nsamples = 18\nvalue = 5787.444"] ;
898 -> 899 ;
900 [label="X[9] <= 0.19\nmse = 79313.76\nsamples = 5\nvalue = 5062.2"] ;
899 -> 900 ;
901 [label="mse = 0.0\nsamples = 1\nvalue = 4579.0"] ;
900 -> 901 ;
902 [label="X[9] <= 0.334\nmse = 26179.0\nsamples = 4\nvalue = 5183.0"] ;
900 -> 902 ;
903 [label="X[8] <= 0.522\nmse = 17304.889\nsamples = 3\nvalue = 5116.667"] ;
902 -> 903 ;
904 [label="mse = 0.0\nsamples = 1\nvalue = 5298.0"] ;
903 -> 904 ;
905 [label="X[7] <= 0.47\nmse = 1296.0\nsamples = 2\nvalue = 5026.0"] ;
903 -> 905 ;
906 [label="mse = 0.0\nsamples = 1\nvalue = 5062.0"] ;
905 -> 906 ;
907 [label="mse = 0.0\nsamples = 1\nvalue = 4990.0"] ;
905 -> 907 ;
908 [label="mse = 0.0\nsamples = 1\nvalue = 5382.0"] ;
902 -> 908 ;
909 [label="X[9] <= 0.226\nmse = 207895.929\nsamples = 13\nvalue = 6066.385"] ;
899 -> 909 ;
910 [label="X[9] <= 0.109\nmse = 40480.56\nsamples = 5\nvalue = 6458.8"] ;
909 -> 910 ;
911 [label="X[9] <= 0.083\nmse = 10712.25\nsamples = 2\nvalue = 6668.5"] ;
910 -> 911 ;
912 [label="mse = 0.0\nsamples = 1\nvalue = 6565.0"] ;
911 -> 912 ;
913 [label="mse = 0.0\nsamples = 1\nvalue = 6772.0"] ;
911 -> 913 ;
914 [label="X[4] <= 3.5\nmse = 11466.0\nsamples = 3\nvalue = 6319.0"] ;
910 -> 914 ;
915 [label="X[8] <= 0.507\nmse = 2916.0\nsamples = 2\nvalue = 6250.0"] ;
914 -> 915 ;
916 [label="mse = 0.0\nsamples = 1\nvalue = 6196.0"] ;
915 -> 916 ;
917 [label="mse = 0.0\nsamples = 1\nvalue = 6304.0"] ;
915 -> 917 ;
918 [label="mse = 0.0\nsamples = 1\nvalue = 6457.0"] ;
914 -> 918 ;
919 [label="X[4] <= 3.5\nmse = 156134.609\nsamples = 8\nvalue = 5821.125"] ;
909 -> 919 ;
920 [label="X[9] <= 0.241\nmse = 66626.333\nsamples = 6\nvalue = 5644.0"] ;
919 -> 920 ;
921 [label="mse = 0.0\nsamples = 1\nvalue = 5169.0"] ;
920 -> 921 ;
922 [label="X[9] <= 0.335\nmse = 25801.6\nsamples = 5\nvalue = 5739.0"] ;
920 -> 922 ;
923 [label="X[4] <= 2.5\nmse = 11707.556\nsamples = 3\nvalue = 5850.667"] ;
922 -> 923 ;
924 [label="X[9] <= 0.281\nmse = 81.0\nsamples = 2\nvalue = 5927.0"] ;
923 -> 924 ;
925 [label="mse = 0.0\nsamples = 1\nvalue = 5918.0"] ;
924 -> 925 ;
926 [label="mse = 0.0\nsamples = 1\nvalue = 5936.0"] ;
924 -> 926 ;
927 [label="mse = 0.0\nsamples = 1\nvalue = 5698.0"] ;
923 -> 927 ;
928 [label="X[7] <= 0.468\nmse = 182.25\nsamples = 2\nvalue = 5571.5"] ;
922 -> 928 ;
929 [label="mse = 0.0\nsamples = 1\nvalue = 5558.0"] ;
928 -> 929 ;
930 [label="mse = 0.0\nsamples = 1\nvalue = 5585.0"] ;
928 -> 930 ;
931 [label="X[8] <= 0.496\nmse = 48180.25\nsamples = 2\nvalue = 6352.5"] ;
919 -> 931 ;
932 [label="mse = 0.0\nsamples = 1\nvalue = 6133.0"] ;
931 -> 932 ;
933 [label="mse = 0.0\nsamples = 1\nvalue = 6572.0"] ;
931 -> 933 ;
934 [label="X[8] <= 0.546\nmse = 262820.81\nsamples = 20\nvalue = 6540.3"] ;
898 -> 934 ;
935 [label="X[7] <= 0.583\nmse = 162137.102\nsamples = 7\nvalue = 6917.429"] ;
934 -> 935 ;
936 [label="X[8] <= 0.488\nmse = 3844.0\nsamples = 2\nvalue = 6374.0"] ;
935 -> 936 ;
937 [label="mse = 0.0\nsamples = 1\nvalue = 6436.0"] ;
936 -> 937 ;
938 [label="mse = 0.0\nsamples = 1\nvalue = 6312.0"] ;
936 -> 938 ;
939 [label="X[9] <= 0.264\nmse = 60078.16\nsamples = 5\nvalue = 7134.8"] ;
935 -> 939 ;
940 [label="X[5] <= 0.5\nmse = 13548.188\nsamples = 4\nvalue = 7245.75"] ;
939 -> 940 ;
941 [label="X[9] <= 0.24\nmse = 2.25\nsamples = 2\nvalue = 7130.5"] ;
940 -> 941 ;
942 [label="mse = 0.0\nsamples = 1\nvalue = 7132.0"] ;
941 -> 942 ;
943 [label="mse = 0.0\nsamples = 1\nvalue = 7129.0"] ;
941 -> 943 ;
944 [label="X[8] <= 0.506\nmse = 529.0\nsamples = 2\nvalue = 7361.0"] ;
940 -> 944 ;
945 [label="mse = 0.0\nsamples = 1\nvalue = 7338.0"] ;
944 -> 945 ;
946 [label="mse = 0.0\nsamples = 1\nvalue = 7384.0"] ;
944 -> 946 ;
947 [label="mse = 0.0\nsamples = 1\nvalue = 6691.0"] ;
939 -> 947 ;
948 [label="X[4] <= 2.5\nmse = 199214.793\nsamples = 13\nvalue = 6337.231"] ;
934 -> 948 ;
949 [label="X[4] <= 1.5\nmse = 63593.688\nsamples = 8\nvalue = 6119.75"] ;
948 -> 949 ;
950 [label="X[9] <= 0.206\nmse = 40047.6\nsamples = 5\nvalue = 6255.0"] ;
949 -> 950 ;
951 [label="X[5] <= 0.5\nmse = 3025.0\nsamples = 2\nvalue = 6098.0"] ;
950 -> 951 ;
952 [label="mse = 0.0\nsamples = 1\nvalue = 6043.0"] ;
951 -> 952 ;
953 [label="mse = 0.0\nsamples = 1\nvalue = 6153.0"] ;
951 -> 953 ;
954 [label="X[7] <= 0.638\nmse = 37341.556\nsamples = 3\nvalue = 6359.667"] ;
950 -> 954 ;
955 [label="mse = 0.0\nsamples = 1\nvalue = 6118.0"] ;
954 -> 955 ;
956 [label="X[4] <= 0.5\nmse = 12210.25\nsamples = 2\nvalue = 6480.5"] ;
954 -> 956 ;
957 [label="mse = 0.0\nsamples = 1\nvalue = 6591.0"] ;
956 -> 957 ;
958 [label="mse = 0.0\nsamples = 1\nvalue = 6370.0"] ;
956 -> 958 ;
959 [label="X[8] <= 0.746\nmse = 21536.889\nsamples = 3\nvalue = 5894.333"] ;
949 -> 959 ;
960 [label="X[7] <= 0.644\nmse = 2704.0\nsamples = 2\nvalue = 5795.0"] ;
959 -> 960 ;
961 [label="mse = 0.0\nsamples = 1\nvalue = 5847.0"] ;
960 -> 961 ;
962 [label="mse = 0.0\nsamples = 1\nvalue = 5743.0"] ;
960 -> 962 ;
963 [label="mse = 0.0\nsamples = 1\nvalue = 6093.0"] ;
959 -> 963 ;
964 [label="X[9] <= 0.13\nmse = 219449.36\nsamples = 5\nvalue = 6685.2"] ;
948 -> 964 ;
965 [label="X[2] <= 4.0\nmse = 76452.25\nsamples = 2\nvalue = 7147.5"] ;
964 -> 965 ;
966 [label="mse = 0.0\nsamples = 1\nvalue = 6871.0"] ;
965 -> 966 ;
967 [label="mse = 0.0\nsamples = 1\nvalue = 7424.0"] ;
965 -> 967 ;
968 [label="X[7] <= 0.61\nmse = 77312.667\nsamples = 3\nvalue = 6377.0"] ;
964 -> 968 ;
969 [label="X[4] <= 3.5\nmse = 132.25\nsamples = 2\nvalue = 6180.5"] ;
968 -> 969 ;
970 [label="mse = 0.0\nsamples = 1\nvalue = 6169.0"] ;
969 -> 970 ;
971 [label="mse = 0.0\nsamples = 1\nvalue = 6192.0"] ;
969 -> 971 ;
972 [label="mse = 0.0\nsamples = 1\nvalue = 6770.0"] ;
968 -> 972 ;
973 [label="X[9] <= 0.162\nmse = 930102.36\nsamples = 17\nvalue = 5460.588"] ;
897 -> 973 ;
974 [label="X[8] <= 0.771\nmse = 278347.654\nsamples = 9\nvalue = 5993.889"] ;
973 -> 974 ;
975 [label="X[4] <= 2.5\nmse = 138147.04\nsamples = 5\nvalue = 6289.6"] ;
974 -> 975 ;
976 [label="X[8] <= 0.7\nmse = 63982.889\nsamples = 3\nvalue = 6057.333"] ;
975 -> 976 ;
977 [label="mse = 0.0\nsamples = 1\nvalue = 5740.0"] ;
976 -> 977 ;
978 [label="X[4] <= 1.0\nmse = 20449.0\nsamples = 2\nvalue = 6216.0"] ;
976 -> 978 ;
979 [label="mse = 0.0\nsamples = 1\nvalue = 6359.0"] ;
978 -> 979 ;
980 [label="mse = 0.0\nsamples = 1\nvalue = 6073.0"] ;
978 -> 980 ;
981 [label="X[8] <= 0.719\nmse = 47089.0\nsamples = 2\nvalue = 6638.0"] ;
975 -> 981 ;
982 [label="mse = 0.0\nsamples = 1\nvalue = 6855.0"] ;
981 -> 982 ;
983 [label="mse = 0.0\nsamples = 1\nvalue = 6421.0"] ;
981 -> 983 ;
984 [label="X[7] <= 0.572\nmse = 207659.188\nsamples = 4\nvalue = 5624.25"] ;
974 -> 984 ;
985 [label="X[5] <= 0.5\nmse = 28561.0\nsamples = 2\nvalue = 6061.0"] ;
984 -> 985 ;
986 [label="mse = 0.0\nsamples = 1\nvalue = 5892.0"] ;
985 -> 986 ;
987 [label="mse = 0.0\nsamples = 1\nvalue = 6230.0"] ;
985 -> 987 ;
988 [label="X[8] <= 0.785\nmse = 5256.25\nsamples = 2\nvalue = 5187.5"] ;
984 -> 988 ;
989 [label="mse = 0.0\nsamples = 1\nvalue = 5260.0"] ;
988 -> 989 ;
990 [label="mse = 0.0\nsamples = 1\nvalue = 5115.0"] ;
988 -> 990 ;
991 [label="X[8] <= 0.773\nmse = 983409.734\nsamples = 8\nvalue = 4860.625"] ;
973 -> 991 ;
992 [label="X[4] <= 2.5\nmse = 414511.583\nsamples = 6\nvalue = 5280.5"] ;
991 -> 992 ;
993 [label="X[7] <= 0.501\nmse = 90306.889\nsamples = 3\nvalue = 5857.667"] ;
992 -> 993 ;
994 [label="mse = 0.0\nsamples = 1\nvalue = 5572.0"] ;
993 -> 994 ;
995 [label="X[9] <= 0.263\nmse = 74256.25\nsamples = 2\nvalue = 6000.5"] ;
993 -> 995 ;
996 [label="mse = 0.0\nsamples = 1\nvalue = 6273.0"] ;
995 -> 996 ;
997 [label="mse = 0.0\nsamples = 1\nvalue = 5728.0"] ;
995 -> 997 ;
998 [label="X[7] <= 0.481\nmse = 72473.556\nsamples = 3\nvalue = 4703.333"] ;
992 -> 998 ;
999 [label="mse = 0.0\nsamples = 1\nvalue = 4367.0"] ;
998 -> 999 ;
1000 [label="X[9] <= 0.197\nmse = 23870.25\nsamples = 2\nvalue = 4871.5"] ;
998 -> 1000 ;
1001 [label="mse = 0.0\nsamples = 1\nvalue = 5026.0"] ;
1000 -> 1001 ;
1002 [label="mse = 0.0\nsamples = 1\nvalue = 4717.0"] ;
1000 -> 1002 ;
1003 [label="X[7] <= 0.586\nmse = 574564.0\nsamples = 2\nvalue = 3601.0"] ;
991 -> 1003 ;
1004 [label="mse = 0.0\nsamples = 1\nvalue = 2843.0"] ;
1003 -> 1004 ;
1005 [label="mse = 0.0\nsamples = 1\nvalue = 4359.0"] ;
1003 -> 1005 ;
1006 [label="X[9] <= 0.139\nmse = 424959.402\nsamples = 16\nvalue = 7118.812"] ;
896 -> 1006 ;
1007 [label="X[7] <= 0.582\nmse = 132403.6\nsamples = 5\nvalue = 7912.0"] ;
1006 -> 1007 ;
1008 [label="X[8] <= 0.502\nmse = 27617.556\nsamples = 3\nvalue = 7634.667"] ;
1007 -> 1008 ;
1009 [label="mse = 0.0\nsamples = 1\nvalue = 7429.0"] ;
1008 -> 1009 ;
1010 [label="X[4] <= 5.5\nmse = 9702.25\nsamples = 2\nvalue = 7737.5"] ;
1008 -> 1010 ;
1011 [label="mse = 0.0\nsamples = 1\nvalue = 7639.0"] ;
1010 -> 1011 ;
1012 [label="mse = 0.0\nsamples = 1\nvalue = 7836.0"] ;
1010 -> 1012 ;
1013 [label="X[5] <= 0.5\nmse = 1156.0\nsamples = 2\nvalue = 8328.0"] ;
1007 -> 1013 ;
1014 [label="mse = 0.0\nsamples = 1\nvalue = 8294.0"] ;
1013 -> 1014 ;
1015 [label="mse = 0.0\nsamples = 1\nvalue = 8362.0"] ;
1013 -> 1015 ;
1016 [label="X[9] <= 0.316\nmse = 141974.744\nsamples = 11\nvalue = 6758.273"] ;
1006 -> 1016 ;
1017 [label="X[7] <= 0.552\nmse = 125821.96\nsamples = 10\nvalue = 6810.8"] ;
1016 -> 1017 ;
1018 [label="X[7] <= 0.469\nmse = 135841.6\nsamples = 5\nvalue = 7007.0"] ;
1017 -> 1018 ;
1019 [label="X[5] <= 0.5\nmse = 52670.25\nsamples = 2\nvalue = 6627.5"] ;
1018 -> 1019 ;
1020 [label="mse = 0.0\nsamples = 1\nvalue = 6857.0"] ;
1019 -> 1020 ;
1021 [label="mse = 0.0\nsamples = 1\nvalue = 6398.0"] ;
1019 -> 1021 ;
1022 [label="X[2] <= 4.5\nmse = 31266.667\nsamples = 3\nvalue = 7260.0"] ;
1018 -> 1022 ;
1023 [label="X[8] <= 0.599\nmse = 7225.0\nsamples = 2\nvalue = 7375.0"] ;
1022 -> 1023 ;
1024 [label="mse = 0.0\nsamples = 1\nvalue = 7460.0"] ;
1023 -> 1024 ;
1025 [label="mse = 0.0\nsamples = 1\nvalue = 7290.0"] ;
1023 -> 1025 ;
1026 [label="mse = 0.0\nsamples = 1\nvalue = 7030.0"] ;
1022 -> 1026 ;
1027 [label="X[9] <= 0.158\nmse = 38813.44\nsamples = 5\nvalue = 6614.6"] ;
1017 -> 1027 ;
1028 [label="X[8] <= 0.752\nmse = 5550.25\nsamples = 2\nvalue = 6808.5"] ;
1027 -> 1028 ;
1029 [label="mse = 0.0\nsamples = 1\nvalue = 6734.0"] ;
1028 -> 1029 ;
1030 [label="mse = 0.0\nsamples = 1\nvalue = 6883.0"] ;
1028 -> 1030 ;
1031 [label="X[5] <= 0.5\nmse = 19214.222\nsamples = 3\nvalue = 6485.333"] ;
1027 -> 1031 ;
1032 [label="X[2] <= 4.5\nmse = 1936.0\nsamples = 2\nvalue = 6580.0"] ;
1031 -> 1032 ;
1033 [label="mse = 0.0\nsamples = 1\nvalue = 6624.0"] ;
1032 -> 1033 ;
1034 [label="mse = 0.0\nsamples = 1\nvalue = 6536.0"] ;
1032 -> 1034 ;
1035 [label="mse = 0.0\nsamples = 1\nvalue = 6296.0"] ;
1031 -> 1035 ;
1036 [label="mse = 0.0\nsamples = 1\nvalue = 6233.0"] ;
1016 -> 1036 ;
1037 [label="X[7] <= 0.765\nmse = 711959.923\nsamples = 145\nvalue = 6973.4"] ;
895 -> 1037 ;
1038 [label="X[8] <= 0.694\nmse = 611536.926\nsamples = 124\nvalue = 7112.54"] ;
1037 -> 1038 ;
1039 [label="X[4] <= 2.5\nmse = 279698.73\nsamples = 90\nvalue = 7366.678"] ;
1038 -> 1039 ;
1040 [label="X[7] <= 0.64\nmse = 182736.777\nsamples = 37\nvalue = 7079.919"] ;
1039 -> 1040 ;
1041 [label="X[8] <= 0.577\nmse = 170267.219\nsamples = 19\nvalue = 7314.789"] ;
1040 -> 1041 ;
1042 [label="X[7] <= 0.466\nmse = 132512.178\nsamples = 13\nvalue = 7479.231"] ;
1041 -> 1042 ;
1043 [label="mse = 0.0\nsamples = 1\nvalue = 6824.0"] ;
1042 -> 1043 ;
1044 [label="X[5] <= 0.5\nmse = 104796.139\nsamples = 12\nvalue = 7533.833"] ;
1042 -> 1044 ;
1045 [label="X[9] <= 0.204\nmse = 108758.0\nsamples = 4\nvalue = 7777.0"] ;
1044 -> 1045 ;
1046 [label="X[7] <= 0.591\nmse = 23716.0\nsamples = 2\nvalue = 7487.0"] ;
1045 -> 1046 ;
1047 [label="mse = 0.0\nsamples = 1\nvalue = 7333.0"] ;
1046 -> 1047 ;
1048 [label="mse = 0.0\nsamples = 1\nvalue = 7641.0"] ;
1046 -> 1048 ;
1049 [label="X[9] <= 0.224\nmse = 25600.0\nsamples = 2\nvalue = 8067.0"] ;
1045 -> 1049 ;
1050 [label="mse = 0.0\nsamples = 1\nvalue = 7907.0"] ;
1049 -> 1050 ;
1051 [label="mse = 0.0\nsamples = 1\nvalue = 8227.0"] ;
1049 -> 1051 ;
1052 [label="X[4] <= 1.5\nmse = 58467.688\nsamples = 8\nvalue = 7412.25"] ;
1044 -> 1052 ;
1053 [label="X[0] <= 2.5\nmse = 52629.188\nsamples = 4\nvalue = 7254.25"] ;
1052 -> 1053 ;
1054 [label="mse = 0.0\nsamples = 1\nvalue = 6998.0"] ;
1053 -> 1054 ;
1055 [label="X[2] <= 9.5\nmse = 40988.222\nsamples = 3\nvalue = 7339.667"] ;
1053 -> 1055 ;
1056 [label="X[8] <= 0.498\nmse = 1980.25\nsamples = 2\nvalue = 7480.5"] ;
1055 -> 1056 ;
1057 [label="mse = 0.0\nsamples = 1\nvalue = 7436.0"] ;
1056 -> 1057 ;
1058 [label="mse = 0.0\nsamples = 1\nvalue = 7525.0"] ;
1056 -> 1058 ;
1059 [label="mse = 0.0\nsamples = 1\nvalue = 7058.0"] ;
1055 -> 1059 ;
1060 [label="X[9] <= 0.137\nmse = 14378.188\nsamples = 4\nvalue = 7570.25"] ;
1052 -> 1060 ;
1061 [label="mse = 0.0\nsamples = 1\nvalue = 7767.0"] ;
1060 -> 1061 ;
1062 [label="X[7] <= 0.59\nmse = 1966.222\nsamples = 3\nvalue = 7504.667"] ;
1060 -> 1062 ;
1063 [label="X[2] <= 9.5\nmse = 4.0\nsamples = 2\nvalue = 7536.0"] ;
1062 -> 1063 ;
1064 [label="mse = 0.0\nsamples = 1\nvalue = 7538.0"] ;
1063 -> 1064 ;
1065 [label="mse = 0.0\nsamples = 1\nvalue = 7534.0"] ;
1063 -> 1065 ;
1066 [label="mse = 0.0\nsamples = 1\nvalue = 7442.0"] ;
1062 -> 1066 ;
1067 [label="X[4] <= 1.5\nmse = 66538.917\nsamples = 6\nvalue = 6958.5"] ;
1041 -> 1067 ;
1068 [label="X[7] <= 0.524\nmse = 16061.5\nsamples = 4\nvalue = 6821.0"] ;
1067 -> 1068 ;
1069 [label="X[6] <= 1.5\nmse = 4830.25\nsamples = 2\nvalue = 6708.5"] ;
1068 -> 1069 ;
1070 [label="mse = 0.0\nsamples = 1\nvalue = 6639.0"] ;
1069 -> 1070 ;
1071 [label="mse = 0.0\nsamples = 1\nvalue = 6778.0"] ;
1069 -> 1071 ;
1072 [label="X[7] <= 0.56\nmse = 1980.25\nsamples = 2\nvalue = 6933.5"] ;
1068 -> 1072 ;
1073 [label="mse = 0.0\nsamples = 1\nvalue = 6889.0"] ;
1072 -> 1073 ;
1074 [label="mse = 0.0\nsamples = 1\nvalue = 6978.0"] ;
1072 -> 1074 ;
1075 [label="X[0] <= 3.0\nmse = 54056.25\nsamples = 2\nvalue = 7233.5"] ;
1067 -> 1075 ;
1076 [label="mse = 0.0\nsamples = 1\nvalue = 7001.0"] ;
1075 -> 1076 ;
1077 [label="mse = 0.0\nsamples = 1\nvalue = 7466.0"] ;
1075 -> 1077 ;
1078 [label="X[7] <= 0.727\nmse = 76206.444\nsamples = 18\nvalue = 6832.0"] ;
1040 -> 1078 ;
1079 [label="X[6] <= 1.5\nmse = 35054.231\nsamples = 11\nvalue = 6685.364"] ;
1078 -> 1079 ;
1080 [label="X[5] <= 0.5\nmse = 22470.5\nsamples = 8\nvalue = 6752.0"] ;
1079 -> 1080 ;
1081 [label="X[2] <= 7.5\nmse = 636.222\nsamples = 3\nvalue = 6579.667"] ;
1080 -> 1081 ;
1082 [label="X[0] <= 2.5\nmse = 0.25\nsamples = 2\nvalue = 6597.5"] ;
1081 -> 1082 ;
1083 [label="mse = 0.0\nsamples = 1\nvalue = 6598.0"] ;
1082 -> 1083 ;
1084 [label="mse = 0.0\nsamples = 1\nvalue = 6597.0"] ;
1082 -> 1084 ;
1085 [label="mse = 0.0\nsamples = 1\nvalue = 6544.0"] ;
1081 -> 1085 ;
1086 [label="X[7] <= 0.669\nmse = 7060.24\nsamples = 5\nvalue = 6855.4"] ;
1080 -> 1086 ;
1087 [label="mse = 0.0\nsamples = 1\nvalue = 7006.0"] ;
1086 -> 1087 ;
1088 [label="X[9] <= 0.142\nmse = 1737.688\nsamples = 4\nvalue = 6817.75"] ;
1086 -> 1088 ;
1089 [label="mse = 0.0\nsamples = 1\nvalue = 6883.0"] ;
1088 -> 1089 ;
1090 [label="X[0] <= 2.5\nmse = 424.667\nsamples = 3\nvalue = 6796.0"] ;
1088 -> 1090 ;
1091 [label="mse = 0.0\nsamples = 1\nvalue = 6825.0"] ;
1090 -> 1091 ;
1092 [label="X[8] <= 0.595\nmse = 6.25\nsamples = 2\nvalue = 6781.5"] ;
1090 -> 1092 ;
1093 [label="mse = 0.0\nsamples = 1\nvalue = 6779.0"] ;
1092 -> 1093 ;
1094 [label="mse = 0.0\nsamples = 1\nvalue = 6784.0"] ;
1092 -> 1094 ;
1095 [label="X[9] <= 0.166\nmse = 25193.556\nsamples = 3\nvalue = 6507.667"] ;
1079 -> 1095 ;
1096 [label="mse = 0.0\nsamples = 1\nvalue = 6290.0"] ;
1095 -> 1096 ;
1097 [label="X[8] <= 0.636\nmse = 2256.25\nsamples = 2\nvalue = 6616.5"] ;
1095 -> 1097 ;
1098 [label="mse = 0.0\nsamples = 1\nvalue = 6664.0"] ;
1097 -> 1098 ;
1099 [label="mse = 0.0\nsamples = 1\nvalue = 6569.0"] ;
1097 -> 1099 ;
1100 [label="X[9] <= 0.201\nmse = 53987.673\nsamples = 7\nvalue = 7062.429"] ;
1078 -> 1100 ;
1101 [label="X[7] <= 0.736\nmse = 8454.472\nsamples = 6\nvalue = 6974.167"] ;
1100 -> 1101 ;
1102 [label="X[2] <= 7.5\nmse = 1056.25\nsamples = 2\nvalue = 7072.5"] ;
1101 -> 1102 ;
1103 [label="mse = 0.0\nsamples = 1\nvalue = 7105.0"] ;
1102 -> 1103 ;
1104 [label="mse = 0.0\nsamples = 1\nvalue = 7040.0"] ;
1102 -> 1104 ;
1105 [label="X[9] <= 0.142\nmse = 4901.5\nsamples = 4\nvalue = 6925.0"] ;
1101 -> 1105 ;
1106 [label="X[9] <= 0.134\nmse = 552.25\nsamples = 2\nvalue = 6989.5"] ;
1105 -> 1106 ;
1107 [label="mse = 0.0\nsamples = 1\nvalue = 7013.0"] ;
1106 -> 1107 ;
1108 [label="mse = 0.0\nsamples = 1\nvalue = 6966.0"] ;
1106 -> 1108 ;
1109 [label="X[8] <= 0.562\nmse = 930.25\nsamples = 2\nvalue = 6860.5"] ;
1105 -> 1109 ;
1110 [label="mse = 0.0\nsamples = 1\nvalue = 6891.0"] ;
1109 -> 1110 ;
1111 [label="mse = 0.0\nsamples = 1\nvalue = 6830.0"] ;
1109 -> 1111 ;
1112 [label="mse = 0.0\nsamples = 1\nvalue = 7592.0"] ;
1100 -> 1112 ;
1113 [label="X[2] <= 11.0\nmse = 249906.756\nsamples = 53\nvalue = 7566.868"] ;
1039 -> 1113 ;
1114 [label="X[7] <= 0.74\nmse = 188506.59\nsamples = 52\nvalue = 7602.212"] ;
1113 -> 1114 ;
1115 [label="X[5] <= 0.5\nmse = 125450.721\nsamples = 45\nvalue = 7692.889"] ;
1114 -> 1115 ;
1116 [label="X[9] <= 0.183\nmse = 163726.36\nsamples = 10\nvalue = 8036.2"] ;
1115 -> 1116 ;
1117 [label="X[8] <= 0.554\nmse = 55228.64\nsamples = 5\nvalue = 7722.6"] ;
1116 -> 1117 ;
1118 [label="X[7] <= 0.671\nmse = 11416.889\nsamples = 3\nvalue = 7552.667"] ;
1117 -> 1118 ;
1119 [label="mse = 0.0\nsamples = 1\nvalue = 7702.0"] ;
1118 -> 1119 ;
1120 [label="X[8] <= 0.486\nmse = 400.0\nsamples = 2\nvalue = 7478.0"] ;
1118 -> 1120 ;
1121 [label="mse = 0.0\nsamples = 1\nvalue = 7498.0"] ;
1120 -> 1121 ;
1122 [label="mse = 0.0\nsamples = 1\nvalue = 7458.0"] ;
1120 -> 1122 ;
1123 [label="X[8] <= 0.588\nmse = 12656.25\nsamples = 2\nvalue = 7977.5"] ;
1117 -> 1123 ;
1124 [label="mse = 0.0\nsamples = 1\nvalue = 8090.0"] ;
1123 -> 1124 ;
1125 [label="mse = 0.0\nsamples = 1\nvalue = 7865.0"] ;
1123 -> 1125 ;
1126 [label="X[8] <= 0.546\nmse = 75534.16\nsamples = 5\nvalue = 8349.8"] ;
1116 -> 1126 ;
1127 [label="X[7] <= 0.575\nmse = 6320.25\nsamples = 2\nvalue = 8634.5"] ;
1126 -> 1127 ;
1128 [label="mse = 0.0\nsamples = 1\nvalue = 8555.0"] ;
1127 -> 1128 ;
1129 [label="mse = 0.0\nsamples = 1\nvalue = 8714.0"] ;
1127 -> 1129 ;
1130 [label="X[9] <= 0.276\nmse = 31616.667\nsamples = 3\nvalue = 8160.0"] ;
1126 -> 1130 ;
1131 [label="X[9] <= 0.227\nmse = 6006.25\nsamples = 2\nvalue = 8042.5"] ;
1130 -> 1131 ;
1132 [label="mse = 0.0\nsamples = 1\nvalue = 8120.0"] ;
1131 -> 1132 ;
1133 [label="mse = 0.0\nsamples = 1\nvalue = 7965.0"] ;
1131 -> 1133 ;
1134 [label="mse = 0.0\nsamples = 1\nvalue = 8395.0"] ;
1130 -> 1134 ;
1135 [label="X[9] <= 0.223\nmse = 71218.389\nsamples = 35\nvalue = 7594.8"] ;
1115 -> 1135 ;
1136 [label="X[8] <= 0.457\nmse = 67846.143\nsamples = 29\nvalue = 7639.172"] ;
1135 -> 1136 ;
1137 [label="mse = 0.0\nsamples = 1\nvalue = 8173.0"] ;
1136 -> 1137 ;
1138 [label="X[2] <= 8.5\nmse = 59728.167\nsamples = 28\nvalue = 7620.107"] ;
1136 -> 1138 ;
1139 [label="X[7] <= 0.578\nmse = 36681.716\nsamples = 15\nvalue = 7521.533"] ;
1138 -> 1139 ;
1140 [label="mse = 0.0\nsamples = 1\nvalue = 7055.0"] ;
1139 -> 1140 ;
1141 [label="X[4] <= 3.5\nmse = 22644.694\nsamples = 14\nvalue = 7554.857"] ;
1139 -> 1141 ;
1142 [label="mse = 25741.04\nsamples = 5\nvalue = 7452.6"] ;
1141 -> 1142 ;
1143 [label="mse = 11888.0\nsamples = 9\nvalue = 7611.667"] ;
1141 -> 1143 ;
1144 [label="X[8] <= 0.681\nmse = 62171.976\nsamples = 13\nvalue = 7733.846"] ;
1138 -> 1144 ;
1145 [label="X[4] <= 4.5\nmse = 42898.89\nsamples = 10\nvalue = 7827.1"] ;
1144 -> 1145 ;
1146 [label="mse = 9829.959\nsamples = 7\nvalue = 7705.571"] ;
1145 -> 1146 ;
1147 [label="mse = 5188.222\nsamples = 3\nvalue = 8110.667"] ;
1145 -> 1147 ;
1148 [label="X[6] <= 1.5\nmse = 802.667\nsamples = 3\nvalue = 7423.0"] ;
1144 -> 1148 ;
1149 [label="mse = 0.0\nsamples = 1\nvalue = 7461.0"] ;
1148 -> 1149 ;
1150 [label="mse = 121.0\nsamples = 2\nvalue = 7404.0"] ;
1148 -> 1150 ;
1151 [label="X[8] <= 0.606\nmse = 32005.222\nsamples = 6\nvalue = 7380.333"] ;
1135 -> 1151 ;
1152 [label="X[9] <= 0.233\nmse = 8556.56\nsamples = 5\nvalue = 7309.8"] ;
1151 -> 1152 ;
1153 [label="mse = 0.0\nsamples = 1\nvalue = 7148.0"] ;
1152 -> 1153 ;
1154 [label="X[8] <= 0.554\nmse = 2514.688\nsamples = 4\nvalue = 7350.25"] ;
1152 -> 1154 ;
1155 [label="X[9] <= 0.253\nmse = 702.25\nsamples = 2\nvalue = 7308.5"] ;
1154 -> 1155 ;
1156 [label="mse = 0.0\nsamples = 1\nvalue = 7282.0"] ;
1155 -> 1156 ;
1157 [label="mse = 0.0\nsamples = 1\nvalue = 7335.0"] ;
1155 -> 1157 ;
1158 [label="X[7] <= 0.652\nmse = 841.0\nsamples = 2\nvalue = 7392.0"] ;
1154 -> 1158 ;
1159 [label="mse = 0.0\nsamples = 1\nvalue = 7363.0"] ;
1158 -> 1159 ;
1160 [label="mse = 0.0\nsamples = 1\nvalue = 7421.0"] ;
1158 -> 1160 ;
1161 [label="mse = 0.0\nsamples = 1\nvalue = 7733.0"] ;
1151 -> 1161 ;
1162 [label="X[4] <= 5.5\nmse = 201205.061\nsamples = 7\nvalue = 7019.286"] ;
1114 -> 1162 ;
1163 [label="X[7] <= 0.75\nmse = 45798.8\nsamples = 5\nvalue = 7262.0"] ;
1162 -> 1163 ;
1164 [label="mse = 0.0\nsamples = 1\nvalue = 6879.0"] ;
1163 -> 1164 ;
1165 [label="X[6] <= 1.5\nmse = 11408.188\nsamples = 4\nvalue = 7357.75"] ;
1163 -> 1165 ;
1166 [label="X[4] <= 4.5\nmse = 1404.667\nsamples = 3\nvalue = 7299.0"] ;
1165 -> 1166 ;
1167 [label="X[9] <= 0.143\nmse = 156.25\nsamples = 2\nvalue = 7273.5"] ;
1166 -> 1167 ;
1168 [label="mse = 0.0\nsamples = 1\nvalue = 7261.0"] ;
1167 -> 1168 ;
1169 [label="mse = 0.0\nsamples = 1\nvalue = 7286.0"] ;
1167 -> 1169 ;
1170 [label="mse = 0.0\nsamples = 1\nvalue = 7350.0"] ;
1166 -> 1170 ;
1171 [label="mse = 0.0\nsamples = 1\nvalue = 7534.0"] ;
1165 -> 1171 ;
1172 [label="X[6] <= 1.5\nmse = 74256.25\nsamples = 2\nvalue = 6412.5"] ;
1162 -> 1172 ;
1173 [label="mse = 0.0\nsamples = 1\nvalue = 6685.0"] ;
1172 -> 1173 ;
1174 [label="mse = 0.0\nsamples = 1\nvalue = 6140.0"] ;
1172 -> 1174 ;
1175 [label="mse = 0.0\nsamples = 1\nvalue = 5729.0"] ;
1113 -> 1175 ;
1176 [label="X[9] <= 0.237\nmse = 866421.734\nsamples = 34\nvalue = 6439.824"] ;
1038 -> 1176 ;
1177 [label="X[4] <= 1.5\nmse = 629581.566\nsamples = 28\nvalue = 6667.071"] ;
1176 -> 1177 ;
1178 [label="X[8] <= 0.715\nmse = 606230.926\nsamples = 11\nvalue = 6159.273"] ;
1177 -> 1178 ;
1179 [label="mse = 0.0\nsamples = 1\nvalue = 4549.0"] ;
1178 -> 1179 ;
1180 [label="X[8] <= 0.773\nmse = 381626.41\nsamples = 10\nvalue = 6320.3"] ;
1178 -> 1180 ;
1181 [label="X[9] <= 0.159\nmse = 200087.673\nsamples = 7\nvalue = 6608.571"] ;
1180 -> 1181 ;
1182 [label="X[5] <= 0.5\nmse = 156697.2\nsamples = 5\nvalue = 6792.0"] ;
1181 -> 1182 ;
1183 [label="mse = 0.0\nsamples = 1\nvalue = 7410.0"] ;
1182 -> 1183 ;
1184 [label="X[7] <= 0.517\nmse = 76520.25\nsamples = 4\nvalue = 6637.5"] ;
1182 -> 1184 ;
1185 [label="mse = 0.0\nsamples = 1\nvalue = 6234.0"] ;
1184 -> 1185 ;
1186 [label="X[6] <= 1.5\nmse = 29666.0\nsamples = 3\nvalue = 6772.0"] ;
1184 -> 1186 ;
1187 [label="mse = 0.0\nsamples = 1\nvalue = 6917.0"] ;
1186 -> 1187 ;
1188 [label="X[9] <= 0.141\nmse = 28730.25\nsamples = 2\nvalue = 6699.5"] ;
1186 -> 1188 ;
1189 [label="mse = 0.0\nsamples = 1\nvalue = 6530.0"] ;
1188 -> 1189 ;
1190 [label="mse = 0.0\nsamples = 1\nvalue = 6869.0"] ;
1188 -> 1190 ;
1191 [label="X[0] <= 3.5\nmse = 14161.0\nsamples = 2\nvalue = 6150.0"] ;
1181 -> 1191 ;
1192 [label="mse = 0.0\nsamples = 1\nvalue = 6031.0"] ;
1191 -> 1192 ;
1193 [label="mse = 0.0\nsamples = 1\nvalue = 6269.0"] ;
1191 -> 1193 ;
1194 [label="X[5] <= 0.5\nmse = 158880.222\nsamples = 3\nvalue = 5647.667"] ;
1180 -> 1194 ;
1195 [label="X[6] <= 1.5\nmse = 12544.0\nsamples = 2\nvalue = 5922.0"] ;
1194 -> 1195 ;
1196 [label="mse = 0.0\nsamples = 1\nvalue = 6034.0"] ;
1195 -> 1196 ;
1197 [label="mse = 0.0\nsamples = 1\nvalue = 5810.0"] ;
1195 -> 1197 ;
1198 [label="mse = 0.0\nsamples = 1\nvalue = 5099.0"] ;
1194 -> 1198 ;
1199 [label="X[8] <= 0.809\nmse = 369878.581\nsamples = 17\nvalue = 6995.647"] ;
1177 -> 1199 ;
1200 [label="X[7] <= 0.499\nmse = 187794.196\nsamples = 15\nvalue = 7153.267"] ;
1199 -> 1200 ;
1201 [label="X[6] <= 1.5\nmse = 11449.0\nsamples = 2\nvalue = 6499.0"] ;
1200 -> 1201 ;
1202 [label="mse = 0.0\nsamples = 1\nvalue = 6606.0"] ;
1201 -> 1202 ;
1203 [label="mse = 0.0\nsamples = 1\nvalue = 6392.0"] ;
1201 -> 1203 ;
1204 [label="X[7] <= 0.675\nmse = 138936.379\nsamples = 13\nvalue = 7253.923"] ;
1200 -> 1204 ;
1205 [label="X[8] <= 0.721\nmse = 30181.222\nsamples = 6\nvalue = 7510.667"] ;
1204 -> 1205 ;
1206 [label="mse = 0.0\nsamples = 1\nvalue = 7852.0"] ;
1205 -> 1206 ;
1207 [label="X[9] <= 0.092\nmse = 8255.44\nsamples = 5\nvalue = 7442.4"] ;
1205 -> 1207 ;
1208 [label="mse = 0.0\nsamples = 1\nvalue = 7572.0"] ;
1207 -> 1208 ;
1209 [label="X[7] <= 0.548\nmse = 5070.5\nsamples = 4\nvalue = 7410.0"] ;
1207 -> 1209 ;
1210 [label="X[7] <= 0.534\nmse = 1056.25\nsamples = 2\nvalue = 7476.5"] ;
1209 -> 1210 ;
1211 [label="mse = 0.0\nsamples = 1\nvalue = 7509.0"] ;
1210 -> 1211 ;
1212 [label="mse = 0.0\nsamples = 1\nvalue = 7444.0"] ;
1210 -> 1212 ;
1213 [label="X[7] <= 0.604\nmse = 240.25\nsamples = 2\nvalue = 7343.5"] ;
1209 -> 1213 ;
1214 [label="mse = 0.0\nsamples = 1\nvalue = 7359.0"] ;
1213 -> 1214 ;
1215 [label="mse = 0.0\nsamples = 1\nvalue = 7328.0"] ;
1213 -> 1215 ;
1216 [label="X[7] <= 0.698\nmse = 127225.551\nsamples = 7\nvalue = 7033.857"] ;
1204 -> 1216 ;
1217 [label="mse = 0.0\nsamples = 1\nvalue = 6299.0"] ;
1216 -> 1217 ;
1218 [label="X[8] <= 0.748\nmse = 43426.889\nsamples = 6\nvalue = 7156.333"] ;
1216 -> 1218 ;
1219 [label="X[5] <= 0.5\nmse = 31602.16\nsamples = 5\nvalue = 7214.8"] ;
1218 -> 1219 ;
1220 [label="mse = 0.0\nsamples = 1\nvalue = 6969.0"] ;
1219 -> 1220 ;
1221 [label="X[4] <= 4.0\nmse = 20622.188\nsamples = 4\nvalue = 7276.25"] ;
1219 -> 1221 ;
1222 [label="mse = 4442.889\nsamples = 3\nvalue = 7200.333"] ;
1221 -> 1222 ;
1223 [label="mse = 0.0\nsamples = 1\nvalue = 7504.0"] ;
1221 -> 1223 ;
1224 [label="mse = 0.0\nsamples = 1\nvalue = 6864.0"] ;
1218 -> 1224 ;
1225 [label="X[0] <= 3.5\nmse = 151710.25\nsamples = 2\nvalue = 5813.5"] ;
1199 -> 1225 ;
1226 [label="mse = 0.0\nsamples = 1\nvalue = 6203.0"] ;
1225 -> 1226 ;
1227 [label="mse = 0.0\nsamples = 1\nvalue = 5424.0"] ;
1225 -> 1227 ;
1228 [label="X[9] <= 0.238\nmse = 606042.222\nsamples = 6\nvalue = 5379.333"] ;
1176 -> 1228 ;
1229 [label="mse = 0.0\nsamples = 1\nvalue = 4127.0"] ;
1228 -> 1229 ;
1230 [label="X[4] <= 0.5\nmse = 350849.36\nsamples = 5\nvalue = 5629.8"] ;
1228 -> 1230 ;
1231 [label="mse = 0.0\nsamples = 1\nvalue = 4459.0"] ;
1230 -> 1231 ;
1232 [label="X[4] <= 5.5\nmse = 10195.25\nsamples = 4\nvalue = 5922.5"] ;
1230 -> 1232 ;
1233 [label="X[0] <= 3.5\nmse = 1980.25\nsamples = 2\nvalue = 5830.5"] ;
1232 -> 1233 ;
1234 [label="mse = 0.0\nsamples = 1\nvalue = 5786.0"] ;
1233 -> 1234 ;
1235 [label="mse = 0.0\nsamples = 1\nvalue = 5875.0"] ;
1233 -> 1235 ;
1236 [label="X[7] <= 0.66\nmse = 1482.25\nsamples = 2\nvalue = 6014.5"] ;
1232 -> 1236 ;
1237 [label="mse = 0.0\nsamples = 1\nvalue = 5976.0"] ;
1236 -> 1237 ;
1238 [label="mse = 0.0\nsamples = 1\nvalue = 6053.0"] ;
1236 -> 1238 ;
1239 [label="X[4] <= 0.5\nmse = 515606.535\nsamples = 21\nvalue = 6151.81"] ;
1037 -> 1239 ;
1240 [label="X[9] <= 0.147\nmse = 152181.556\nsamples = 3\nvalue = 5222.333"] ;
1239 -> 1240 ;
1241 [label="mse = 0.0\nsamples = 1\nvalue = 4672.0"] ;
1240 -> 1241 ;
1242 [label="X[9] <= 0.229\nmse = 1122.25\nsamples = 2\nvalue = 5497.5"] ;
1240 -> 1242 ;
1243 [label="mse = 0.0\nsamples = 1\nvalue = 5531.0"] ;
1242 -> 1243 ;
1244 [label="mse = 0.0\nsamples = 1\nvalue = 5464.0"] ;
1242 -> 1244 ;
1245 [label="X[7] <= 0.831\nmse = 408191.756\nsamples = 18\nvalue = 6306.722"] ;
1239 -> 1245 ;
1246 [label="X[2] <= 6.5\nmse = 259417.234\nsamples = 16\nvalue = 6451.125"] ;
1245 -> 1246 ;
1247 [label="X[0] <= 2.5\nmse = 36968.75\nsamples = 4\nvalue = 5906.5"] ;
1246 -> 1247 ;
1248 [label="mse = 0.0\nsamples = 1\nvalue = 6211.0"] ;
1247 -> 1248 ;
1249 [label="X[8] <= 0.587\nmse = 8082.667\nsamples = 3\nvalue = 5805.0"] ;
1247 -> 1249 ;
1250 [label="X[9] <= 0.151\nmse = 1681.0\nsamples = 2\nvalue = 5864.0"] ;
1249 -> 1250 ;
1251 [label="mse = 0.0\nsamples = 1\nvalue = 5905.0"] ;
1250 -> 1251 ;
1252 [label="mse = 0.0\nsamples = 1\nvalue = 5823.0"] ;
1250 -> 1252 ;
1253 [label="mse = 0.0\nsamples = 1\nvalue = 5687.0"] ;
1249 -> 1253 ;
1254 [label="X[8] <= 0.475\nmse = 201737.222\nsamples = 12\nvalue = 6632.667"] ;
1246 -> 1254 ;
1255 [label="X[9] <= 0.17\nmse = 194.667\nsamples = 3\nvalue = 6225.0"] ;
1254 -> 1255 ;
1256 [label="mse = 0.0\nsamples = 1\nvalue = 6207.0"] ;
1255 -> 1256 ;
1257 [label="X[7] <= 0.805\nmse = 49.0\nsamples = 2\nvalue = 6234.0"] ;
1255 -> 1257 ;
1258 [label="mse = 0.0\nsamples = 1\nvalue = 6227.0"] ;
1257 -> 1258 ;
1259 [label="mse = 0.0\nsamples = 1\nvalue = 6241.0"] ;
1257 -> 1259 ;
1260 [label="X[7] <= 0.791\nmse = 195054.914\nsamples = 9\nvalue = 6768.556"] ;
1254 -> 1260 ;
1261 [label="X[5] <= 0.5\nmse = 79496.556\nsamples = 6\nvalue = 6932.333"] ;
1260 -> 1261 ;
1262 [label="mse = 0.0\nsamples = 1\nvalue = 7403.0"] ;
1261 -> 1262 ;
1263 [label="X[6] <= 1.5\nmse = 42229.36\nsamples = 5\nvalue = 6838.2"] ;
1261 -> 1263 ;
1264 [label="X[8] <= 0.599\nmse = 17338.5\nsamples = 4\nvalue = 6754.0"] ;
1263 -> 1264 ;
1265 [label="X[8] <= 0.543\nmse = 11309.556\nsamples = 3\nvalue = 6808.333"] ;
1264 -> 1265 ;
1266 [label="mse = 0.0\nsamples = 1\nvalue = 6660.0"] ;
1265 -> 1266 ;
1267 [label="X[9] <= 0.219\nmse = 462.25\nsamples = 2\nvalue = 6882.5"] ;
1265 -> 1267 ;
1268 [label="mse = 0.0\nsamples = 1\nvalue = 6904.0"] ;
1267 -> 1268 ;
1269 [label="mse = 0.0\nsamples = 1\nvalue = 6861.0"] ;
1267 -> 1269 ;
